tree
version=v4
num_class=1
num_tree_per_iteration=1
label_index=0
max_feature_idx=17
objective=binary sigmoid:1
feature_names=rsi williams_r cci trend_str vol_ratio ma5_ma20_dev_pct price_vwap_dev_pct regime_code mtf_aligned_code volume_quality_score bid_ask_imbalance order_flow_delta_scaled orb_breakout real_ofi_interval real_big_trade_interval_scaled spread_pct market_return_5m_pct time_of_day_pct
feature_infos=[0:100] [-100:0] [-666.70000000000005:666.70000000000005] [0:0.93000000000000005] [0:6.6100000000000003] [-7.4293086764864018:7.2365103378719153] [-7.1969696969697017:10.811988992010214] [-3:2] [-1:1] [24.199999999999999:100] none none none none none none [-5.1849999999999996:4.25] none
tree_sizes=3226 3481 3285 3392 3480 3501 3392 3282 3498 3503 3391 3286 3379 3391 3507 3492 3481 3299 3394 3489 3277 3284 3273 3406 3489 3075 3303 2975 3088 2968 3178 3509 3516 3176 3413 3315 3314 3313 3268 3401 3413 3413 3509 3304 3525 3176 3382 3317 3400 3408 3187 3531 3518 3529 3532 3417 3422 3213 3393 3538 3331 3324 3326 3102 3422 3300 3432 3521 3421 3521 3523 3517 3409 3528 3514 3102 3220 3309 3286 3329 3530 3294 3313 3396 3411 3096 3407 3212 3188 3095 3085 2759 3093 3206 3203 3420 3532 3534 3515 3410 2772 2876 3315 2852 2434 2984 2773 2979 3536 3001 3070 3187 3191 3416 3203 2670 3410 3007 3304 2670 3527 3556 3541 3296 3420 3098 3075 3077 2739 3227 1908 2772 1901 3298 3411 2781 2894 2556 2640 2867 3207 3109 3524 3323 3495 2652 2867 2865 2765 2866 3100 2111 1792 1780 3535 3199 1362 3319 3216 3079 3202 3094 3192 3444 3430 3194 2754 3187 2533 3186 1907 2856 2773 2879 2646 2985 3533 3217 3220 3311 1350 2098 1557 2010 1348 1888 1575 1995 2980 1880 2756 2878 2771 2776 1901 2891 2975 2893 2768 2896 1770 2095 1993 2112 1894 3054 2788 2428 2549 3205 2679 2980 2445 2315 3320 2010 2008 3017 2000 2008 2555 2088 2333 2454 2097 2210 2312 2204 2310 2302 2448 1660 1222 1221 1438 2547 2548 3418 2553 2755 3073 1679 2525 1681 1892 2848 3099 2875 2431 3086 2879 2975 2747 2762 1989 3295 2564 2554 3192 2770 2454 2014 3537 2457 2022 2962 2524 2447 1993 1553 2398 2322 1882 1784 2302 3323 3210 2879 2653 3533 3547 2990 2656 2975 2663 1867 1855 1861 2010 1862 1791 1994 1775 1781 2985 2736 2187 2409 2886 3219 2107 2651 2113 2674 2009 2215 2440 3322 2531 2210 3074 2654 2890 3178 2971 2001 1995 2007 2120 1991 2979 1996 2987 2980 1797 1976 2091 3402 1987 3522 3534 2565 2659 2653 2767 1900 1798 2101 1242 1655 1876 2960 2868 2975 2952 2762 2781 2780 2668 2876 2991 2987 3004 3307 3209 2446 2551 2330 2438 3083 3296 2546 2775 3420 2422 2741 2417 2746 2866 3200 2970 3088 3095 2976 3013 2550 3402 2341 2645 2743 3110 3001 3106 3102 2895 2210 2757 2220 2760 2761 1792 1996 2654 1776 2654 1985 2080 3092 2746 2760 1669 1238 1360 1671 2443 1773 1443 1117 1452 1120 2875 2537 2547 2205 2191 3403 3196 3217 2990 3441 2781 3298 2765 2672 2776 2551 2567 2449 2644 2559 2105 2671 2892 2546 2543 2224 3302 2993 2232 3092 2729 2110 3008 2989 1884 3535 3419 3417 3438 3321 2533 2871 2551 2426 3088 2963 2731 2742 2732 2737 2885 2560 2542 2666 2647 2765 3196 2541 2668 2754 2738 2535 2856 2752 2839 2306 2226 1338 2096 2095 2860 2552 3226 2649 2869 3489 2965 1772 3401 2857 2443 2527 2670 2986 2461 2300 1449 1450 1448 1446 2865 2872 2873 2997 2863 2115 2848 2003 2002 2116 2332 1981 2212 1870 1980 2561 2203 2631 2560 2850 3316 2343 3223 2443 3430 1984 2200 2093 2099 1976 2101 2426 2536 2769 1997 2335 2442 2433 2770 2446 1894 1886 1783 1895 1780 2111 2433 2324 2773 2342 2530 3189 2531 2634 3417 3324 2416 3322 3088 3308 2997 1999 1988 2094 2084 1868 1867 1862 2530 2435 3091 2323 2432 2650 2114 2003 2009 2008 2012 1671 3313 3316 3185 3522 2535 2563 2289 2429 2294 2191 3066 2317 2858 3065 2216 2440 2639 3228 2637 2562 1797 1995 2214 1879 1880 1987 2553 2753 2346 2542 2766 2521 2874 2643 2516 2960 2858 3056 3203 2433 2410 2426 2420 2548 2510 2856 2750 1768 1780 1662 2419 2315 2456 2985 2111 2646 2435 2858 2967 2083 2322 2546 2314 2331 2328 2750 2865 2638 2308 2549 2125 2113 2120 2117 2116 1770 1770 2872 1762 1772 2082 1995 3315 1337 3370 3106 3203 2553 3199 2990 3395 3205 2236 2242 3300 2339 1998 1993 2011 2119 2086 1980 2318 2319 1989 3099 2769 3092 2997 2991 2990 2892 2994 2994 2441 1444 1451 1452 2005 2005 1761 2079 1768 1981 1789 2972 3189 2469 3205 2983 2857 2879 2765 2990 2982 3073 3079 2970 2853 3194 3212 3411 1999 3418 2010 2535 1890 1562 1781 1783 1884 1886 1879 2321 1887 2869 2877 2340 2984 2424 3095 2426 2443 2847 2864 2209 2636 3316 3398 2427 1991 2321 2438 1876 1987 2114 2416 2211 2532 2312 2874 2759 2760 2440 2550 2977 2994 2848 2313 2195 3324 3208 2424 2333 3190 2974 2977 3315 3208 2975 3179 3188 3306 3188 2553 3182 1896 3434 2225 1900 1982 2305 2299 2199 2200 2772 3093 3082 2658 2976 2760 2200 2103 1893 2102 1791 1911 1877 2440 1465 2536 2429 2746 2551 2333 2323 2768 1890 2100 1888 3074 3081 2856 3083 3077 3192 3194 2203 2322 2315 2758 2755 2770 2542 2751 2627 2522 2535 2185 2520 1787 3319 3540 3537 3430 2863 2770 2575 2340 2339 2310 2872 2870 2873 2746 2994 2868 2876 2771 2211 3327 2677 3204 2992 3534 2115 2561 2106 2646 2654 2437 2660 2537 2855 2747 3067 2659 2750 2647 2742 2667 2857 2987 2527 2847 2540 2640 2532 2441 2650 1652 1782 2089 2310 1768 2663 2659 2978 3393 3510 1440 3181 3189 1435 1445 1781 1880 1886 2967 1885 2778 2559 2445 2659 2770 2764 2649 2973 2975 2985 3094 2762 2314 2959 3074 2553 2552 2434 2755 2649 2433 2457 2455 2315 2440 2979 2652 2982 2653 2660 1877 1875 1862 1879 2218 2417 1891 1887 2540 2430 2644 2105 2222 2759 2657 2988 3404 2127 2658 1973 2879 3316 3198 3204 2012 2423 1996 2423 2305 2314 3014 3329 3018 3213 3102 2747 2975 2751 2846 2994 3015 3013 2884 3013 2566 2437 2220 2435 2528 2299 2426 2332 2541 2212 2542 2439 3310 3200 3099 3316 2633 2334 1755 2126 2755 2653 2639 3093 2555 3090 2781 3123 2877 2987 2973 2957 3095 2870 2738 2982 1990 2864 1989 1787 2856 1326 2759 2406 2313 2863 1993 1874 1769 1879 1876 2963 2771 2668 2885 2766 3414 2756 2867 1876 2655 2644 2887 3325 3111 2774 2978 2973 2862 2984 2985 1667 3430 1664 1764 1557 1767 2212 2002 2104 2088 2875 2767 2443 2546 3107 2099 3312 3185 2528 3204 2859 2639 2629 2626 2962 3315 3087 3297 2877 2973 2651 1987 1988 1885 1981 2643 2209 2857 2417 2000 2720 2553 2334 2658 2551 2429 2328 3092 2210 2862 2670 1146 1141 1145 2560 2762 3517 2529 3417 2753 2345 1892 2757 2991 2994 2533 2882 2537 2756 2238 2003 2006 1977 2759 1989 3226 3235 2774 2430 3211 2776 2890 2674 3104 2881 2983 2196 3174 2981 2853 2457 2559 2530 2784 2673 1563 2424 2211 2534 2208 2988 3091 2879 2776 2982 2437 2228 2867 2228 2965 2206 1895 2557 2654 2963 3310 2969 3173 3068 3073 2443 3310 2541 2640 2438 1903 3426 3431 3216 3336 3191 1993 3113 2870 3097 2441 2741 2209 2764 2224 2078 1769 2098 2099 2417 3189 2866 2944 2639 2513 2982 2958 2119 3086 2954 2123 2984 2227 2238 2232 2329 2321 2332 2663 2676 2439 2425 2557 2870 2768 2444 2329 2451 2336 2333 2451 2665 1886 1901 2411 2846 2957 2322 1900 2525 2976 2877 2209 3313 2429 2439 2765 2438 2763 2863 2098 2202 1886 1880 1995 2218 1898 2208 2639 2750 3119 2534 3210 3125 2544 2653 3184 2115 2967 2095 2551 2648 2572 2424 2556 2571 2759 2972 2569 2972

Tree=0
num_leaves=29
num_cat=0
split_feature=6 5 1 9 9 5 6 6 5 6 5 6 1 6 9 9 4 6 9 2 4 16 2 16 2 16 4 5
split_gain=520.091 459.141 244.071 127.643 92.6145 54.6475 49.3208 43.851 39.2101 38.2457 35.255 22.0353 18.4021 28.7764 18.3496 13.9618 13.2003 12.4403 12.1426 12.0426 11.239 11.0957 9.4038 9.15804 9.06976 8.62777 8.41718 6.36508
threshold=-0.21757733333064852 0.22723080906774665 -1.0000000180025095e-35 72.750000000000014 56.750000000000007 0.7238072286421372 -0.63982596382022849 0.17944162128881172 0.05606578389302231 0.32863262610173255 -0.084134845487865415 0.086851384597996809 -6.2499999999999991 0.28942826067160926 69.950000000000017 74.550000000000011 0.22500000000000003 -0.38756334820211896 59.150000000000013 -7.2499999999999991 3.4050000000000007 -0.057499999999999996 -106.84999999999998 -0.63649999999999995 -95.149999999999991 -0.054499999999999993 0.84500000000000008 0.62803138864794283
decision_type=2 2 2 2 2 2 2 2 2 2 2 2 2 2 2 2 2 2 2 2 2 2 2 2 2 2 2 2
left_child=6 2 4 9 11 12 14 -5 -6 -4 15 -2 27 -14 23 21 -7 24 -18 -19 26 -8 -17 -1 -12 -25 -16 -3
right_child=1 5 3 7 8 16 10 -9 -10 -11 17 -13 13 -15 20 22 18 19 -20 -21 -22 -23 -24 25 -26 -27 -28 -29
leaf_value=-0.85824534877169745 -0.8818283731092913 -0.86958522914601544 -0.88721000964679042 -0.88150721240638896 -0.87650494432796766 -0.87788284105698156 -0.8744392456949629 -0.87547149072749919 -0.87267962146271882 -0.87729470683027855 -0.85124096691127971 -0.8752719360138973 -0.88194038491011695 -0.87164938266025482 -0.86491386615501387 -0.87033339665337306 -0.84963855972284341 -0.86558092334428105 -0.86398493729845816 -0.87925102699489077 -0.87581923222658864 -0.87045192124441895 -0.86592305710960515 -0.8735861280830316 -0.8639340185680543 -0.86561302281845864 -0.85914851277000293 -0.86336042315444461
leaf_weight=31.556094288825989 1492.0634845644236 950.62734045088291 1834.6131923049688 1310.6159424036741 5308.0672287940979 26.158341318368912 553.68489123880863 761.08316883444786 1343.0024602264166 170.02921856939793 40.275541394948959 237.70873658359051 125.80916538834572 798.65983374416828 148.85341845452785 735.13243339955807 24.705100134015083 388.01539622247219 526.90373227000237 27.61158250272274 21.38340599834919 563.02715599536896 262.41383671760559 113.56041826307774 51.071047335863113 104.01054762303829 317.01418407261372 70.586000382900238
leaf_count=152 7187 4579 8837 6313 25568 126 2667 3666 6469 819 194 1145 606 3847 717 3541 119 1869 2538 133 103 2712 1264 547 246 501 1527 340
internal_value=-0.875587 -0.877181 -0.878757 -0.882771 -0.876805 -0.869402 -0.868472 -0.87929 -0.875733 -0.886369 -0.869757 -0.880927 -0.871006 -0.87305 -0.863899 -0.870893 -0.864001 -0.86502 -0.863342 -0.866489 -0.861641 -0.872429 -0.869173 -0.868314 -0.858338 -0.869775 -0.860991 -0.869155
internal_weight=18338.2 14980.6 12457.2 4076.34 8380.84 2523.45 3357.61 2071.7 6651.07 2004.64 2621.23 1729.77 1945.68 924.469 736.378 2114.26 577.767 506.974 551.609 415.627 487.251 1116.71 997.546 249.127 91.3466 217.571 465.868 1021.21
internal_count=88332 72159 60004 19635 40369 12155 16173 9979 32037 9656 12626 8332 9372 4453 3547 10184 2783 2442 2657 2002 2347 5379 4805 1200 440 1048 2244 4919
is_linear=0
shrinkage=1


Tree=1
num_leaves=31
num_cat=0
split_feature=1 5 0 5 5 9 9 3 9 5 4 5 5 0 2 0 0 9 9 9 2 5 3 3 2 9 4 9 4 9
split_gain=380.756 286.742 183.622 132.412 157.809 118.902 75.1841 53.1285 49.3941 34.8038 33.558 27.779 23.4418 22.2792 17.3042 14.6244 14.6042 11.391 11.2071 10.7497 9.37404 9.20444 11.2845 8.78185 6.64337 6.29197 5.62615 4.36329 2.88896 2.71719
threshold=-2.3499999999999996 0.22087651169845349 99.450000000000017 -0.54521907856342466 0.18437345767875482 72.750000000000014 67.950000000000017 0.23500000000000001 57.350000000000001 0.62803138864794283 0.50500000000000012 0.7238072286421372 0.096144602369363522 79.450000000000017 16.850000000000005 61.550000000000004 46.250000000000007 73.550000000000011 83.15000000000002 63.150000000000013 47.650000000000013 0.3301124747184026 0.6150000000000001 0.76500000000000012 -95.149999999999991 79.350000000000009 2.0850000000000004 54.150000000000013 0.43500000000000005 41.95000000000001
decision_type=2 2 2 2 2 2 2 2 2 2 2 2 2 2 2 2 2 2 2 2 2 2 2 2 2 2 2 2 2 2
left_child=2 5 3 17 6 12 -5 20 28 -6 21 15 16 -9 18 -12 -2 24 -10 -14 -7 27 -23 -19 -1 -16 -13 -3 29 -4
right_child=1 10 8 4 9 7 -8 13 14 -11 11 26 19 -15 25 -17 -18 23 -20 -21 -22 22 -24 -25 -26 -27 -28 -29 -30 -31
leaf_value=0.011134894965683453 -0.0040456143003265096 -0.01145586490411608 -0.020075627465242704 -0.0011177237577537592 0.0058417014925478666 -0.010554874340055517 0.002345745010161996 -0.0002796804700982356 -0.0065377125415755025 0.012541713323389127 0.010863482051468478 0.013510213690387365 -0.0093152252202198943 -0.010423371562403656 -0.020434553029377286 0.0026859585083151643 -0.012469786938392036 0.014106179254111966 0.0014434709768461004 -0.0035208762527362226 -0.0061070176818273847 0.0048514361752527262 -0.0076643586956312735 0.0055564131409478771 0.0043606856860448238 -0.0071118890037915874 0.0055928888457090122 -0.0031154795811261593 -0.021740164503810902 -0.012951304621131129
leaf_weight=107.25442412495613 87.620963662862778 52.123906031250954 41.420851334929466 4387.4865503311157 1254.3208895027637 285.39705689251423 5849.5258745402098 1111.0055155009031 203.78992812335491 411.98482282459736 100.98436897993088 173.57056219875813 331.64484289288521 93.932547032833099 37.989503398537636 654.00467382371426 1359.5240768492222 366.73289930820465 107.49735563993454 208.63813151419163 564.26117068529129 85.484979048371315 43.46735967695713 55.301289483904839 125.85831998288631 22.624045431613922 45.264198333024979 48.376044809818268 76.417967945337296 44.33290408551693
leaf_count=515 424 251 200 21140 6029 1378 28156 5358 982 1975 486 832 1604 453 183 3147 6579 1758 518 1009 2723 411 209 265 605 109 217 233 369 214
internal_value=-4.03497e-05 -0.00459344 0.00178377 0.00227221 0.00179041 -0.00714481 0.000861335 -0.00377111 -0.00970169 0.00749824 0.00397709 0.00559835 -0.0106325 -0.00107045 -0.00568525 0.00377975 -0.0119597 0.0110259 -0.00378156 -0.00707765 -0.00760104 -0.00290371 0.000632602 0.0129859 0.00747748 -0.0154619 0.0118726 -0.00744119 -0.0189124 -0.0163925
internal_weight=18337.8 5245.3 13092.5 12558.5 11903.3 4042.02 10237 2054.6 534.073 1666.31 1203.28 973.824 1987.43 1204.94 371.901 754.989 1447.15 655.147 311.287 540.283 849.658 229.452 128.952 422.034 233.113 60.6135 218.835 100.5 162.172 85.7538
internal_count=88332 25314 63018 60443 57300 19528 49296 9912 2575 8004 5786 4682 9616 5811 1792 3633 7003 3143 1500 2613 4101 1104 620 2023 1120 292 1049 484 783 414
is_linear=0
shrinkage=0.02


Tree=2
num_leaves=29
num_cat=0
split_feature=6 5 1 9 0 9 6 9 6 6 6 5 1 6 9 9 9 6 2 0 16 4 2 6 16 2 16 4
split_gain=489.679 425.018 224.954 119.98 92.702 53.424 50.1988 48.7162 44.6247 41.6138 36.9874 33.6272 30.285 24.7265 16.6137 12.7931 12.7247 11.7139 11.5568 10.8256 10.6593 10.5145 9.81047 9.12696 8.60929 8.5518 8.23675 7.88253
threshold=-0.21757733333064852 0.22723080906774665 -1.0000000180025095e-35 72.750000000000014 82.65000000000002 67.950000000000017 0.81509657316528605 57.350000000000001 -0.63982596382022849 0.17944162128881172 0.32863262610173255 -0.084134845487865415 -1.0000000180025095e-35 0.28942826067160926 69.950000000000017 58.150000000000013 74.550000000000011 -0.38756334820211896 -7.2499999999999991 57.750000000000007 -0.057499999999999996 3.4050000000000007 62.650000000000013 -0.43920218181233145 -0.63649999999999995 -95.149999999999991 -0.054499999999999993 0.84500000000000008
decision_type=2 2 2 2 2 2 2 2 2 2 2 2 2 2 2 2 2 2 2 2 2 2 2 2 2 2 2 2
left_child=8 2 4 10 5 -2 12 -6 14 -5 -4 16 19 -14 24 -8 20 25 -19 -3 -10 27 -17 -18 -1 -13 -26 -16
right_child=1 6 3 9 7 -7 15 -9 11 -11 -12 17 13 -15 21 22 23 18 -20 -21 -22 -23 -24 -25 26 -27 -28 -29
leaf_value=0.016696846629936847 -0.0025824175154888439 0.010063307832920886 -0.01132346145940683 -0.0057738087516669744 -0.018595649589101728 0.0007466310222810624 0.023408368317361192 -0.0053568767847846149 0.0010779801313839049 0.00011218001275095978 -0.0015496674342262069 0.023543303772942271 -0.0066674839652664667 0.0029061827428982475 0.010153263047364532 0.0019856667073208946 0.009234369488147624 0.0096990912956919032 -0.003692322702943274 0.0054000226497579063 0.0049835573032893819 -0.00038741722567482055 0.011178175796285909 0.0049696680190081353 0.0018426033231361638 0.01126918599970924 0.009617764345216882 0.015707881763804502
leaf_weight=31.845284998416901 3404.7985803037882 258.1579512655735 1817.5704525858164 1304.8262375891209 159.44478951394558 4446.2159949839115 31.595829710364342 367.31836046278477 554.00125285983086 760.48689430952072 169.30380003154278 40.69705331325531 127.62900765240192 698.47993493080139 150.0557124465704 51.213489428162575 277.76151360571384 389.77600164711475 27.603360190987587 870.81079959869385 564.18271473050117 21.433692663908005 498.11388818919659 723.77526608109474 113.82254853844643 51.361549541354179 104.56979541480541 320.37841694056988
leaf_count=152 16423 1237 8837 6313 776 21396 151 1774 2667 3666 819 194 616 3355 717 245 1332 1869 133 4170 2712 103 2381 3473 547 246 501 1527
internal_value=-3.96991e-05 -0.00159088 -0.00311325 -0.00698192 -0.00124205 -0.000697098 0.00587089 -0.00936409 0.00684642 -0.00360648 -0.0104906 0.00562393 0.00433705 0.00142711 0.0111775 0.011033 0.00451508 0.0102377 0.00881345 0.00646636 0.00304855 0.0133119 0.0103212 0.00615242 0.00698206 0.0166953 0.00556548 0.0139361
internal_weight=18337.2 14966 12430 4052.19 8377.78 7851.01 2536 526.763 3371.26 2065.31 1986.87 2629.16 1955.08 826.109 742.105 580.923 2119.72 509.438 417.379 1128.97 1118.18 491.868 549.327 1001.54 250.238 92.0586 218.392 470.434
internal_count=88332 72159 60004 19635 40369 37819 12155 2550 16173 9979 9656 12626 9378 3971 3547 2777 10184 2442 2002 5407 5379 2347 2626 4805 1200 440 1048 2244
is_linear=0
shrinkage=0.02


Tree=3
num_leaves=30
num_cat=0
split_feature=6 6 1 9 0 9 6 9 3 6 3 1 4 9 0 9 9 9 16 16 6 4 16 16 16 4 6 6 4
split_gain=469.286 362.956 292.58 119.676 96.8104 54.0057 48.8952 47.4329 44.9322 42.4507 40.3387 32.5882 17.4678 16.926 23.4958 15.7559 14.2737 12.4404 12.3748 10.9713 10.1544 9.98939 9.20848 8.17126 7.8556 7.45101 6.94136 6.63331 3.33487
threshold=-0.21757733333064852 0.32863262610173255 -1.0000000180025095e-35 72.550000000000011 99.450000000000017 67.950000000000017 0.68305567519415533 57.350000000000001 0.23500000000000001 -0.63982596382022849 0.20500000000000004 -6.2499999999999991 0.50500000000000012 74.550000000000011 45.550000000000004 69.950000000000017 62.750000000000007 58.750000000000007 1.3255000000000001 -0.095499999999999988 -0.32979113228288054 3.4050000000000007 0.052500000000000005 -0.63649999999999995 -0.054499999999999993 0.84500000000000008 -0.33783783783783433 -0.26841349947593901 0.36500000000000005
decision_type=2 2 2 2 2 2 2 2 2 2 2 2 2 2 2 2 2 2 2 2 2 2 2 2 2 2 2 2 2
left_child=9 2 4 16 5 -2 11 -6 -5 15 19 18 -13 20 -15 23 -4 28 -3 27 -12 25 -19 -1 -25 -17 -21 -11 -8
right_child=1 6 3 8 7 -7 17 -9 -10 10 13 12 -14 14 -16 21 -18 22 -20 26 -22 -23 -24 24 -26 -27 -28 -29 -30
leaf_value=0.016253168815628848 -0.0021892194628406912 0.0087454700102268367 -0.012526706698758052 -0.0074954096169158159 -0.018359052194460594 0.0010481640349167139 0.012301904873410992 -0.0052484462855981497 -0.0013781701794616727 0.013936605236422699 0.0050162563304853979 -0.0041090287956252669 0.0028276283434068268 0.0057613690002895337 0.016114041499354123 0.0099093120455474078 -0.0089922697695737977 0.01238209180326862 -0.0042539744054039914 0.026914509004181172 0.0014798403358721633 -0.00037972885443025725 0.0076479972252585307 0.001804377202333595 0.0093884553547024935 0.015296894934790207 0.015606879287771021 -0.0010702068381567343 0.022031642556069844
leaf_weight=32.058111578226089 3610.9348187148571 442.75608536601067 1101.9876405745745 840.87871031463146 157.99054838716984 4802.4288263171911 22.028304740786552 366.29373720288277 1120.037433847785 25.476936206221581 665.43587057292461 183.48743407428265 696.08446288108826 1076.0063204318285 95.46922704577446 150.66855779290199 780.92551140487194 240.54234360158443 31.367226913571358 28.875198304653168 634.4157989770174 21.4302928596735 518.87620867788792 113.90837596356869 104.97722139954567 322.38578253984451 87.572257533669472 21.917743757367134 39.105156928300858
leaf_count=152 17423 2118 5382 4080 775 23090 105 1773 5412 122 3194 885 3346 5147 456 717 3812 1148 150 138 3045 103 2474 547 501 1527 419 105 186
internal_value=-3.90747e-05 -0.00156027 -0.00284531 -0.00745946 -0.0008609 -0.00034129 0.00599394 -0.00919926 -0.00400136 0.00669069 0.00549869 0.00365886 0.00138057 0.00486156 0.00660506 0.0109045 -0.0110608 0.0098462 0.00788545 0.015109 0.00329025 0.0129759 0.0091475 0.00682286 0.00544169 0.0135809 0.0184108 0.00699668 0.0185257
internal_weight=18336.3 14955.7 12781.5 3843.83 8937.65 8413.36 2174.25 524.284 1960.92 3380.6 2635.17 1353.7 879.572 2471.33 1171.48 745.428 1882.91 820.552 474.123 163.842 1299.85 494.485 759.419 250.944 218.886 473.054 116.447 47.3947 61.1335
internal_count=88332 72159 61747 18686 43061 40513 10412 2548 9492 16173 12626 6499 4231 11842 5603 3547 9194 3913 2268 784 6239 2347 3622 1200 1048 2244 557 227 291
is_linear=0
shrinkage=0.02


Tree=4
num_leaves=31
num_cat=0
split_feature=1 5 0 5 5 9 9 5 3 9 4 5 5 0 5 3 2 0 0 9 9 2 5 2 1 9 4 9 4 9
split_gain=339.308 256.9 164.321 119.587 147.886 108.158 56.9824 50.5523 48.9255 45.7019 31.0027 24.3637 22.5638 21.5198 21.0613 19.1857 16.9316 14.326 13.9861 10.8551 10.2493 9.03714 8.28315 11.0402 7.13588 6.19874 5.26801 4.21684 2.87672 2.69182
threshold=-2.3499999999999996 0.22087651169845349 99.450000000000017 0.27566501239606472 -0.22039119450824038 72.750000000000014 67.950000000000017 -0.61940852606743302 0.23500000000000001 57.350000000000001 0.50500000000000012 0.7238072286421372 0.096144602369363522 79.450000000000017 0.62803138864794283 0.43500000000000005 16.850000000000005 46.250000000000007 61.550000000000004 83.15000000000002 63.150000000000013 47.650000000000013 0.3301124747184026 83.350000000000009 -9.8999999999999986 79.350000000000009 2.0850000000000004 54.150000000000013 0.43500000000000005 41.95000000000001
decision_type=2 2 2 2 2 2 2 2 2 2 2 2 2 2 2 2 2 2 2 2 2 2 2 2 2 2 2 2 2 2
left_child=2 5 3 4 7 12 -6 -1 21 28 22 18 17 -10 15 -5 19 -2 -12 -11 -14 -7 27 -24 -16 -18 -13 -3 29 -4
right_child=1 10 9 14 6 8 -8 -9 13 16 11 26 20 -15 24 -17 25 -19 -20 -21 -22 -23 23 -25 -26 -27 -28 -29 -30 -31
leaf_value=0.011353250886967139 -0.0035805196303720457 -0.011181974588846762 -0.019416161969951464 0.0096301390253255535 -0.0014942582612626517 -0.010185048299701347 0.001720990407217318 0.0043617987743060542 -0.00020847565867139912 -0.0062416988786275227 0.010475719115137618 0.012683595707348084 -0.0088433963000700139 -0.010205015723902443 0.010545764726245004 0.0032342760223629209 -0.020099530263927929 -0.011969652146608244 0.0025028698831212619 0.0016325440075208885 -0.0031576507192012339 -0.0057980426081911205 -0.010434588387118492 0.0035838725500895925 0.017155733943799323 -0.0068159650221803645 0.0050619448811561043 -0.0029605695214448926 -0.021102189132832169 -0.012245293809074367
leaf_weight=526.93403050303459 86.69024071097374 51.735270634293556 40.42916738986969 352.803058847785 3903.9080571979284 282.58505433797836 5065.8620335757732 1924.7443333864212 1109.3518879264593 202.34889326989651 101.63897103071213 175.85790614783764 327.57614330947399 93.390238240361214 335.59348230063915 400.64708676934242 37.530522301793098 1340.2300438582897 656.31662347912788 107.09029692411423 206.92829038202763 560.11916266381741 28.945457205176353 100.47710892558098 81.1211197078228 22.461875200271606 45.702327936887741 48.20867158472538 74.529471710324287 43.435948297381401
leaf_count=2496 424 251 200 1684 18833 1378 24324 9218 5358 982 486 832 1604 453 1591 1913 183 6579 3147 518 1009 2723 139 481 384 109 217 233 369 214
internal_value=-3.84618e-05 -0.00435349 0.00167702 0.00213529 0.00151142 -0.00679154 0.00032162 0.00586446 -0.00357382 -0.00925535 0.0037275 0.00527737 -0.0101471 -0.000984685 0.00822459 0.00622914 -0.00540186 -0.01146 0.003572 -0.00351659 -0.00664221 -0.00726914 -0.00289129 0.000448633 0.0118325 -0.015126 0.0111114 -0.00721632 -0.018243 -0.0157022
internal_weight=18335.2 5215.75 13119.4 12591.6 11421.4 4006.87 8969.77 2451.68 2045.45 527.826 1208.88 979.516 1961.42 1202.74 1170.16 753.45 369.432 1426.92 757.956 309.439 534.504 842.704 229.367 129.423 416.715 59.9924 221.56 99.9439 158.395 83.8651
internal_count=88332 25314 63018 60443 54871 19528 43157 11714 9912 2575 5786 4682 9616 5811 5572 3597 1792 7003 3633 1500 2613 4101 1104 620 1975 292 1049 484 783 414
is_linear=0
shrinkage=0.02


Tree=5
num_leaves=31
num_cat=0
split_feature=1 5 0 5 5 9 9 3 9 5 4 5 3 16 0 5 9 9 0 16 16 5 2 2 2 5 2 9 4 16
split_gain=338.204 261.532 149.769 112.618 129.455 94.0724 68.2185 50.4748 46.475 31.867 25.7738 21.7242 20.6262 18.6999 16.967 16.9624 14.3988 12.2531 11.7977 11.3977 10.1397 10.0201 17.0912 9.60219 8.85236 7.03164 6.22105 4.46554 2.02425 2.40932
threshold=-2.1499999999999999 0.22087651169845349 99.450000000000017 -0.29269434949354961 0.34009338022394925 72.750000000000014 67.950000000000017 0.23500000000000001 58.95000000000001 -0.61940852606743302 0.49500000000000005 0.7238072286421372 0.26500000000000007 -0.73149999999999993 70.65000000000002 0.62803138864794283 83.15000000000002 60.750000000000007 68.850000000000009 -1.0000000180025095e-35 0.052500000000000005 0.3301124747184026 80.850000000000009 35.050000000000004 -76.84999999999998 0.14131458819915957 31.800000000000001 53.550000000000004 0.43500000000000005 0.097500000000000017
decision_type=2 2 2 2 2 2 2 2 2 2 2 2 2 2 2 2 2 2 2 2 2 2 2 2 2 2 2 2 2 2
left_child=2 5 3 9 6 12 -5 25 28 24 21 18 26 -11 -9 -6 23 -14 -12 -18 -13 27 -23 -10 -1 -7 -2 -3 29 -4
right_child=1 10 8 4 15 7 -8 14 16 13 11 20 17 -15 -16 -17 19 -19 -20 -21 -22 22 -24 -25 -26 -27 -28 -29 -30 -31
leaf_value=0.012435360663489861 -0.0077678808196604311 -0.011242473474566981 -0.012693551294196794 -0.0010411012611156669 0.0061748020057369683 -0.0078009191309969615 0.0022934797830630287 1.9613148535775213e-07 -0.0055027167963607251 0.014707199497026285 0.0069195676927755389 0.017517754164639032 -0.010116812018384826 0.0044994260884191825 -0.0062790422832518945 0.011636022416736051 -0.0075004677765006791 -0.0057464466965977202 0.0017968731038634318 0.0055044740466395946 0.0081066337129001697 -0.012866814547397507 0.0053754284674753759 -0.016514115898133376 0.0064915974146195089 0.0023607301270069142 -0.012689135496252594 -0.0027387931648969093 -0.019128518079860865 -0.01979059190158327
leaf_weight=411.48989936709404 118.17475174367428 48.630304336547852 62.410034507513046 4355.8339640051126 492.68877911567688 812.12370410561562 5620.6334702372551 1001.6318614184856 179.41041581332684 76.687006264925003 291.49871973693371 65.181499049067497 507.11046509444714 1123.1333549171686 207.84621648490429 422.64465506374836 40.502103805541992 519.46925391256809 469.41711336374283 80.600201800465584 153.95570054650307 25.910030111670494 99.187549337744713 38.469298392534256 132.50478793680668 28.184110552072525 787.06811167299747 50.199980407953262 88.549440622329712 27.593285992741585
leaf_count=1937 582 237 310 21011 2346 3965 26957 4839 873 365 1394 307 2498 5363 1007 1994 196 2551 2248 390 726 125 474 189 628 137 3881 243 441 137
internal_value=0.000116233 -0.00420941 0.0018216 0.00225352 0.00149802 -0.00667928 0.000837566 -0.00369485 -0.0087236 0.00697236 0.00395854 0.00535729 -0.00984595 0.00515186 -0.00107888 0.00869646 -0.00437384 -0.00790532 0.00375932 0.00115503 0.0109059 -0.00216327 0.00159712 -0.00744691 0.0109876 -0.0074601 -0.0120467 -0.0069231 -0.0169816 -0.0148694
internal_weight=18338.7 5185.59 13153.2 12635.6 10891.8 3981.61 9976.47 2049.79 517.535 1743.82 1203.98 980.053 1931.82 1199.82 1209.48 915.333 338.982 1026.58 760.916 121.102 219.137 223.928 125.098 217.88 543.995 840.308 905.243 98.8303 178.553 90.0033
internal_count=88351 25214 63137 60601 52308 19460 47968 9948 2536 8293 5754 4675 9512 5728 5846 4340 1648 5049 3642 586 1033 1079 599 1062 2565 4102 4463 480 888 447
is_linear=0
shrinkage=0.02


Tree=6
num_leaves=30
num_cat=0
split_feature=6 5 1 9 9 3 5 3 0 6 5 6 6 3 3 4 4 9 5 0 6 9 6 2 6 1 4 9 5
split_gain=450.231 344.998 207.528 78.5107 77.6264 64.2067 60.9258 43.3835 38.2423 31.315 38.8835 31.3015 26.5844 17.3668 16.4842 15.0612 15.0286 14.1844 13.1978 11.5101 11.5314 11.5098 10.6397 10.5946 9.69905 9.32482 6.73974 5.9649 5.36635
threshold=-0.21757733333064852 0.17574692442882126 -1.0000000180025095e-35 72.750000000000014 68.350000000000009 1.0000000180025095e-35 0.46031030075502916 0.23500000000000001 57.050000000000004 -0.63982596382022849 -0.084134845487865415 0.067628092653382335 0.39192510823889976 0.19500000000000003 0.27500000000000008 0.51500000000000012 0.43500000000000005 72.950000000000017 -0.14178615322000263 98.350000000000009 0.61417953513110979 52.050000000000004 -0.28110731988111864 -54.349999999999987 -0.32194522432574252 -81.699999999999974 0.87500000000000011 75.750000000000014 -0.34143610094626847
decision_type=2 2 2 2 2 2 2 2 2 2 2 2 2 2 2 2 2 2 2 2 2 2 2 2 2 2 2 2 2
left_child=9 2 4 12 5 -2 8 -5 16 17 14 -6 -4 24 18 -10 -3 23 -11 20 -8 -16 -15 28 -12 27 -27 -19 -1
right_child=1 6 3 7 11 -7 19 -9 15 10 13 -13 -14 22 21 -17 -18 25 -20 -21 -22 -23 -24 -25 -26 26 -28 -29 -30
leaf_value=0.0066069922393047825 -0.01250592090331047 0.0012325723328832135 -0.010423163666488185 -0.0075186392537674685 -1.9214674612372593e-05 -0.0025810560935569187 0.0058309275484129744 -0.0014171801224887471 -0.0018903346853291502 0.012705686680066025 0.0296605668501797 0.0052182834168446922 0.002141008713691724 0.011795634842612568 -0.00070540725436114122 0.002339499490260741 0.010891673825662003 0.01857309195626659 0.0033280224740037008 -0.0040876389657410889 0.01013104126106147 0.0043170745747374692 0.0054413509333161364 -0.0046958531750375433 0.014649950503030012 0.013746551330009092 0.027648633564675801 0.010502286521392052 0.013785804607474529
leaf_weight=218.54790672659874 282.99097914993763 85.659913450479507 1709.1459836512804 826.71550644934177 3946.1711609363556 3314.5437200814486 390.7632482945919 1068.7572077363729 459.85263860225677 159.68489734828472 23.284321814775467 516.13199032843113 70.126415193080902 228.12760673463345 204.85608725249767 1257.5597681701183 260.0060919970274 40.45866334438324 96.192428529262543 29.493070423603058 689.77628855407238 1673.3168600052595 195.93181663751602 29.254848062992096 66.09334471821785 31.462708964943886 25.058894723653793 387.0106248408556 51.459041550755501
leaf_count=1034 1405 411 8462 4049 18959 16032 1853 5169 2216 763 110 2476 342 1084 982 6024 1243 190 460 141 3250 7985 934 139 314 148 117 1814 245
internal_value=0.000113771 -0.00138956 -0.00297169 -0.00691067 -0.00117578 -0.00336177 0.00446136 -0.00407835 0.00242854 0.00664625 0.00560694 0.00058658 -0.00992797 0.0105484 0.00441806 0.00120692 0.00849804 0.0101592 0.00918032 0.00823949 0.00857596 0.00376926 0.00885971 0.00673648 0.0185605 0.0122756 0.01991 0.0112662 0.00797516
internal_weight=18338.4 14907.7 11734.6 3674.75 8059.84 3597.53 3173.11 1895.47 2063.08 3430.74 2647.49 4462.3 1779.27 513.437 2134.05 1717.41 345.666 783.253 255.877 1110.03 1080.54 1878.17 424.059 299.262 89.3777 483.991 56.5216 427.469 270.007
internal_count=88351 72032 56894 18022 38872 17437 15138 9218 9894 16319 12632 21435 8804 2442 10190 8240 1654 3687 1223 5244 5103 8967 2018 1418 424 2269 265 2004 1279
is_linear=0
shrinkage=0.02


Tree=7
num_leaves=29
num_cat=0
split_feature=6 5 1 9 9 0 5 3 16 0 6 5 6 3 3 4 4 4 5 9 0 6 9 1 16 6 5 5
split_gain=431.48 331.343 200.291 76.116 74.6937 62.3923 58.1683 41.9031 38.2248 36.5456 29.8203 37.0375 25.7395 16.4307 15.7192 14.455 14.313 13.4751 12.5461 11.021 10.9992 11.1251 10.2517 10.1895 9.72133 9.09109 4.851 5.92831
threshold=-0.21757733333064852 0.17574692442882126 -1.0000000180025095e-35 72.750000000000014 69.350000000000009 99.450000000000017 0.46031030075502916 0.23500000000000001 -0.25649999999999995 57.050000000000004 -0.63982596382022849 -0.084134845487865415 0.4169512013852073 0.19500000000000003 0.27500000000000008 0.51500000000000012 0.43500000000000005 0.84500000000000008 -0.14178615322000263 52.050000000000004 98.350000000000009 2.443525889860843 74.15000000000002 -81.699999999999974 0.33150000000000007 -0.32194522432574252 -0.19228708522035506 -0.61940852606743302
decision_type=2 2 2 2 2 2 2 2 2 2 2 2 2 2 2 2 2 2 2 2 2 2 2 2 2 2 2 2
left_child=10 2 4 12 5 -2 9 -5 -6 16 17 14 -4 25 18 -11 -3 26 -12 -16 21 -8 -15 24 -19 -13 27 -1
right_child=1 6 3 7 8 -7 20 -9 -10 15 11 13 -14 22 19 -17 -18 23 -20 -21 -22 -23 -24 -25 -26 -27 -28 -29
leaf_value=0.0090574791751757509 -0.0024703043274547274 0.0012073086969958905 -0.010202482204755541 -0.0073923507929995989 -0.0051888376487040835 -0.012195762333454088 0.0078632167942855481 -0.0013896650107072608 0.0012630777325467596 -0.0018539870015033739 0.012387672871884246 0.028733816836089832 0.0037443543204196297 0.0058291241018232952 -0.00069149995475472964 0.0022905130013064819 0.010626769656949345 0.012521819370006123 0.0032570387460601263 0.0042233362379163536 -0.0040125833439056584 0.016377747629948449 0.01206566099152287 0.023968159458863481 -0.00050490483275324139 0.014273383220897464 0.014879266948913356 0.003943513898278397
leaf_weight=193.82482820749283 3482.8075714558363 85.702928513288498 1716.8948641419411 824.04931674897671 405.69325198233128 285.48715175688267 1018.8266626149416 1068.1270954757929 3881.7906095683575 459.49440994858742 160.50023782253265 23.551832616329193 54.614542216062546 232.95191967487335 204.7972794175148 1258.7534073293209 261.14606618881226 337.3526843637228 96.321738347411156 1676.2179391235113 29.444344520568848 65.317236170172691 192.60014833509922 28.948151111602783 24.584684386849403 66.476369008421898 31.224210947751999 170.37479861080647
leaf_count=909 16857 411 8538 4049 1947 1425 4797 5169 18643 2216 763 110 266 1108 982 6024 1243 1574 460 7985 141 306 910 134 115 314 148 807
internal_value=0.000111348 -0.00136277 -0.00291613 -0.00679318 -0.00115289 -0.00320711 0.00436431 -0.00400386 0.00065258 0.00237757 0.00649604 0.00548232 -0.00977251 0.0102939 0.00432192 0.00118219 0.00829931 0.00991686 0.00896321 0.00368823 0.00804863 0.0083762 0.00865171 0.0125502 0.011637 0.0180563 0.00731376 0.00666514
internal_weight=18337.9 14898.1 11719.5 3663.69 8055.78 3768.29 3178.69 1892.18 4287.48 2065.1 3439.73 2653.42 1771.51 515.58 2137.84 1718.25 346.849 786.309 256.822 1881.02 1113.59 1084.14 425.552 390.886 361.937 90.0282 395.424 364.2
internal_count=88351 72032 56894 18022 38872 18282 15138 9218 20590 9894 16319 12632 8804 2442 10190 8240 1654 3687 1223 8967 5244 5103 2018 1823 1689 424 1864 1716
is_linear=0
shrinkage=0.02


Tree=8
num_leaves=31
num_cat=0
split_feature=1 3 0 9 9 9 2 3 4 16 9 4 2 0 4 1 9 1 2 16 2 0 2 9 4 0 2 3 4 16
split_gain=302.805 182.78 135.665 88.4538 84.8404 43.6244 33.5077 32.4517 25.756 25.2607 23.9584 20.9002 20.8483 17.2136 16.7251 16.1076 13.1697 13.0798 11.6558 10.9127 9.41341 8.60552 6.62857 6.45772 9.08684 3.54847 3.53636 3.4173 2.00795 2.39678
threshold=-2.1499999999999999 0.23500000000000001 99.450000000000017 69.350000000000009 68.950000000000017 58.95000000000001 51.350000000000001 0.37500000000000006 0.84500000000000008 -0.73149999999999993 85.750000000000014 1.4150000000000003 68.850000000000009 98.65000000000002 0.33500000000000008 -19.749999999999996 83.15000000000002 -10.999999999999998 36.95000000000001 -1.0000000180025095e-35 35.050000000000004 66.550000000000026 54.550000000000004 62.750000000000007 1.0150000000000003 51.750000000000007 35.150000000000013 0.49500000000000005 0.43500000000000005 0.097500000000000017
decision_type=2 2 2 2 2 2 2 2 2 2 2 2 2 2 2 2 2 2 2 2 2 2 2 2 2 2 2 2 2 2
left_child=2 10 3 9 12 28 18 8 -5 27 23 22 21 -8 -14 -11 20 -9 -6 -18 -7 -3 -12 25 -25 -2 -13 -1 29 -4
right_child=1 4 5 7 6 16 13 17 -10 15 11 26 14 -15 -16 -17 19 -19 -20 -21 -22 -23 -24 24 -26 -27 -28 -29 -30 -31
leaf_value=0.014527885625009809 -0.014015791581522042 -0.0074731334595816946 -0.012158160928434539 0.0057289325635147678 -0.00034336788987188426 -0.005196008893762879 0.0023559947609805977 0.0048437117589564043 0.0015518528091396414 -0.00011246851452146738 -0.0044073769119979461 -0.00068692298838519798 -0.0091440532275484463 -0.0063632349379149919 -0.0022532307101175782 0.0058767335640374386 -0.0073783300953536649 0.012062704173279922 -0.0089214286664668005 0.0053537109109354931 -0.016160178936979963 -0.014012700686585887 0.0042073786213983715 -0.008233445561305593 -0.013311737490019862 -0.010697875567493447 -0.0088421499580347129 0.0051959051315030522 -0.018626060725396121 -0.0193031171178134
leaf_weight=52.892945870757103 273.34918312728405 275.98454508185387 61.37900485098362 731.05861259996891 103.00539384782314 178.0877580344677 1847.3487549722195 3166.3551174849272 3070.2532073408365 5333.3972171545029 59.715669766068459 22.844238892197609 180.47250537574291 95.237135708332062 642.4252467751503 185.87956842780113 40.379853963851929 103.68116702139378 164.62855783104897 80.827104434370995 38.007206439971924 113.6286878734827 88.934793636202812 549.02525506913662 189.61834374070168 244.04909980297089 308.42134529352188 22.319733485579491 86.811488494277 27.058592975139618
leaf_count=252 1368 1376 310 3490 502 873 8865 15020 14687 25681 295 113 886 462 3142 882 196 484 802 390 189 565 437 2727 936 1219 1519 105 441 137
internal_value=0.000108981 -0.00399881 0.00171698 0.00212519 -0.00131774 -0.00837046 0.00101449 0.00361181 0.00235518 0.000246121 -0.00928498 -0.00548389 -0.00556902 0.00192853 -0.00376448 8.92373e-05 -0.0041647 0.0050726 -0.00561995 0.00111206 -0.00712441 -0.00938036 0.00074667 -0.0107373 -0.0095371 -0.0124508 -0.00827976 0.0117586 -0.0164653 -0.0143442
internal_weight=18337.1 5158.69 13178.4 12665.8 3422.73 512.551 2210.22 7071.35 3801.31 5594.49 1735.96 479.916 1212.51 1942.59 822.898 5519.28 337.302 3270.04 267.634 121.207 216.095 389.613 148.65 1256.04 738.644 517.398 331.266 75.2127 175.249 88.4376
internal_count=88351 25214 63137 60601 16600 2536 10631 33681 18177 26920 8614 2364 5969 9327 4028 26563 1648 15504 1304 586 1062 1941 732 6250 3663 2587 1632 357 888 447
is_linear=0
shrinkage=0.02


Tree=9
num_leaves=31
num_cat=0
split_feature=1 3 0 9 9 9 2 3 4 16 9 2 4 0 4 1 0 9 2 16 2 0 4 3 2 0 2 3 4 9
split_gain=291.123 176.695 130.581 84.7468 81.6941 42.4733 32.2195 31.0315 24.6392 24.142 23.2781 20.1946 20.1874 16.5472 16.1758 15.5293 12.7208 12.7046 11.2661 10.485 9.15847 8.38023 6.40781 8.49565 6.36469 4.32975 3.42302 3.24031 1.97467 2.38246
threshold=-2.1499999999999999 0.23500000000000001 99.450000000000017 69.350000000000009 68.950000000000017 58.95000000000001 51.350000000000001 0.37500000000000006 0.84500000000000008 -0.73149999999999993 85.750000000000014 68.850000000000009 1.4150000000000003 98.65000000000002 0.30500000000000005 -49.29999999999999 75.100000000000009 83.15000000000002 36.95000000000001 -1.0000000180025095e-35 35.050000000000004 66.550000000000026 0.49500000000000005 0.19500000000000003 54.550000000000004 51.750000000000007 35.150000000000013 0.49500000000000005 0.43500000000000005 45.050000000000004
decision_type=2 2 2 2 2 2 2 2 2 2 2 2 2 2 2 2 2 2 2 2 2 2 2 2 2 2 2 2 2 2
left_child=2 10 3 9 11 28 18 8 -5 27 22 21 24 -8 -13 -11 -9 20 -6 -19 -7 -3 25 -24 -12 -2 -14 -1 29 -4
right_child=1 4 5 7 6 17 13 16 -10 15 12 14 26 -15 -16 -17 -18 19 -20 -21 -22 -23 23 -25 -26 -27 -28 -29 -30 -31
leaf_value=0.014154646547862649 -0.015108174758236424 -0.0073483715593920893 -0.017086610487233467 0.0056013315658112409 -0.00033655024641682626 -0.0051035943357458403 0.0023066395480299483 0.0046964232089813625 0.0015198530987185575 -0.00044938156832419803 -0.0043276431833965462 -0.0095933379869609977 -0.00067338911979892614 -0.0062528176107281529 -0.0023599745940128375 0.002183883174224935 0.010827633240947945 -0.0072534846034009058 -0.0087765182824638115 0.0052349458264834524 -0.015952543719257098 -0.013819176513794964 -0.011191766022665488 -0.0072039102984483997 0.004115698126241709 -0.010564326063440717 -0.0086990527278819254 0.0050816986340764796 -0.018413797928124073 -0.010455908297217414
leaf_weight=53.19876329600811 175.35134044289589 275.06617048382759 48.964682325720787 732.74103891849518 102.99042811989784 177.69032692909241 1849.1208873093128 3135.0984727591276 3072.1801373660564 4394.2456347644329 59.600744351744652 151.66117191314697 22.837372601032257 94.983117580413818 669.90920177102089 1125.2158668935299 141.46544936299324 40.254637748003006 164.00615818798542 81.005762442946434 37.734621286392212 112.9227033406496 573.18952991068363 340.70150111615658 89.095929756760597 160.81029984354973 307.23693884909153 22.364464327692986 86.063516288995743 38.891590267419815
leaf_count=252 882 1376 250 3490 502 873 8865 14844 14687 21169 295 747 113 462 3281 5394 660 196 802 390 189 565 2863 1699 437 806 1519 105 441 197
internal_value=0.000106694 -0.00392606 0.00168146 0.00208089 -0.00129227 -0.00823492 0.000993749 0.00353444 0.00230585 0.000241162 -0.00913729 -0.00547116 -0.00538731 0.00188845 -0.00369525 8.74446e-05 0.00496114 -0.00408912 -0.00552091 0.00108918 -0.00700394 -0.00923168 -0.0105735 -0.00970508 0.00073143 -0.0129345 -0.00814377 0.0114693 -0.0162606 -0.0141514
internal_weight=18336.6 5149.48 13187.1 12676.5 3420.66 510.605 2211.1 7081.49 3804.92 5595.02 1728.82 1209.56 478.771 1944.1 821.57 5519.46 3276.56 336.685 266.997 121.26 215.425 387.989 1250.05 913.891 148.697 336.162 330.074 75.5632 173.92 87.8563
internal_count=88351 25214 63137 60601 16600 2536 10631 33681 18177 26920 8614 5969 2364 9327 4028 26563 15504 1648 1304 586 1062 1941 6250 4562 732 1688 1632 357 888 447
is_linear=0
shrinkage=0.02


Tree=10
num_leaves=30
num_cat=0
split_feature=1 5 0 5 5 9 5 9 5 2 4 0 0 5 5 9 0 2 2 4 1 16 1 5 16 0 16 2 4
split_gain=261.993 210.152 120.578 106.171 122.282 89.2363 61.0171 44.7885 33.576 22.4209 21.4201 22.6645 20.1703 19.4108 17.9998 14.9708 14.0818 13.8585 11.6317 10.6797 9.13538 9.79523 8.99626 8.52122 7.57964 6.60338 5.95912 4.8235 3.54425
threshold=-2.1499999999999999 0.17574692442882126 99.450000000000017 -0.61940852606743302 0.18437345767875482 72.350000000000009 -0.18736536253202149 81.350000000000009 0.7238072286421372 54.550000000000004 0.30500000000000005 61.150000000000013 46.650000000000013 0.05606578389302231 0.62803138864794283 58.350000000000001 99.450000000000017 87.550000000000011 35.050000000000004 2.7150000000000003 -99.399999999999991 -0.73149999999999993 -81.699999999999974 0.0091633834288229483 -0.20249999999999999 44.050000000000004 -0.048499999999999995 80.850000000000009 0.43500000000000005
decision_type=2 2 2 2 2 2 2 2 2 2 2 2 2 2 2 2 2 2 2 2 2 2 2 2 2 2 2 2 2
left_child=2 5 3 20 6 12 -5 15 10 18 27 -12 25 -14 -6 28 -11 -10 -7 26 21 -1 -22 -17 -19 -2 -9 -3 -4
right_child=1 8 7 4 14 9 -8 19 17 16 11 -13 13 -15 -16 23 -18 24 -20 -21 22 -23 -24 -25 -26 -27 -28 -29 -30
leaf_value=0.019891261027276765 -0.0039632372010832834 -0.014889167001118083 -0.012938281898393252 0.0035458046802832543 0.005326966847345618 -0.0012938200620570047 -9.5887982161595514e-05 -0.0023209075868804423 -0.0049372160555146635 -0.0015706196366259901 0.0083938391721881632 0.00072896870124251033 -0.011960642751476753 -0.0075499293440633285 0.010071123177918225 -0.0062719456681402186 -0.01356083552739896 0.021836584442331483 -0.0081396567885839675 -0.010538663949931835 0.0044068017341991426 0.01095750992634671 0.011360646300739444 -0.017668262204547171 0.0094851670715453279 0.0079229750106164978 0.0076161516689141799 -0.0049921988958284754 -0.018731734067227831
leaf_weight=67.109560549259186 60.807936370372772 26.156153723597527 85.283190310001373 2385.4276107251644 1275.5844355821609 126.94135828316212 8054.2819353342056 34.984051808714867 25.279334172606468 1280.4178660362959 184.01154525578022 956.03826126456261 970.41012732684612 677.90856976807117 426.97597675025463 186.93995645642281 40.416656985878944 21.965752333402634 455.55126340687275 22.556464448571205 137.19957342743874 182.84596347808838 162.62427090108395 30.530239880084991 208.64604675769806 26.995405063033104 77.871816113591194 79.775484442710876 83.686230853199959
leaf_count=310 304 129 437 11348 6049 625 38689 171 120 6241 882 4580 4893 3396 1984 922 199 102 2251 109 638 848 761 154 973 135 375 390 433
internal_value=5.81403e-05 -0.00377252 0.00154859 0.00193599 0.00154675 -0.00637003 0.000736223 -0.00787336 0.00252197 -0.00337903 0.00116678 0.00196613 -0.00964909 -0.0101466 0.00651673 -0.0113417 -0.00193751 0.00912064 -0.00664776 0.00202473 0.0105325 0.0133561 0.00817856 -0.00787185 0.0106616 -0.000308785 0.00453577 -0.00743591 -0.0158076
internal_weight=18355.2 5141.32 13213.9 12692 12142.3 3639.45 10439.7 521.852 1501.87 1903.33 1245.98 1140.05 1736.12 1648.32 1702.56 386.44 1320.83 255.891 582.493 135.412 549.779 249.956 299.824 217.47 230.612 87.8033 112.856 105.932 168.969
internal_count=88448 25220 63228 60627 58070 18044 50037 2601 7176 9316 5981 5462 8728 8289 8033 1946 6440 1195 2876 655 2557 1158 1399 1076 1075 439 546 519 870
is_linear=0
shrinkage=0.02


Tree=11
num_leaves=29
num_cat=0
split_feature=6 5 1 9 9 0 6 0 3 3 6 6 6 1 6 4 5 9 9 4 3 9 6 3 0 6 3 4
split_gain=362.516 323.588 156.681 87.8097 73.1443 52.0999 42.7307 50.1824 38.8136 32.4353 36.4576 25.1956 24.7346 23.3524 16.6665 15.3058 14.0893 11.8821 10.6336 10.0119 9.82307 8.98478 8.6385 7.80001 7.43973 6.31441 4.53037 2.14823
threshold=-0.22172949002217665 0.17574692442882126 -1.0000000180025095e-35 72.350000000000009 67.950000000000017 99.450000000000017 0.72038144018707906 61.45000000000001 0.23500000000000001 0.20500000000000004 -0.63982596382022849 0.09859958955652505 0.1389572721630872 -1.0000000180025095e-35 -0.2869757224234048 0.43500000000000005 -0.084134845487865415 69.950000000000017 71.350000000000009 0.22500000000000003 0.27500000000000008 67.750000000000014 2.443525889860843 0.51500000000000012 69.300000000000026 -1.078035605295302 0.14500000000000005 0.68500000000000016
decision_type=2 2 2 2 2 2 2 2 2 2 2 2 2 2 2 2 2 2 2 2 2 2 2 2 2 2 2 2
left_child=9 2 4 12 5 -2 7 15 -5 14 17 -6 -4 -9 26 -3 20 23 -18 24 -12 -16 -21 -11 -8 -19 -1 -28
right_child=1 6 3 8 11 -7 19 13 -10 10 16 -13 -14 -15 21 -17 18 25 -20 22 -22 -23 -24 -25 -26 -27 27 -29
leaf_value=0.02849329889285097 -0.0027372813452336319 0.0019667265993132165 -0.011570566451691737 -0.0065769382805335036 -3.7144071170611121e-05 -0.011910245861493701 0.0075601692314336104 0.003621140819671821 -0.00080603774685020929 0.0086615131885346038 0.0081848046015369127 0.0055049693599634256 -0.0067115544093112487 -0.0011306487609234754 0.00083884396964249448 0.008542225810432312 0.0044725762840238503 0.013610744632662198 0.010962354381536636 0.0085410495976043672 0.0032300095038943983 0.014503685817893351 0.016497484148494359 0.0015552948782917178 -0.0087397966286135373 0.0091669746841379438 0.014763400525091808 0.02255174202121888
leaf_weight=23.681369036436081 3281.8078459948301 180.84318612515926 1002.9808795899153 822.13808177411556 4250.7004031687975 267.88946893811226 22.605015322566032 779.98255805671215 1076.7294167876244 152.53880470991135 175.2813218832016 355.56803467869759 719.78660187125206 880.91947695612907 35.893414825201035 652.49086038768291 199.82878801226616 220.76696485280991 204.18156805634499 616.03487104177475 1841.8630826026201 41.499847799539566 59.890043005347252 103.8461754322052 22.201306834816933 304.08093965053558 32.992412075400352 24.825703218579292
leaf_count=111 15905 867 5081 4087 20373 1370 107 3683 5221 718 831 1697 3619 4237 170 3090 948 1018 958 2873 8740 195 277 488 106 1407 155 116
internal_value=5.68621e-05 -0.00127403 -0.00280917 -0.00627092 -0.001272 -0.00342955 0.00434975 0.00311029 -0.00330462 0.00599316 0.00555553 0.000390664 -0.00954043 0.00110086 0.0148132 0.00711527 0.00434336 0.00931225 0.00775243 0.00863912 0.00366056 0.00816621 0.00924603 0.00578321 -0.000516382 0.0110362 0.0211253 0.0181075
internal_weight=18353.8 14992.6 11777.6 3621.63 8155.97 3549.7 3214.97 2494.24 1898.87 3361.28 3202.39 4606.27 1722.77 1660.9 158.893 833.334 2421.15 781.233 404.01 720.731 2017.14 77.3933 675.925 256.385 44.8063 524.848 81.4995 57.8181
internal_count=88448 72593 57353 18008 39345 17275 15240 11877 9308 15855 15108 22070 8700 7920 747 3957 11477 3631 1906 3363 9571 365 3150 1206 213 2425 382 271
is_linear=0
shrinkage=0.02


Tree=12
num_leaves=30
num_cat=0
split_feature=1 5 0 5 5 9 5 9 3 5 4 0 0 5 5 0 9 2 4 2 5 3 0 5 4 2 0 9 4
split_gain=242.48 194.867 112.48 97.9001 112.558 83.7976 56.6147 42.518 37.4475 30.8168 20.4739 20.7356 19.7131 18.7455 16.9023 16.6984 14.3682 13.0223 10.2749 8.51692 8.34651 7.11066 6.34824 6.03502 4.6967 4.68017 4.34157 3.607 3.50108
threshold=-2.1499999999999999 0.17574692442882126 99.450000000000017 -0.61940852606743302 0.18437345767875482 72.350000000000009 -0.18736536253202149 81.350000000000009 0.23500000000000001 0.7238072286421372 0.30500000000000005 61.150000000000013 46.650000000000013 0.05606578389302231 0.62803138864794283 99.450000000000017 58.350000000000001 87.550000000000011 2.7150000000000003 -158.64999999999995 0.0091633834288229483 0.54500000000000015 44.050000000000004 0.064634278461994668 2.0850000000000004 80.850000000000009 26.750000000000004 85.550000000000011 0.43500000000000005
decision_type=2 2 2 2 2 2 2 2 2 2 2 2 2 2 2 2 2 2 2 2 2 2 2 2 2 2 2 2 2
left_child=2 5 3 19 6 12 -5 16 23 10 25 -12 22 -14 -6 -10 28 -11 27 26 -18 -21 -2 -7 -19 -3 -1 -9 -4
right_child=1 9 7 4 14 8 -8 18 15 17 11 -13 13 -15 -16 -17 20 24 -20 21 -22 -23 -24 -25 -26 -27 -28 -29 -30
leaf_value=0.012797881318264266 -0.0036960858768512335 -0.014685889216373833 -0.012596943903304736 0.0034075501025504478 0.0050885349195341142 -0.0073287986837390065 -9.6882523220903871e-05 -0.0024290746576508056 -0.00026198903943465646 -0.0049268119040761643 0.0080137102026537985 0.00070267370566974769 -0.011637795995630166 -0.0072850352153192898 0.0096726654858549487 -0.012231614365516065 -0.0060654312026637951 0.011559924139542637 -0.010373787779467056 0.011539102091852643 -0.017399103392463526 0.0065182311880202784 0.0079740273509392029 -0.0030256393801878496 0.0042823118934982498 -0.0049104819736123361 0.022107316430561741 0.00629557973212839 -0.018393118179341656
leaf_weight=73.768651902675629 60.408090963959694 25.984481960535049 84.301250845193863 2391.4926870018244 1281.0099088251591 657.56092773377895 8054.1932199448347 24.084957808256149 1028.7993904352188 25.269645065069199 185.22185644507408 956.51724280416965 960.59228610992432 673.04539741575718 429.63588057458401 48.833051025867462 185.95909631252289 188.6161662042141 22.45751003921032 215.49720959365368 30.213946089148521 236.81441766023636 26.969078347086906 162.60281370580196 43.686846181750298 79.618628785014153 27.511330515146255 88.978965237736702 82.458958059549332
leaf_count=338 304 129 437 11348 6049 3281 38689 117 4985 120 882 4580 4893 3396 1984 242 922 872 109 999 154 1094 135 808 203 390 126 429 433
internal_value=5.5598e-05 -0.0036383 0.00148635 0.00185883 0.00148425 -0.00615354 0.000705442 -0.0076449 -0.00325533 0.00240999 0.00110945 0.00188873 -0.00934946 -0.00984449 0.00623986 -0.000804394 -0.0110521 0.00870811 0.00198272 0.0100842 -0.00764951 0.00891035 -9.40901e-05 -0.00647567 0.0101913 -0.0073158 0.0153267 0.00443705 -0.015463
internal_weight=18352.1 5123.73 13228.4 12709.9 12156.3 3618.81 10445.7 518.455 1897.8 1504.91 1247.34 1141.74 1721.01 1633.64 1710.65 1077.63 382.933 257.573 135.521 553.592 216.173 452.312 87.3772 820.164 232.303 105.603 101.28 113.064 166.76
internal_count=88448 25220 63228 60627 58070 18044 50037 2601 9316 7176 5981 5462 8728 8289 8033 5227 1946 1195 655 2557 1076 2093 439 4089 1075 519 464 546 870
is_linear=0
shrinkage=0.02


Tree=13
num_leaves=30
num_cat=0
split_feature=1 5 0 5 5 9 9 9 3 5 9 0 5 0 0 5 9 2 5 16 16 1 16 1 16 0 5 16 16
split_gain=233.136 187.785 108.266 93.5592 107.75 81.1973 55.8084 41.1585 36.1365 29.4629 19.4785 19.1033 18.3458 16.2376 16.1334 16.113 14.0431 12.4421 12.2581 8.86998 8.46354 8.29402 9.06388 8.62954 7.10472 6.0853 5.84047 3.20483 2.50215
threshold=-2.1499999999999999 0.17574692442882126 99.450000000000017 -0.61940852606743302 0.18437345767875482 72.350000000000009 67.950000000000017 81.350000000000009 0.23500000000000001 0.7238072286421372 66.15000000000002 46.650000000000013 0.11358435421515713 61.45000000000001 99.450000000000017 0.62803138864794283 58.350000000000001 87.550000000000011 0.24034052535357733 -0.13449999999999998 0.19250000000000003 -99.399999999999991 -0.73149999999999993 -81.699999999999974 -0.20249999999999999 44.050000000000004 0.064634278461994668 0.096500000000000016 -1.0000000180025095e-35
decision_type=2 2 2 2 2 2 2 2 2 2 2 2 2 2 2 2 2 2 2 2 2 2 2 2 2 2 2 2 2
left_child=2 5 3 21 6 11 -5 16 26 10 18 25 -13 -12 -10 -6 28 -11 -3 -9 -18 22 -1 -23 -19 -2 -7 -21 -4
right_child=1 9 7 4 15 8 -8 19 14 17 13 12 -14 -15 -16 -17 20 24 -20 27 -22 23 -24 -25 -26 -27 -28 -29 -30
leaf_value=0.018754169079967863 -0.0036283028908507256 -0.0074953338829920968 -0.018314611450218371 -0.0010127833464885576 0.0049767816513948708 -0.0072060167006686637 0.0019450057547316306 -0.0097262339475017688 -0.00025677728766361301 -0.0048378168476977913 0.0095011593336160986 -0.010635767863251121 -0.0049101076823383156 0.0016455524264269781 -0.012052563697179422 0.0094455951718970706 -0.006022758359605346 0.020685733799038902 -3.84606384669851e-05 0.0063255725646980945 -0.017999835568171578 0.003930745776934654 0.010220511698693011 0.010710816306975781 0.0088146914167951083 0.007786487477639591 -0.0029691362735268152 -0.0010766625842882442 -0.013283629807871247
leaf_weight=68.129288956522942 60.306913837790489 134.98685218393803 65.329876556992531 4429.4012291282415 1283.5533591806889 655.41151535511017 6019.1887637674809 21.861869394779205 1028.6868386566639 25.220310389995575 122.8189287930727 1358.197331354022 268.01532034575939 735.76119875907898 48.570001825690269 431.14943824708462 188.45375603437424 22.298995137214661 254.3025908023119 80.8437420129776 26.978386923670769 138.31737242639065 184.90598267316818 164.26604567468166 210.86994950473309 27.06527929008007 162.38542909920216 32.923938781023026 100.17986662685871
leaf_count=310 304 664 343 21374 6049 3281 28663 107 4985 120 580 6939 1350 3512 242 1984 941 102 1225 390 135 638 848 761 973 135 808 158 527
internal_value=5.43783e-05 -0.00357192 0.00145577 0.00182031 0.0014537 -0.00604774 0.00069113 -0.00751989 -0.00319494 0.00235957 0.00108674 -0.00920265 -0.00969212 0.00276929 -0.000788611 0.00610043 -0.0108884 0.0085066 -0.00262415 0.00194133 -0.00752264 0.00984606 0.0125182 0.0076115 0.00994997 -9.23439e-05 -0.00636472 0.00418339 -0.0152695
internal_weight=18350.4 5114.9 13235.5 12718.9 12163.3 3608.64 10448.6 516.571 1895.05 1506.26 1247.87 1713.58 1626.21 858.58 1077.26 1714.7 380.942 258.389 389.289 135.63 215.432 555.619 253.035 302.583 233.169 87.3722 817.797 113.768 165.51
internal_count=88448 25220 63228 60627 58070 18044 50037 2601 9316 7176 5981 8728 8289 4092 5227 8033 1946 1195 1889 655 1076 2557 1158 1399 1075 439 4089 548 870
is_linear=0
shrinkage=0.02


Tree=14
num_leaves=31
num_cat=0
split_feature=1 3 0 9 9 9 16 2 9 3 1 4 2 3 9 2 16 0 4 4 16 0 4 2 2 3 4 16 8 4
split_gain=224.151 153.953 104.209 83.3744 64.7908 39.8395 30.067 27.7705 26.4317 26.3282 23.6046 22.3916 18.4036 14.0622 13.7254 10.4732 10.3618 10.353 10.0765 9.85739 8.24672 6.1528 6.11902 5.9398 7.43096 7.32126 5.7958 5.53878 5.00525 3.4772
threshold=-2.1499999999999999 0.23500000000000001 99.450000000000017 66.350000000000009 67.950000000000017 81.350000000000009 -0.73149999999999993 50.45000000000001 72.950000000000017 0.37500000000000006 -49.29999999999999 0.84500000000000008 68.850000000000009 0.89500000000000013 58.350000000000001 35.050000000000004 -0.56549999999999978 47.850000000000001 0.30500000000000005 2.7150000000000003 0.19250000000000003 51.45000000000001 0.52500000000000013 54.550000000000004 37.050000000000004 0.13500000000000004 0.20500000000000004 -0.048499999999999995 1.0000000180025095e-35 0.43500000000000005
decision_type=2 2 2 2 2 2 2 2 2 2 2 2 2 2 2 2 2 2 2 2 2 2 2 2 2 2 2 2 2 2
left_child=2 8 4 12 6 14 26 15 17 11 -8 -6 28 -9 29 -5 -11 22 -14 27 -16 -19 -2 24 -10 -25 -1 -7 -3 -4
right_child=1 3 5 7 9 19 10 13 23 16 -12 -13 18 -15 20 -17 -18 21 -20 -21 -22 -23 -24 25 -26 -27 -28 -29 -30 -31
leaf_value=0.0048278678846848666 0.0056165302678291675 -0.0060324243743420164 -0.012204513324654769 0.0014516989332477026 0.0046503871937096436 -0.0023219592125806213 -0.00079415669655004905 0.0022432657661616232 -0.0031932879974362165 0.0078482338422348891 0.0025668202543940692 0.0010740406729371713 -0.0087478517528705845 -0.0046023052646822511 -0.0059183687853718824 -0.0071505435612997615 0.0039136325702909779 -0.013141299749910356 -0.0027742168513829302 -0.010231849081557576 -0.01778510306975457 -0.0096877625746674134 -0.0086279227679164471 -0.0085156130034217091 -0.0097738817952615648 -0.0029412698957269417 0.017476658868664147 0.0072486073039934639 -0.011305641525882235 -0.018024566651878102
leaf_weight=21.322053909301758 22.964846089482307 105.24542079865932 83.16813987493515 77.66128908097744 901.14093287289143 34.984038308262825 4085.4048510491848 1951.6995303481817 96.076725736260414 292.25696893036366 1050.8415036797523 3141.5454122871161 140.59527090191841 127.89715799689293 187.94731402397156 208.88261483609676 3189.8998027890921 405.8297922462225 574.45776830613613 22.371173962950706 26.760238945484161 419.80692885816097 25.41019307076931 128.61021623015404 240.35563236474991 352.70756228268147 45.223805755376816 78.379591688513756 227.93484342098236 81.104069963097572
leaf_count=100 116 537 437 383 4275 171 19685 9354 483 1350 5018 14980 703 626 941 1034 15007 2094 2836 109 135 2149 128 643 1212 1756 212 375 1166 433
internal_value=5.31865e-05 -0.00350671 0.00142585 -0.0010622 0.00178264 -0.00739663 6.65356e-05 0.00101798 -0.0084403 0.00296918 -0.000106523 0.00187123 -0.0057577 0.00182226 -0.0107266 -0.0048191 0.00424386 -0.0108584 -0.00394877 0.00190086 -0.00739739 -0.0113853 -0.00186572 -0.00585584 -0.00789463 -0.00443076 0.0134238 0.00429513 -0.00963993 -0.015078
internal_weight=18348.5 5106.14 13242.3 3414.37 12727.6 514.715 5202.79 2366.14 1691.76 7524.84 5136.25 4042.69 1048.23 2079.6 378.98 286.544 3482.16 874.012 715.053 135.735 214.708 825.637 48.375 817.75 336.432 481.318 66.5459 113.364 333.18 164.272
internal_count=88448 25220 63228 16639 60627 2601 25015 11397 8581 35612 24703 19255 5242 9980 1946 1417 16357 4487 3539 655 1076 4243 244 4094 1695 2399 312 546 1703 870
is_linear=0
shrinkage=0.02


Tree=15
num_leaves=31
num_cat=0
split_feature=6 5 1 9 9 0 6 1 9 6 16 0 6 9 6 1 6 5 9 4 5 0 6 2 16 2 2 4 6 9
split_gain=337.854 260.595 138.386 67.4933 56.4825 45.9613 43.2224 42.4373 32.062 31.538 28.5174 26.8084 24.2658 23.5049 22.4724 14.8854 14.6021 20.9065 11.708 13.7629 11.0935 9.77078 8.88767 8.12003 7.86726 7.52547 7.31832 6.86905 3.58134 3.55008
threshold=-0.21757733333064852 0.18437345767875482 -1.0000000180025095e-35 72.350000000000009 60.150000000000013 99.450000000000017 0.72038144018707906 -12.649999999999999 71.950000000000017 0.39192510823889976 -0.20249999999999999 46.750000000000007 0.26891172171069627 72.750000000000014 -0.97555653550790977 -64.199999999999974 -0.32979113228288054 -0.2506498350602126 58.150000000000013 0.22500000000000003 -0.048252457465924874 36.250000000000007 -0.2869757224234048 -199.89999999999998 -0.18949999999999997 -106.84999999999998 -51.349999999999987 1.155 -1.2202877452608005 61.150000000000013
decision_type=2 2 2 2 2 2 2 2 2 2 2 2 2 2 2 2 2 2 2 2 2 2 2 2 2 2 2 2 2 2
left_child=8 2 4 9 5 -2 7 15 16 -4 -6 14 -5 -9 28 -3 17 25 -8 -20 -16 29 26 -19 -23 -1 -13 -24 -10 -18
right_child=1 6 3 12 10 -7 18 13 11 -11 -12 22 -14 -15 20 -17 21 23 19 -21 -22 24 27 -25 -26 -27 -28 -29 -30 -31
leaf_value=0.0053588415828556991 -0.0031766200725156686 0.012184750734320765 -0.009363452946324664 -0.0043430185992526862 -0.0039532919483753048 -0.013883207342207373 0.017552362459871265 -0.0035794889521065729 0.010471813819633764 0.0040146470481331993 0.00025085074533788473 0.026166875675930196 0.0018212525713035446 0.002244707249284255 0.0052527109283142864 0.0043402363994303559 0.00026517819124546567 0.021000613512500991 -0.0042455058483426419 0.0080682873709560544 0.011806746393036858 -0.0023135734798737477 0.0034660148087040381 0.0083388947213683447 0.0044739669572741812 0.00087984732050874542 0.01393946050212545 0.017316858659895774 0.015520069573849191 -0.0046114663578536086
leaf_weight=271.2343847155571 2004.7771161645651 105.65050703287125 1674.9033382534981 1618.3840933889151 736.54725332558155 174.32578329741955 48.388001203536987 500.25532747805119 158.22014276683331 73.583045244216919 5214.0668209046125 40.487726211547852 303.31556341052055 621.53924085199833 1393.8514587432146 1149.6237520426512 125.15006363391876 21.736987262964249 38.490466177463531 639.89186218380928 111.57146316766739 86.776820495724678 30.807100653648376 298.09623554348946 320.90434747934341 335.83530746400356 37.914832949638367 26.764823764562607 87.18591633439064 114.1960359364748
leaf_count=1276 9738 496 8607 7999 3534 926 225 2419 719 365 25034 188 1468 2951 6524 5395 598 103 183 2954 520 413 144 1412 1525 1581 175 125 397 543
internal_value=-7.00357e-05 -0.00137723 -0.0027336 -0.00595712 -0.00127833 -0.00403314 0.00377926 0.00247426 0.00555945 -0.00880045 -0.000269524 0.00731766 -0.00337007 -0.000352547 0.00665329 0.00500047 0.00345174 0.00506123 0.00804758 0.00736962 0.00573845 0.00114605 0.0158722 0.00919943 0.00302921 0.00288103 0.0202538 0.00990518 0.0122653 -0.00206155
internal_weight=18364.5 14903.7 11799.9 3670.19 8129.72 2179.1 3103.84 2377.07 3460.73 1748.49 5950.61 1886.8 1921.7 1121.79 1750.83 1255.27 1573.93 926.903 726.77 678.382 1505.42 647.027 135.974 319.833 407.681 607.07 78.4026 57.5719 245.406 239.346
internal_count=88537 72294 57671 18439 39232 10664 14623 11261 16243 8972 28568 8792 9467 5370 8160 5891 7451 4372 3362 3137 7044 3079 632 1515 1938 2857 363 269 1116 1141
is_linear=0
shrinkage=0.02


Tree=16
num_leaves=31
num_cat=0
split_feature=6 5 1 9 9 3 6 1 3 9 6 0 9 6 6 3 1 3 6 6 9 4 5 6 0 4 3 4 9 3
split_gain=323.977 250.465 138.127 63.8195 55.4331 48.9975 43.2652 37.8166 31.4535 30.6097 28.671 25.4602 24.6196 23.9086 21.4054 18.724 15.1633 13.9202 13.872 12.9629 11.6948 12.6369 10.4052 8.39385 6.74911 6.52051 6.22306 4.81507 4.16816 4.15466
threshold=-0.21757733333064852 0.17574692442882126 -1.0000000180025095e-35 72.350000000000009 67.950000000000017 1.0000000180025095e-35 0.72038144018707906 -12.649999999999999 0.23500000000000001 71.950000000000017 0.4169512013852073 46.750000000000007 72.750000000000014 0.09859958955652505 -0.97555653550790977 0.22500000000000003 -64.199999999999974 0.27500000000000008 -0.32979113228288054 -0.2869757224234048 58.150000000000013 0.22500000000000003 -0.2506498350602126 -0.2869757224234048 41.750000000000007 1.155 0.40500000000000008 1.1250000000000002 58.550000000000004 0.16500000000000004
decision_type=2 2 2 2 2 2 2 2 2 2 2 2 2 2 2 2 2 2 2 2 2 2 2 2 2 2 2 2 2 2
left_child=9 2 4 10 5 -2 7 16 -5 15 -4 14 -9 -6 26 19 -3 -16 22 29 -8 -22 -17 27 -20 -25 -11 -13 -21 -1
right_child=1 6 3 8 13 -7 20 12 -10 11 -12 23 -14 -15 17 18 -18 -19 24 28 21 -23 -24 25 -26 -27 -28 -29 -30 -31
leaf_value=0.023313990879093451 -0.011481098850362463 0.011528544346083292 -0.0092382881660422467 -0.0063899537657513992 -0.00023649136554407699 -0.0024835804828770417 0.017302613792194454 -0.0034601788553063097 -0.0011755117358575259 0.021703733547639319 0.0057954615788172919 0.016438644230858893 0.0023285450386577814 0.0051100808806243741 0.011115761118720029 0.0028052725398310303 0.0039875177279796769 0.004940843219155203 -0.0012637352616353345 -0.0025258117449129731 -0.0039012159302154576 0.0078477601126645188 0.0074512803465302925 0.0033921914468479247 0.0033650064886131797 0.016859543106585727 0.01093128587288565 0.0271757279194598 0.0082672724685738871 0.012982835393837449
leaf_weight=24.769156366586685 261.61630757153034 117.06128315627575 1656.5452771037817 817.90072174370289 4195.3867012709379 3244.7415095865726 48.911780163645744 532.05696523189545 1065.5075059086084 23.736597135663033 52.345566913485527 54.985889628529549 656.50709913671017 363.54091900587082 163.81836961209774 599.84453317523003 1200.0959439724684 1344.881511002779 375.96306408941746 23.672690153121948 38.832045659422874 642.39938740432262 284.16231429576874 30.847585588693619 189.5198405534029 26.93920910358429 222.70740753412247 23.998179569840431 36.196940004825592 41.925318628549576
leaf_count=115 1373 548 8553 4120 20080 15765 226 2580 5177 108 259 253 3116 1728 764 2820 5627 6280 1792 112 185 2957 1344 144 901 125 1008 110 171 196
internal_value=-6.87668e-05 -0.00135073 -0.00271718 -0.00597922 -0.00126427 -0.0031549 0.00357211 0.00232374 -0.00343997 0.0054367 -0.00877778 0.00715167 -0.000262759 0.000189858 0.00650401 0.00337803 0.00465772 0.00561133 0.00273387 0.0107553 0.00785627 0.00717804 0.00429872 0.015463 0.000287573 0.00967044 0.0119688 0.019701 0.00399964 0.0168196
internal_weight=18361.4 14893.4 11657.6 3592.3 8065.29 3506.36 3235.86 2505.72 1883.41 3467.97 1708.89 1891.91 1188.56 4558.93 1755.14 1576.05 1317.16 1508.7 1449.49 126.564 730.143 681.231 884.007 136.771 565.483 57.7868 246.444 78.9841 59.8696 66.6945
internal_count=88537 72294 57055 18109 38946 17138 15239 11871 9297 16243 8812 8792 5696 21808 8160 7451 6175 7044 6857 594 3368 3142 4164 632 2693 269 1116 363 283 311
is_linear=0
shrinkage=0.02


Tree=17
num_leaves=29
num_cat=0
split_feature=6 5 1 0 6 6 1 4 6 6 3 4 4 3 5 16 1 16 6 4 0 0 5 4 16 3 16 6
split_gain=310.688 240.639 128.786 51.3266 50.2146 39.4296 39.0461 38.0177 29.4366 29.1472 27.2651 21.2437 19.501 17.469 14.9773 15.1669 13.5162 11.199 11.2233 10.5956 9.53923 8.40106 14.6967 9.59343 7.94601 7.33084 6.86002 3.32034
threshold=-0.21757733333064852 0.18437345767875482 -1.0000000180025095e-35 99.450000000000017 0.40453813368465102 0.72038144018707906 -12.649999999999999 0.71500000000000008 0.29720542482710727 -0.32979113228288054 0.17500000000000002 0.54500000000000015 1.1250000000000002 0.20500000000000004 -0.13864314577113343 -0.73149999999999993 -64.199999999999974 1.0000000180025095e-35 -0.26841349947593901 0.22500000000000003 69.300000000000026 42.150000000000013 -0.02118195297606262 0.91500000000000015 -0.23649999999999996 0.33500000000000008 -0.39849999999999997 -0.25682968367383702
decision_type=2 2 2 2 2 2 2 2 2 2 2 2 2 2 2 2 2 2 2 2 2 2 2 2 2 2 2 2
left_child=9 2 3 8 7 6 16 -4 -2 10 -1 -8 -5 17 15 -12 -3 18 -11 20 -7 22 -15 -23 -21 -6 -16 -19
right_child=1 5 4 12 25 19 11 -9 -10 13 14 -13 -14 21 26 -17 -18 27 -20 24 -22 23 -24 -25 -26 -27 -28 -29
leaf_value=0.028151308570046125 -0.00097627537242185548 0.011603475774719622 -0.0090899350679804689 -0.0098852746378889113 -0.00075949582621082827 0.007291154076388846 -0.0052573841084423535 -0.0047191940557190478 0.0093824452832242909 0.014798043401818206 0.010874081869457262 0.0012004290214889411 -0.00093156575541122725 0.00072129395653713554 0.00098098745784062046 0.005182521824102 0.0041601550436451062 0.012836836693317389 -0.0014717715832291275 0.015192161679466498 -0.010834808178101601 0.0025858838693690735 0.013657564390937588 0.0097789930204200855 0.0076367587936810944 0.0081413846656552009 0.011641093943033811 0.023262450296466668
leaf_weight=23.579864040017128 7514.9510298222303 106.60526192188263 1230.00971801579 361.32766357064247 56.51165084540844 23.793550714850426 267.62704533338547 2256.2437628656626 111.35844600200653 28.656097412109375 211.98409806191921 853.83018319308758 133.1567490696907 845.4688081741333 26.513562232255936 1607.1366004496813 1153.2881922721863 26.681921884417534 41.550597503781319 61.140689522027969 22.687629252672195 222.42295879125595 36.651394754648209 111.26617594063282 623.33401443064213 107.26750084757805 270.52081786096096 22.542591258883476
leaf_count=108 36180 496 6370 1876 277 112 1310 11272 532 133 965 4060 644 3994 123 7492 5395 124 195 279 109 1053 172 519 2862 520 1260 105
internal_value=-6.75208e-05 -0.00132473 -0.00263241 -0.00122989 -0.00575282 0.00362097 0.00237378 -0.00626127 -0.000825019 0.00531703 0.00676398 -0.000340678 -0.00747418 0.00299829 0.00652567 0.00584577 0.00478997 0.0102972 0.00516904 0.00768415 -0.00155619 0.0022813 0.00125879 0.00498437 0.00831165 0.00507015 0.0106896 0.0176113
internal_weight=18358.1 14883.1 11770.8 8120.79 3650.03 3112.31 2381.35 3486.25 7626.31 3474.98 2139.73 1121.46 494.484 1335.24 2116.16 1819.12 1259.89 119.431 70.2067 730.956 46.4812 1215.81 882.12 333.689 684.475 163.779 297.034 49.2245
internal_count=88537 72294 57671 39232 18439 14623 11261 17642 36712 16243 9948 5370 2520 6295 9840 8457 5891 557 328 3362 221 5738 4166 1572 3141 797 1383 229
is_linear=0
shrinkage=0.02


Tree=18
num_leaves=30
num_cat=0
split_feature=6 5 1 0 3 6 2 6 6 3 6 4 4 6 16 0 0 5 4 4 5 16 4 0 16 16 4 5 4
split_gain=297.955 231.401 128.702 49.2511 45.3161 39.4692 38.0944 34.0596 28.7642 27.8647 31.7805 18.8553 18.263 16.6306 16.7995 13.8202 12.0229 18.4945 11.907 10.6394 9.92771 14.2436 9.75855 9.50545 8.93537 7.58498 7.06459 4.98001 3.17145
threshold=-0.21757733333064852 0.17574692442882126 -1.0000000180025095e-35 99.450000000000017 0.23500000000000001 0.72038144018707906 64.15000000000002 0.40453813368465102 0.29720542482710727 0.20500000000000004 -0.43920218181233145 1.1250000000000002 0.27500000000000008 -0.2869757224234048 1.0000000180025095e-35 77.350000000000009 42.45000000000001 -0.045761355135032204 0.69500000000000006 0.91500000000000015 -0.22639956198767239 -0.73149999999999993 0.22500000000000003 69.300000000000026 -0.37549999999999994 -0.23649999999999996 0.87500000000000011 -0.145348837209297 0.75500000000000012
decision_type=2 2 2 2 2 2 2 2 2 2 2 2 2 2 2 2 2 2 2 2 2 2 2 2 2 2 2 2 2
left_child=9 2 3 8 18 6 15 -6 -2 13 20 -5 -8 27 26 -3 17 -12 -4 -18 21 -11 23 -7 -22 -24 -15 -1 -29
right_child=1 5 4 11 7 22 12 -9 -10 10 16 -13 -14 14 -16 -17 19 -19 -20 -21 24 -23 25 -25 -26 -27 -28 28 -30
leaf_value=0.011996347181001038 -0.00096536436810970518 0.0063783276759329689 -0.010561694560200797 -0.009724994349501432 -0.0044392088909677111 0.0073624602106520344 -0.0075314509949531566 0.0059242990233456866 0.0094112388903854535 0.011421070340456465 0.0016174758554698043 -0.00091329132982429753 0.0011051805417587456 -0.007178112358172636 0.017563950868874748 -0.009827336361105098 0.0037767604962254987 0.01142981783276956 -0.0069796224158740006 0.010216705282046745 0.00052747296154609586 0.0054141210152485394 0.014809183935392546 -0.010665679181972114 0.012595020289195451 0.0074464650910619056 0.0075516414498139348 0.018988041647755881 0.028576113481433896
leaf_weight=25.625490874052048 7455.4766216725111 751.34117089211941 570.80519750714302 359.43268665671349 1803.9796397089958 24.266797289252281 104.18603050708771 136.44291538000107 108.41062934696674 186.89748968183994 1341.5050799250603 133.1052286028862 1632.6671531647444 27.76744644343853 35.455555006861687 21.656195312738419 314.41674920916557 81.502833098173141 1061.4196910262108 152.33141411840916 28.25361368060112 1017.5726792365313 61.464075550436974 22.587462320923805 186.90000000596046 625.88011860847473 24.530296698212624 37.107812702655792 21.968700274825096
leaf_count=118 35911 3517 2989 1875 9041 114 510 661 516 845 6321 644 7739 131 164 105 1483 380 5418 707 131 4710 279 109 869 2866 114 170 100
internal_value=-6.62878e-05 -0.0012992 -0.0026168 -0.00121568 -0.00577636 0.00342405 0.00223089 -0.00371049 -0.00081664 0.00520025 0.00479182 -0.00734369 0.000587108 0.0130379 0.0069361 0.00592431 0.00309311 0.00217948 -0.00823231 0.00587855 0.0070531 0.00634622 0.00750285 -0.00132853 0.0110103 0.00810486 -0.00026911 0.0193596 0.0225535
internal_weight=18355 14873.1 11629.1 8056.43 3572.65 3244.05 2509.85 1940.42 7563.89 3481.84 3309.38 492.538 1736.85 172.455 87.7533 772.997 1889.76 1423.01 1632.22 466.748 1419.62 1204.47 734.198 46.8543 215.154 687.344 52.2977 84.702 59.0765
internal_count=88537 72294 57055 38946 18109 15239 11871 9702 36427 16243 15446 2519 8249 797 409 3622 8891 6701 8407 2190 6555 5555 3368 223 1000 3145 245 388 270
is_linear=0
shrinkage=0.02


Tree=19
num_leaves=31
num_cat=0
split_feature=6 5 1 9 9 3 6 2 3 9 16 6 0 9 6 3 0 3 6 6 9 16 4 2 6 2 0 4 3 3
split_gain=285.758 222.312 124.175 60.4391 53.4133 44.3947 37.7317 36.4631 29.5573 28.7274 27.0377 26.4512 23.0782 20.006 19.5658 16.6182 13.2622 12.4783 12.2671 11.3434 11.2586 11.2578 11.246 11.1692 7.8462 6.69185 6.26114 6.00943 5.87421 3.52345
threshold=-0.21757733333064852 0.17574692442882126 -1.0000000180025095e-35 72.350000000000009 59.95000000000001 1.0000000180025095e-35 0.72038144018707906 64.15000000000002 0.23500000000000001 71.950000000000017 -0.20249999999999999 0.39192510823889976 46.750000000000007 72.750000000000014 -0.97555653550790977 0.22500000000000003 77.350000000000009 0.27500000000000008 -0.32979113228288054 -0.2869757224234048 58.150000000000013 1.0000000180025095e-35 0.22500000000000003 -108.74999999999999 -0.2869757224234048 -51.349999999999987 41.750000000000007 1.155 0.40500000000000008 0.16500000000000004
decision_type=2 2 2 2 2 2 2 2 2 2 2 2 2 2 2 2 2 2 2 2 2 2 2 2 2 2 2 2 2 2
left_child=9 2 4 11 5 -2 7 16 -5 15 -6 -4 14 -9 28 19 -3 -16 23 29 -8 -21 -22 -17 25 -14 -20 -26 -11 -1
right_child=1 6 3 8 10 -7 20 13 -10 12 -12 -13 24 -15 17 18 -18 -19 26 21 22 -23 -24 -25 27 -27 -28 -29 -30 -31
leaf_value=0.021514628666287745 -0.013726680736188551 0.0062354959163125976 -0.0089283959739278294 -0.0060761170975235177 -0.0038144082967308062 -0.0030635521708082397 0.016553946723773024 -0.0018326048135886897 -0.0010052297435324126 0.020724187422007649 0.00028819632599424365 0.003846322521347732 0.024251505623748417 0.0024883186896640956 0.01045692840704974 0.0064515380027664482 -0.0096707131980938443 0.0046384283375651087 -0.0013063088697007476 -0.0030641626371616616 -0.0037983858781109642 0.014767536572250495 0.007295556463610119 0.0019428101973896165 0.0030107052865065097 0.012679321244857558 0.0031452751645170154 0.015871898125983407 0.010319954560550508 0.012092251353773471
leaf_weight=25.343424737453461 169.78589344024658 753.16191208362579 1622.8305149525404 811.08352054655552 733.13892306387424 1948.7309254109859 49.412975311279297 769.16146001219749 1061.5703165829182 24.028209298849106 5200.479533880949 67.532010048627853 41.452340751886368 968.06797415018082 165.47903899848461 396.76057337224483 21.567690595984459 1351.8468559086323 376.28842501342297 37.414897471666336 38.734733507037163 22.787403523921967 647.97981303930283 492.67178040742874 31.055062383413315 38.602292388677597 190.29505783319473 27.313542887568474 224.64688242971897 42.489609390497208
leaf_count=115 922 3517 8478 4120 3527 9496 226 3690 5177 108 25001 334 188 4559 764 1856 105 6280 1792 177 185 106 2957 2308 144 175 901 125 1008 196
internal_value=-6.50775e-05 -0.00127415 -0.00256762 -0.00567634 -0.00119203 -0.00391814 0.00335129 0.00218437 -0.00320153 0.00508637 -0.000218708 -0.00841803 0.00674162 0.000575222 0.00612523 0.00309635 0.00579268 0.00527299 0.00248889 0.0100044 0.00733327 0.00368538 0.00666979 0.00395408 0.0146056 0.0186714 0.000188818 0.00902909 0.0113253 0.0156126
internal_weight=18351.7 14863.2 11615.2 3563.02 8052.14 2118.52 3248.09 2511.96 1872.65 3488.48 5933.62 1690.36 1904.42 1737.23 1766 1584.05 774.73 1517.33 1456.02 128.035 736.128 60.2023 686.715 889.432 138.423 80.0546 566.583 58.3686 248.675 67.833
internal_count=88537 72294 57055 18109 38946 10418 15239 11871 9297 16243 28528 8812 8792 8249 8160 7451 3622 7044 6857 594 3368 283 3142 4164 632 363 2693 269 1116 311
is_linear=0
shrinkage=0.02


Tree=20
num_leaves=29
num_cat=0
split_feature=6 5 1 9 9 6 0 0 5 3 3 6 6 3 3 2 3 9 5 6 3 6 9 2 0 2 5 3
split_gain=270.897 236.523 107.405 63.1793 57.7608 43.8438 43.1244 35.2661 39.2663 33.6317 27.8851 31.1909 24.1233 14.7335 14.3642 12.8286 12.5216 9.42013 20.6087 8.9118 8.29828 7.56482 8.153 5.80801 5.62027 4.94031 2.59484 2.42187
threshold=-0.21757733333064852 0.17574692442882126 -1.0000000180025095e-35 72.350000000000009 56.95000000000001 0.29720542482710727 79.450000000000017 57.050000000000004 0.7238072286421372 0.23500000000000001 0.20500000000000004 -0.43920218181233145 0.34805512654503273 0.23500000000000001 0.31500000000000006 -115.24999999999999 0.19500000000000003 74.350000000000009 -0.048252457465924874 0.31209934038278769 0.88500000000000012 -0.2869757224234048 60.350000000000001 -199.89999999999998 56.050000000000004 -76.84999999999998 -0.087569159872846733 0.15500000000000003
decision_type=2 2 2 2 2 2 2 2 2 2 2 2 2 2 2 2 2 2 2 2 2 2 2 2 2 2 2 2
left_child=10 2 4 12 6 -6 -2 14 16 -5 21 13 -4 -12 19 -15 -9 23 -19 -3 -10 25 -23 -13 -16 27 -24 -1
right_child=1 7 3 9 5 -7 -8 8 20 -11 11 17 -14 15 24 -17 -18 18 -20 -21 -22 22 26 -25 -26 -27 -28 -29
leaf_value=0.025413080260092001 -0.0036363404723601905 0.010979089090701135 -0.0088906093814240788 -0.0060575689917097952 -0.00061809219058601571 0.013606080620125057 -0.015246874584206259 -0.013823447182225926 0.0078099150935310837 -0.00063796140829828574 0.023153436063753592 0.0099733484740653147 0.0016021972593478822 0.0082007386660125463 0.0053423911098181799 0.0043266519419142505 0.0016793358590234417 0.0032053222905118663 0.012325173380241085 0.022048674846604794 -0.0044666389732975721 -0.0014099108880793218 0.0066985440526584729 0.0012349941173425731 0.014852404855660466 0.0097297120706494288 0.015144449644606804 0.017066918671490596
leaf_weight=22.707022681832314 1512.6848341226578 102.02911296486855 1572.2437219321728 798.95289251208305 6271.3117857426405 87.893785178661346 139.7861634939909 21.039663061499596 568.01995944976807 1073.2755330651999 21.70752190053463 31.435350373387337 92.81592270731926 801.93251591920853 245.37291586399078 596.00798913836479 2197.6441705822945 791.32888647913933 113.30568994581699 40.694332182407379 22.912317276000977 23.346297025680542 21.748018115758896 946.46626016497612 27.65937165915966 25.323851630091667 43.965904325246811 35.885535150766373
leaf_count=102 7385 477 8253 4070 30203 416 770 103 2576 5237 100 148 463 3677 1141 2748 10390 3691 519 190 108 110 101 4476 128 115 202 163
internal_value=-4.96372e-05 -0.00123143 -0.00256873 -0.0054714 -0.00128716 -0.000421493 -0.0046185 0.00355702 0.00275254 -0.00295072 0.00497463 0.0045646 -0.00830571 0.00680293 0.00899357 0.00654903 0.00153232 0.00287664 0.00434759 0.0141353 0.00733391 0.0128024 0.00874244 0.00151589 0.0063058 0.0171111 0.0123493 0.0203014
internal_weight=18249.5 14774.3 11549 3537.29 8011.68 6359.21 1652.47 3225.37 2809.62 1872.23 3475.16 3302.18 1665.06 1419.65 415.756 1397.94 2218.68 1882.54 904.635 142.723 590.932 172.977 89.0602 977.902 273.032 83.9164 65.7139 58.5926
internal_count=88062 71910 56797 18023 38774 30619 8155 15113 13177 9307 16152 15359 8716 6525 1936 6425 10493 8834 4210 667 2684 793 413 4624 1269 380 303 265
is_linear=0
shrinkage=0.02


Tree=21
num_leaves=29
num_cat=0
split_feature=6 6 1 9 9 0 3 3 6 6 1 4 6 6 3 16 16 6 16 9 0 16 6 1 2 2 4 9
split_gain=259.83 220.636 149.295 79.3969 57.4055 46.2751 33.4812 26.5749 29.8048 25.6366 24.2868 22.792 17.8404 14.2974 13.9632 16.0046 12.2906 12.913 11.4903 9.59099 7.49947 7.43289 7.30348 14.7852 7.20735 4.36044 4.09735 2.0702
threshold=-0.21757733333064852 0.32863262610173255 -6.8499999999999988 72.750000000000014 56.95000000000001 99.450000000000017 0.23500000000000001 0.20500000000000004 -0.43920218181233145 0.09859958955652505 -13.449999999999998 0.23500000000000001 1.0449543040903511 0.062746193560914168 0.23500000000000001 -0.73149999999999993 1.0000000180025095e-35 -0.2869757224234048 -0.17549999999999996 67.750000000000014 43.000000000000007 -0.19249999999999998 0.5362957484617793 -51.599999999999994 93.550000000000011 -95.149999999999991 0.10500000000000002 67.15000000000002
decision_type=2 2 2 2 2 2 2 2 2 2 2 2 2 2 2 2 2 2 2 2 2 2 2 2 2 2 2 2
left_child=7 2 4 13 5 -2 -5 16 14 -6 22 26 -13 -4 -9 -16 17 27 21 -19 -20 -10 23 -3 -24 -18 -12 -1
right_child=1 10 3 6 9 -7 -8 8 18 -11 11 12 -14 -15 15 -17 25 19 20 -21 -22 -23 24 -25 -26 -27 -28 -29
leaf_value=0.019641197623905388 -0.0030860971663923256 0.020897513800715802 -0.011656075468154203 -0.005951261181712332 -0.00050497957669768832 -0.015093144561684152 -0.00055455269179671262 0.022501470797472552 0.001123995637097302 0.0029603438887328003 0.00018136308526513765 0.0028008450450394459 0.0080666504983333363 -0.0075929940268125197 0.011660948215433665 0.0055340035112851202 0.023802996515321737 -0.0079487837232683819 0.0030225339528064006 0.0093315976919014342 0.0066626584370848051 -0.006697905760427625 0.0085045022983785724 0.0046589568202424873 0.015683528483169874 0.014182464376597427 -0.0099659571410695338 0.011171468818767311
leaf_weight=23.429956421256065 1676.4454239308834 24.42263263463974 473.62167976796627 784.55294592678547 6106.7753384709358 139.03944352269173 1111.0171782374382 21.887891098856926 479.6449563652277 992.77725586295128 22.151566475629807 1204.7840237766504 327.26403014361858 1289.8788637816906 198.71899156272411 1202.4877243489027 34.275309130549431 25.09466278553009 1063.2092755585909 26.324527412652969 287.63752736151218 54.073621481657028 203.61189901828766 274.62792354822159 77.126336932182312 41.859540984034538 56.553294822573662 22.75341708958149
leaf_count=106 8164 114 2507 4003 29376 772 5409 100 2248 4690 110 5716 1483 6726 892 5533 155 119 4991 121 1341 254 934 1277 351 190 278 102
internal_value=-4.87588e-05 -0.00120768 -0.00222814 -0.00562979 -0.000831971 -0.00400566 -0.00278818 0.00486626 0.00446578 -2.04005e-05 0.00464991 0.00338646 0.00392568 -0.00868421 0.00665053 0.00640293 0.0124906 0.00779241 0.00281601 0.000898066 0.00379763 0.000331521 0.00816001 0.00598511 0.0104768 0.0185136 -0.00710998 0.0154684
internal_weight=18246 14764.6 12574.1 3659.07 8915.04 1815.48 1895.57 3481.4 3307.66 7099.55 2190.54 1610.75 1532.05 1763.5 1423.09 1401.21 173.737 97.6026 1884.57 51.4192 1350.85 533.719 579.789 299.051 280.738 76.1349 78.7049 46.1834
internal_count=88062 71910 61647 18645 43002 8936 9412 16152 15359 34066 10263 7587 7199 9233 6525 6425 793 448 8834 240 6332 2502 2676 1391 1285 345 388 208
is_linear=0
shrinkage=0.02


Tree=22
num_leaves=29
num_cat=0
split_feature=6 5 6 3 6 9 6 0 9 3 6 4 2 0 3 3 6 2 4 9 5 3 6 9 2 2 5 3
split_gain=249.226 220.994 98.3169 67.9632 59.2527 35.8082 34.4839 44.4927 33.7482 25.337 28.4875 24.8276 20.8511 14.3362 13.2429 12.5495 12.7711 12.2019 11.1642 9.06221 19.4636 8.78379 6.7737 7.50583 5.56261 4.6003 2.42583 2.26493
threshold=-0.21757733333064852 0.13122697252425655 -1.0000000180025095e-35 0.23500000000000001 0.25653870883030067 81.350000000000009 0.58720146168698151 54.250000000000007 55.250000000000007 0.20500000000000004 -0.43920218181233145 0.50500000000000012 -40.649999999999999 52.650000000000013 0.23500000000000001 0.34500000000000003 1.8367411102259259 -115.24999999999999 1.7750000000000001 74.350000000000009 -0.048252457465924874 0.31500000000000006 -0.2869757224234048 60.350000000000001 -199.89999999999998 -76.84999999999998 -0.087569159872846733 0.15500000000000003
decision_type=2 2 2 2 2 2 2 2 2 2 2 2 2 2 2 2 2 2 2 2 2 2 2 2 2 2 2 2
left_child=9 2 8 5 -5 -4 7 18 13 22 14 -9 -10 -2 -11 21 -17 -16 -3 24 -21 -8 25 -24 -12 27 -25 -1
right_child=1 6 3 4 -6 -7 15 11 12 10 19 -13 -14 -15 17 16 -18 -19 -20 20 -22 -23 23 26 -26 -27 -28 -29
leaf_value=0.024200009705486331 -0.0051595776532948291 0.0092684395737254819 -0.0087142155061217929 -0.003615453802087107 0.0045036782071336216 -0.0035012877085560672 0.0090682276115404935 -0.0025340364124048879 -0.00084195854962070861 0.021877979605794597 0.0096797623437730497 0.0019717314443465019 0.002215669726591608 0.0038378419088658639 0.0078667498733161756 0.0043306098571752388 0.011000141069962189 0.0040967600565859907 -0.0046552352169261244 0.0030865976166380331 0.01192589814028357 0.022429977197290889 -0.001400549220487589 0.0063383137870872035 0.0011478557522365169 0.0091415060369140471 0.014476290704516941 0.016181261507056056
leaf_weight=23.025093913078308 754.95174658298492 338.92067669332027 1627.500136718154 2907.6294492483139 410.27393241226673 779.54740183055401 67.453100755810738 649.76206250488758 2925.7809834331274 22.05965881049633 31.584923952817917 1979.1360182017088 1283.4563845843077 78.17142416536808 806.06334821879864 764.81975542008877 135.13203038275242 598.29395620524883 24.714264020323753 792.99631084501743 113.96308760344982 27.786239922046661 23.33675180375576 21.874066561460495 948.03944528102875 25.542605251073837 44.374531805515289 36.306891843676567
leaf_count=102 3707 1607 8467 14331 2000 3907 314 3149 14075 100 148 9395 6210 386 3677 3509 609 2748 116 3691 519 128 110 101 4476 115 202 163
internal_value=-4.78972e-05 -0.0011844 -0.00267396 -0.00446754 -0.00261149 -0.00702595 0.0028376 0.00176507 -0.000637577 0.0047605 0.0043693 0.00085808 9.03558e-05 -0.00431536 0.00650216 0.00606269 0.00533207 0.00626063 0.00832212 0.00275669 0.00419729 0.0129665 0.0121892 0.00835336 0.00142294 0.016238 0.0117893 0.0192931
internal_weight=18242.5 14755 10767.3 5724.95 3317.9 2407.05 3987.72 2992.53 5042.36 3487.46 3313 2628.9 4209.24 833.123 1426.42 995.191 899.952 1404.36 363.635 1886.58 906.959 95.2393 174.46 89.5854 979.624 84.8746 66.2486 59.332
internal_count=88062 71910 53083 28705 16331 12374 18827 14267 24378 16152 15359 12544 20285 4093 6525 4560 4118 6425 1723 8834 4210 442 793 413 4624 380 303 265
is_linear=0
shrinkage=0.02


Tree=23
num_leaves=30
num_cat=0
split_feature=6 5 9 3 6 3 6 3 6 5 2 6 2 2 16 16 16 3 16 6 16 4 9 16 2 9 6 2 9
split_gain=239.064 212.564 88.0801 53.1152 49.676 47.6801 35.7557 24.1639 27.2304 23.4542 29.211 23.5709 21.7788 17.8014 12.8499 24.7424 18.3278 12.0486 11.5597 11.9274 10.9647 9.33802 8.99618 8.81402 7.26928 6.31505 5.7006 3.99428 1.96008
threshold=-0.21757733333064852 0.17574692442882126 62.150000000000013 0.19500000000000003 -1.0000000180025095e-35 0.23500000000000001 0.30476896235294154 0.20500000000000004 -0.43920218181233145 0.66984612076274053 66.65000000000002 0.30476896235294154 -40.649999999999999 -4.8499999999999988 -0.73149999999999993 -1.1014999999999999 -0.39849999999999997 0.31500000000000006 1.0000000180025095e-35 -0.2869757224234048 -0.17549999999999996 2.0850000000000004 67.750000000000014 0.10450000000000001 -191.34999999999999 90.250000000000014 1.1541695149467903 -95.149999999999991 67.15000000000002
decision_type=2 2 2 2 2 2 2 2 2 2 2 2 2 2 2 2 2 2 2 2 2 2 2 2 2 2 2 2 2
left_child=7 2 3 13 12 -6 -5 18 14 10 17 -12 -4 -2 15 -9 -16 -3 19 28 24 23 -21 -11 -10 -22 -23 -20 -1
right_child=1 9 4 6 5 -7 -8 8 20 21 11 -13 -14 -15 16 -17 -18 -19 27 22 25 26 -24 -25 -26 -27 -28 -29 -30
leaf_value=0.018710838138999607 -0.0058133935292170955 0.010323213110710253 -0.00057072060223584391 -0.0042174680137346951 -0.0053085396855170521 -0.0010676056519829825 0.0079743997786401108 0.0038428082486936994 -0.0071277609973262939 0.010681538392298479 -0.0019932237209569219 0.0027987971593472585 0.0028152438263491144 -0.011980108834982633 -0.00029373970830537583 0.017889254472623822 0.0066047872877126089 0.0043796492519612663 0.022728606284082672 -0.0078739532790236925 0.0028963375837452485 -0.0055510075253274362 0.0088392525589720515 0.0056621197580680365 0.0010079694885778089 0.0061114978727562757 0.005110463572996782 0.013570208159477995 0.010511804218226901
leaf_weight=23.704842954874039 300.99016165733337 177.59084072709084 2535.5242401063442 2522.1542440801859 1729.0134295672178 2742.2328950464725 100.03633211553097 97.783853352069855 48.295039415359497 223.01454539597034 638.02351628243923 1151.7616590410471 1085.0115326046944 495.46887099742889 180.58575589954853 102.99671755731106 1048.2988614290953 588.58495600521564 34.714838758111 25.049000218510628 1034.2526482641697 36.574874028563499 26.522929966449738 375.63650177419186 486.00820830464363 319.95653705298901 44.429555922746658 42.208964243531227 22.958922788500786
leaf_count=106 1481 828 12175 12577 8789 13379 497 436 225 1007 3044 5427 5225 2674 824 460 4805 2742 155 119 4849 167 121 1698 2277 1483 200 190 102
internal_value=-4.70439e-05 -0.0011615 -0.00243462 -0.00512627 -0.00129745 -0.00270756 -0.00375235 0.00465731 0.00427513 0.00336752 0.00248945 0.00109054 0.000443994 -0.00964964 0.00635746 0.0110484 0.00559104 0.0057573 0.0118971 0.00735054 0.00269874 0.00666965 0.000721482 0.007532 0.00027259 0.00365598 0.000296629 0.0177033 0.0146769
internal_weight=18239.4 14746 11510.4 3418.65 8091.78 4471.25 2622.19 3493.34 3318.18 3235.62 2555.96 1789.79 3620.54 796.459 1429.67 200.781 1228.88 766.176 175.159 98.2357 1888.51 679.655 51.5719 598.651 534.303 1354.21 81.0044 76.9238 46.6638
internal_count=88062 71910 56797 17229 39568 22168 13074 16152 15359 15113 12041 8471 17400 4155 6525 896 5629 3570 793 448 8834 3072 240 2705 2502 6332 367 345 208
is_linear=0
shrinkage=0.02


Tree=24
num_leaves=31
num_cat=0
split_feature=6 6 1 9 9 0 6 1 4 6 6 6 16 6 0 16 16 16 2 4 9 2 16 4 0 6 4 9 6 6
split_gain=229.324 197.68 139.514 75.5681 52.0237 43.6598 24.0905 22.8947 21.6491 20.3806 16.1162 15.9933 15.1026 13.7935 13.0643 11.6914 23.1095 18.6282 11.8366 9.16478 8.53442 10.7925 7.14632 6.92496 6.63599 15.1333 9.11316 6.32121 6.28238 4.47219
threshold=-0.21757733333064852 0.32863262610173255 -6.8499999999999988 72.750000000000014 56.95000000000001 99.450000000000017 0.09859958955652505 -13.449999999999998 0.23500000000000001 -0.43920218181233145 0.21418966287770627 1.0449543040903511 -0.17549999999999996 0.062746193560914168 42.45000000000001 -0.73149999999999993 -1.1014999999999999 -0.39849999999999997 -115.24999999999999 0.64500000000000013 64.550000000000011 -191.34999999999999 -0.46549999999999997 1.635 63.250000000000007 0.49351088506996993 0.69500000000000006 62.550000000000004 -0.23250766856210967 -0.67163213121767529
decision_type=2 2 2 2 2 2 2 2 2 2 2 2 2 2 2 2 2 2 2 2 2 2 2 2 2 2 2 2 2 2
left_child=9 2 4 13 5 -2 -6 24 -9 15 -5 -10 20 -4 28 16 23 22 -19 -16 27 -22 -17 -1 26 -26 -3 -11 -14 -18
right_child=1 7 3 10 6 -7 -8 8 11 12 -12 -13 14 -15 19 17 29 18 -20 -21 21 -23 -24 -25 25 -27 -28 -29 -30 -31
leaf_value=0.0068040759501598672 -0.0029024559303723152 0.0075326677206104566 -0.011342771347102742 -0.0036619089475496331 -0.00045970480815853284 -0.014669185970232335 0.002898206604496527 -0.0070718530027365405 0.0026235432737049488 -0.0018227314681384219 0.00069160658781210237 0.0075939134236165419 0.0036184791880268692 -0.0073316097242228919 0.0041039631118698601 0.0023468603754168587 0.020077734740805792 0.0085105835258828776 0.0042539723003905414 0.0098511228852891704 -0.0071117361796126663 0.0032206655974912736 -0.006296355145166169 -0.0057898834707858565 0.00062355044754788748 0.0093707808313796565 0.015593927766640987 -0.013326825659476588 -0.0015826508110717778 0.010906022072351931
leaf_weight=75.399545848369598 1669.3769374042749 167.23990081250668 468.44273498654366 1443.5177661776543 6100.6881078034639 136.44278748333454 993.82809837162495 78.614102452993393 1208.678893238306 139.13288700580597 444.97406978905201 329.55776380002499 941.53581827878952 1279.7563412338495 206.50621078908443 125.52398037910461 73.692596077919006 601.05335687100887 462.29871509969234 239.95068143308163 45.627636969089508 355.47247314453125 55.043214663863182 22.728929102420807 130.438382178545 201.06415696442127 84.405994549393654 22.146476209163666 103.06263391673565 29.891556546092033
leaf_count=336 8164 773 2507 7247 29376 772 4690 388 5716 659 2165 1483 4397 6726 962 572 325 2740 2121 1098 213 1653 252 101 603 912 388 105 483 135
internal_value=-4.6204e-05 -0.00113905 -0.00210938 -0.00540997 -0.000760757 -0.00379152 1.06848e-05 0.00439053 0.00316523 0.00455655 -0.00263612 0.00368841 0.00327584 -0.00840643 0.00432921 0.00637572 0.0108422 0.00565144 0.00666 0.00719281 0.000482987 0.00204529 -0.000287895 0.00388701 0.00778781 0.00592895 0.0102365 -0.00340244 0.00310532 0.017431
internal_weight=18236.1 14737 12537 3636.69 8900.34 1805.82 7094.52 2200 1616.85 3499.07 1888.49 1538.24 2053.43 1748.2 1491.06 1445.63 201.713 1243.92 1063.35 446.457 562.379 401.1 180.567 98.1285 583.148 331.503 251.646 161.279 1044.6 103.584
internal_count=88062 71910 61647 18645 43002 8936 34066 10263 7587 16152 9412 7199 9570 9233 6940 6582 897 5685 4861 2060 2630 1866 824 437 2676 1515 1161 764 4880 460
is_linear=0
shrinkage=0.02


Tree=25
num_leaves=27
num_cat=0
split_feature=6 5 6 6 9 5 0 5 3 6 3 9 6 4 5 6 4 2 3 6 6 3 9 0 3 0
split_gain=259.06 178.898 114.939 71.7606 61.7211 40.0634 31.7896 30.4558 29.7508 25.6769 21.9865 18.2697 18.0009 16.9984 16.904 14.9344 12.8392 11.8318 10.5345 9.46956 7.27059 6.52728 6.50921 5.07095 4.88786 2.84856
threshold=-0.27496956203294504 0.13122697252425655 -1.0000000180025095e-35 0.26891172171069627 72.350000000000009 0.7238072286421372 57.050000000000004 0.011286681859357108 0.24500000000000002 -0.09619232680752042 0.23500000000000001 72.950000000000017 -0.12710133377838437 0.33500000000000008 -0.073193049111258665 -0.43920218181233145 0.22500000000000003 -191.34999999999999 0.41500000000000004 -0.42598509052183536 0.29720542482710727 0.36500000000000005 79.950000000000017 38.550000000000004 0.48500000000000004 41.250000000000007
decision_type=2 2 2 2 2 2 2 2 2 2 2 2 2 2 2 2 2 2 2 2 2 2 2 2 2 2
left_child=8 2 7 4 -4 6 20 9 19 -2 -5 17 -9 -8 15 -13 -7 24 -19 -1 -3 -18 -16 -21 -10 -25
right_child=1 5 3 10 -6 16 13 12 11 -11 -12 14 -14 -15 22 -17 21 18 -20 23 -22 -23 -24 25 -26 -27
leaf_value=0.021799085220351958 0.00024151500045037553 0.0045777761489044222 -0.007073251980069451 -0.0060380063454986985 -0.0027402326067446831 -0.0063032934230473504 -0.0035394909846262214 0.007862419737089673 0.0066750021063382414 -0.0027189625052625489 0.0053861585885731679 0.0077629896533469916 0.0014261109030421499 0.0013838170630053482 0.022079892342557868 0.0033164358045912751 0.016382138678497481 0.0049948662445314833 0.0010729727919937093 0.0027935516970651482 0.0096038837267663421 0.0073520508117874738 0.011213544247537496 0.017614453149164596 0.019627865664395769 0.01071293357946774
leaf_weight=42.272573426365852 2923.9520871788263 504.61830405890942 2684.9677812755108 82.231211319565773 2577.0780658274889 26.730515271425247 316.6129747480154 227.53116963803768 23.361035272479057 1955.6629495322704 373.25736904144287 760.94702595472336 736.19399151206017 2460.3168842643499 29.233345791697502 501.09454970061779 33.941468089818954 500.88578540086746 604.68194435536861 24.806422680616379 149.1516909301281 565.31313966214657 89.745233595371246 34.069813445210457 23.252217307686806 80.313477739691734
leaf_count=189 14025 2387 13859 424 12725 127 1541 1088 108 9482 1810 3425 3560 11669 132 2325 152 2336 2810 114 695 2533 404 154 107 361
internal_value=-1.67074e-05 -0.00100794 -0.00227593 -0.00429194 -0.00495116 0.00260562 0.00175662 -0.000303312 0.00568586 -0.000944992 0.00332371 0.00512549 0.00294569 0.000822484 0.00667688 0.00599748 0.00725857 0.00326597 0.00284982 0.0135087 0.00572444 0.00786351 0.0138834 0.0109908 0.0131363 0.0127686
internal_weight=18332.2 15617.6 11560.9 5717.53 5262.05 4056.68 3430.7 5843.34 2714.66 4879.62 455.489 2533.2 963.725 2776.93 1381.02 1262.04 625.985 1152.18 1105.57 181.462 653.77 599.255 118.979 139.19 46.6133 114.383
internal_count=88542 76077 56973 28818 26584 19104 16292 28155 12465 23507 2234 11647 4648 13210 6286 5750 2812 5361 5146 818 3082 2685 536 629 215 515
is_linear=0
shrinkage=0.02


Tree=26
num_leaves=29
num_cat=0
split_feature=6 5 6 6 5 3 0 5 3 3 6 4 6 6 5 6 6 3 4 16 3 6 5 4 3 16 5 0
split_gain=248.531 177.168 103.485 69.1161 38.5134 32.3985 31.887 31.0357 30.0187 26.5612 21.5822 20.2299 19.2633 18.3513 11.5057 12.5582 11.1637 9.48661 8.25401 7.56145 7.4755 11.9021 11.544 7.16668 6.55766 4.57253 3.50607 2.80416
threshold=-0.25682968367383702 0.13122697252425655 -1.0000000180025095e-35 0.25653870883030067 0.59180577993984695 0.23500000000000001 57.050000000000004 0.011286681859357108 0.19500000000000003 0.24500000000000002 -0.09619232680752042 0.33500000000000008 -0.43920218181233145 -0.12710133377838437 -0.093094358517636908 -0.35560471623450324 -0.42598509052183536 0.7350000000000001 0.67500000000000016 -0.73149999999999993 0.41500000000000004 1.3084260420814788 1.0540678338547107 0.33500000000000008 0.20500000000000004 -0.050499999999999996 -0.084134845487865415 39.550000000000004
decision_type=2 2 2 2 2 2 2 2 2 2 2 2 2 2 2 2 2 2 2 2 2 2 2 2 2 2 2 2
left_child=9 2 7 5 6 -4 23 10 -5 16 -2 -8 17 -9 18 -16 -1 19 -14 -11 22 -22 -6 -3 26 -19 -18 -26
right_child=1 4 3 8 20 -7 11 13 -10 12 -12 -13 14 -15 15 -17 24 25 -20 -21 21 -23 -24 -25 27 -27 -28 -29
leaf_value=0.021213918633606881 8.6153982145415031e-05 0.00057669168961276788 -0.0066951191849555025 -0.010778487767467147 0.01497296901426058 -0.0035111163941374947 -0.0043339137893808619 0.0080329960150041756 0.0044979921650529307 0.010903912145890156 -0.0026676441856019607 0.0012173321311761728 -0.0002062594022542379 0.0013967536826908922 0.014742239303245783 0.0042351907092351765 0.0088783210465077263 0.0036992312642341808 0.0034552099918391554 0.0063601015446542964 0.0038848996575839997 0.0093851605709285666 -0.00027430413322057873 0.0064744063611287886 -0.00070659257920061903 -0.0042947147819157299 0.016413049406008313 0.0078000439879045529
leaf_weight=42.566815555095673 2728.4099358320236 97.250109419226646 2277.0664867013693 57.986339271068573 82.384280949831009 2914.4513728916645 296.54525004327297 215.42443589866161 456.62371300160885 169.35008524358273 1953.4414337575436 2293.0243188291788 379.56541696190834 736.62975092232227 62.567195728421211 166.82273858785629 43.613343745470047 112.51387514173985 701.27912227809429 1085.5260161310434 485.93366043269634 232.74105727672577 26.172454953193665 540.29633703827858 21.771784260869026 38.386517629027367 56.97168542444706 53.813335880637169
leaf_count=189 13110 464 11839 303 372 14450 1450 1029 2226 750 9482 10896 1788 3560 285 770 196 506 3262 4946 2200 1038 118 2538 101 174 252 248
internal_value=-1.64651e-05 -0.00103331 -0.00231621 -0.00421465 0.00255499 -0.00490766 0.00156807 -0.000393445 0.00277664 0.00531744 -0.00106283 0.00058163 0.00477747 0.00289836 0.0030328 0.00710104 0.012022 0.00640357 0.00216939 0.00697331 0.00640507 0.00566615 0.0112969 0.00557478 0.00980106 0.00166571 0.013146 0.00534976
internal_weight=18329.1 15394.4 11340 5706.13 4054.35 5191.52 3227.12 5633.91 514.61 2934.75 4681.85 2589.57 2716.01 952.054 1310.23 229.39 218.737 1405.78 1080.84 1254.88 827.231 718.675 108.557 637.546 176.17 150.9 100.585 75.5851
internal_count=88542 75075 55999 28818 19076 26289 15348 27181 2529 13467 22592 12346 12481 4589 6105 1055 986 6376 5050 5696 3728 3238 490 3002 797 680 448 349
is_linear=0
shrinkage=0.02


Tree=27
num_leaves=26
num_cat=0
split_feature=6 6 1 9 5 6 3 3 2 2 5 2 9 5 6 6 6 2 5 4 3 16 3 6 4
split_gain=238.452 166.367 149.691 60.5146 59.0707 50.8008 27.136 25.1413 20.8236 19.8387 18.4328 18.1695 17.2178 15.2606 15.2832 10.5571 8.44652 7.80426 10.7857 7.32594 7.16652 6.78493 4.74012 9.97443 1.50287
threshold=-0.27496956203294504 0.30476896235294154 -1.0000000180025095e-35 72.750000000000014 0.064634278461994668 -0.09619232680752042 0.24500000000000002 0.19500000000000003 51.350000000000001 66.750000000000014 0.7238072286421372 136.45000000000002 69.550000000000011 -0.073193049111258665 -0.43920218181233145 0.062746193560914168 -0.42598509052183536 -121.14999999999999 -0.084134845487865415 0.22500000000000003 0.69500000000000006 -0.053499999999999992 0.13500000000000004 -0.30115112414205719 0.33500000000000008
decision_type=2 2 2 2 2 2 2 2 2 2 2 2 2 2 2 2 2 2 2 2 2 2 2 2 2
left_child=6 2 4 15 5 -2 16 24 -5 -6 11 -9 17 14 -14 -4 -1 18 -8 -12 -19 -15 -18 -24 -3
right_child=1 7 3 8 9 -7 12 10 -10 -11 19 -13 13 21 -16 -17 22 20 -20 -21 -22 -23 23 -25 -26
