tree
version=v4
num_class=1
num_tree_per_iteration=1
label_index=0
max_feature_idx=17
objective=binary sigmoid:1
feature_names=rsi williams_r cci trend_str vol_ratio ma5_ma20_dev_pct price_vwap_dev_pct regime_code mtf_aligned_code volume_quality_score bid_ask_imbalance order_flow_delta_scaled orb_breakout real_ofi_interval real_big_trade_interval_scaled spread_pct market_return_5m_pct time_of_day_pct
feature_infos=[0:100] [-100:0] [-666.70000000000005:666.70000000000005] [0:0.93000000000000005] [0:6.5999999999999996] [-7.0766751712098781:7.3076923076923039] [-7.1140939597315374:9.2219344668393219] [-3:2] [-1:1] [25.800000000000001:100] none none none none none none [-5.1849999999999996:4.25] none
tree_sizes=3440 3499 3496 3489 3483 3488 3481 3518 3507 3509 3491 3507 3504 3492 3490 3489 3486 3506 3519 3509 3501 3485 3511 3528 3509 3499 3508 3495 3535 3508 3502 3489 3503 3524 3525 3522 3516 3515 3491 3486 3504 3487 3496 3512 3485 3503 3489 3483 3478 3483 3485 3491 3501 3516 3486 3474 3509 3513 3496 3505 3492 3471 3496 3438 3476 3495 3490 3463 3442 3509 3498 3487 3474 3460 3483 3455 3452 3473 3474 3461 3477 3451 3458 3464 3504 3500 3445 3487 3429 3469 3444 3486 3467 3476 3496 3419 3471 3449 3488 3460 3455 3464 3439 3500 3462 3477 3483 3446 3473 3467 3464 3477 3498 3446 3409 3458 3456 3432 3430 3434 3467 3475 3452 3506 3449 3494 3425 3433 3444 3466 3434 3445 3473 3458 3480 3488 3440 3465 3417 3416 3459 3481 3500 3436 3476 3502 3461 3452 3470 3449 3483 3424 3425 3389 3460 3460 3431 3454 3431 3454 3451 3413 3455 3406 3439 3439 3423 3479 3428 3445 3493 3456 3477 3426 3456 3410 3415 3417 3442 3437 3476 3424 3480 3434 3435 3423 3498 3465 3408 3416 3473 3408 3404 3421 3432 3394 3423 3389 3423 3426 3410 3442 3463 3458 3431 3424 3419 3432 3414 3457 3458 3421 3447 3464 3461 3469 3481 3459 3459 3425 3446 3429 3445 3461 3478 3435 3455 3430 3458 3446 3431 3432 3432 3435 3442 3418 3404 3413 3433 3423 3490 3448 3444 3455 3447 3460 3452 3435 3446 3423 3453 3477

Tree=0
num_leaves=31
num_cat=0
split_feature=6 5 1 9 9 6 1 16 8 5 6 5 6 6 4 1 6 9 5 2 4 4 6 6 6 5 2 6 6 5
split_gain=538.73 414.905 300.705 107.248 91.3191 59.2153 60.49 46.1046 45.0383 32.198 31.3822 34.2981 31.2208 30.9581 24.8901 22.9828 22.8576 18.3736 21.9095 18.1603 17.5322 20.176 17.2139 17.0215 16.793 19.0112 17.5851 16.9655 16.2395 16.0668
threshold=-0.28101604171755773 0.21711631801680789 -6.2499999999999991 72.250000000000014 69.250000000000014 0.74225978475910293 -10.999999999999998 -0.12949999999999998 1.0000000180025095e-35 0.062043903664510409 -0.77713069344733088 -0.10057663985140185 0.22233735702894555 0.22233735702894555 0.43500000000000005 -18.049999999999994 -0.22120764112880661 56.850000000000001 0.032862306933945103 60.350000000000001 1.8150000000000002 2.0650000000000004 0.43012358285927649 0.46099656360085733 -0.16792475196908405 0.085184058727294523 -122.74999999999999 -0.06304289832992914 0.1275510204081676 -0.19569471624266141
decision_type=2 2 2 2 2 2 2 2 2 2 2 2 2 2 2 2 2 2 2 2 2 2 2 2 2 2 2 2 2 2
left_child=10 2 4 13 8 6 19 -6 15 16 -1 20 -5 -4 -8 24 -9 18 -10 -3 -12 -22 -18 -21 26 29 -2 -27 -17 -26
right_child=1 5 3 12 7 -7 14 9 17 -11 11 -13 -14 -15 -16 28 22 -19 -20 23 21 -23 -24 -25 25 27 -28 -29 -30 -31
leaf_value=-0.86446759456378652 -0.91103395668401199 -0.87185994397682087 -0.92902124697416588 -0.91281151460018406 -0.90477136153250926 -0.86945785469684289 -0.91743531690759339 -0.88096193756553032 -0.92834524497782434 -0.88304876075188654 -0.88392338045833296 -0.86369335151086846 -0.89868084098036449 -0.91338985612864732 -0.89377605105994995 -0.79630236881733363 -0.89683114882189929 -0.90837286241848847 -0.90745798987822113 -0.8902737458920057 -0.83993007993868907 -0.87828852804939705 -0.82047802749917487 -0.86902719148930829 -0.89252035000980312 -0.86664173519740406 -0.89188012270523198 -0.89873589932208919 -0.88134233739466539 -0.9084177874913979
leaf_weight=464.06205496191978 155.03003519773483 452.54788789153099 1491.2902457416058 1537.9637444019318 1096.9300235807896 602.23205980658531 132.61853143572807 254.75094643235207 353.44380703568459 656.10191288590431 1364.4287978410721 304.09737673401833 524.10021182894707 402.17340695858002 687.14904195070267 7.8131847977638271 2716.7265982329845 622.58746230602264 194.71278956532478 415.5380651652813 49.552040427923203 111.23507830500603 7.4019645452499381 121.92680487036705 174.35738706588745 48.318379670381546 527.80119410157204 278.60172107815742 19.944182246923447 1796.6212832331657
leaf_count=2257 754 2201 7253 7480 5335 2929 645 1239 1719 3191 6636 1479 2549 1956 3342 38 13213 3028 947 2021 241 541 36 593 848 235 2567 1355 97 8738
internal_value=-0.898677 -0.902069 -0.905636 -0.917109 -0.900544 -0.883039 -0.887558 -0.895787 -0.90593 -0.893076 -0.87608 -0.879026 -0.90922 -0.925701 -0.897604 -0.902692 -0.895284 -0.91425 -0.920926 -0.87924 -0.882083 -0.866467 -0.896624 -0.885454 -0.903113 -0.905159 -0.896229 -0.893992 -0.857405 -0.907011
internal_weight=17572.1 15278.7 12866.7 3955.53 8911.14 2412.01 1809.78 4731.91 4179.23 3634.98 2293.38 1829.31 2062.06 1893.46 819.768 3008.49 2978.88 1170.74 548.157 990.013 1525.22 160.787 2724.13 537.465 2980.73 2297.9 682.831 326.92 27.7574 1970.98
internal_count=85463 74309 62578 19238 43340 11731 8802 23014 20326 17679 11154 8897 10029 9209 3987 14632 14488 5694 2666 4815 7418 782 13249 2614 14497 11176 3321 1590 135 9586
is_linear=0
shrinkage=1


Tree=1
num_leaves=31
num_cat=0
split_feature=1 5 3 5 5 9 9 2 3 9 3 5 4 5 5 0 8 5 4 9 0 1 3 4 9 4 9 4 3 0
split_gain=393.274 239.513 157.487 136.368 164.936 97.5841 56.5688 45.1732 43.0648 37.3463 34.6122 34.2919 33.7268 29.2643 27.4797 26.7873 23.0845 22.4836 18.8366 16.6256 15.9452 14.6427 14.002 13.6392 15.8482 18.1 13.5034 12.3762 11.8929 11.8678
threshold=-2.1499999999999999 0.21711631801680789 1.0000000180025095e-35 0.20245192023060635 -0.21978021978021342 72.250000000000014 70.250000000000014 -124.14999999999999 0.23500000000000001 68.65000000000002 0.23500000000000001 -0.62698678228307314 0.38500000000000006 0.63688213503233515 0.062043903664510409 44.500000000000007 1.0000000180025095e-35 0.59783047763563035 0.13500000000000004 60.650000000000013 62.400000000000006 -17.149999999999995 0.45500000000000007 1.6850000000000003 91.250000000000014 1.3650000000000004 61.650000000000013 0.99500000000000011 0.53500000000000014 49.150000000000013
decision_type=2 2 2 2 2 2 2 2 2 2 2 2 2 2 2 2 2 2 2 2 2 2 2 2 2 2 2 2 2 2
left_child=2 5 9 4 7 10 16 -4 -7 -1 -2 -9 -3 -14 23 19 18 20 26 -13 -5 22 -20 24 27 -26 -6 -8 -21 -12
right_child=1 12 3 17 6 8 14 11 -10 -11 29 15 13 -15 -16 -17 -18 -19 21 28 -22 -23 -24 -25 25 -27 -28 -29 -30 -31
leaf_value=-0.033778910870823214 -0.033003133094874258 -0.015214898068892511 0.026180233133473868 0.023027238317579173 0.0080287555377081751 -0.018535135351884953 0.0062602538075716019 0.026657927262107469 -0.0038653124638420543 -0.007293009038913608 0.0047993555362951038 -0.0050498197061484857 0.0066865062865106122 0.026454659761150568 0.013733848203006844 0.027349404617271856 -0.010409418030818143 0.030835482872326278 -0.00067715336041692515 0.012750791422388417 0.010468044606254764 0.037656388129776508 -0.0091146529207613014 -0.0028756252322216726 0.022892767907164605 0.0051583046307815787 0.046685102927689473 -0.0012695559009146984 -0.0016236730312525389 -0.02063052152301089
leaf_weight=291.46165758371353 882.21050211787224 133.6382343173027 750.08773715794086 503.21301406621933 82.267893314361572 862.02632702887058 1142.3346688598394 284.55979882180691 1192.14066632092 244.94765357673168 48.218628138303757 317.26183027029037 768.06507810950279 247.56031557917595 723.1326405107975 146.09195876121521 908.93159580230713 391.28506098687649 2387.5721246153116 512.05256013572216 507.70590336620808 22.972194328904152 619.22654269635677 764.39568534493446 228.77708975970745 387.67667658627033 31.143567904829979 1044.8333721160889 200.13483744859695 945.92053408920765
leaf_count=1429 4343 652 3615 2427 400 4215 5548 1370 5820 1191 237 1535 3723 1191 3498 708 4445 1883 11624 2481 2453 110 3014 3711 1111 1883 151 5075 969 4651
internal_value=4.98496e-05 -0.0116803 0.00481981 0.00600896 0.00406249 -0.0175511 0.000845289 0.0162071 -0.0100215 -0.0216843 -0.0257943 0.0110837 0.00839799 0.011505 0.00484607 0.00731368 -0.0033915 0.0206587 -0.00136209 0.00447036 0.0167197 -0.00211096 -0.00241479 0.00304477 0.00465895 0.0117399 0.0186441 0.00266318 0.00871136 -0.0193971
internal_weight=17571.8 5079.78 12492.1 11955.7 10553.5 3930.52 8343.26 2210.19 2054.17 536.409 1876.35 1460.1 1149.26 1015.63 4291.15 1175.54 4052.11 1402.2 3143.18 1029.45 1010.92 3029.77 3006.8 3568.02 2803.62 616.454 113.411 2187.17 712.187 994.139
internal_count=85463 24832 60631 58011 51248 19266 40570 10678 10035 2620 9231 7063 5566 4914 20826 5693 19744 6763 15299 4985 4880 14748 14638 17328 13617 2994 551 10623 3450 4888
is_linear=0
shrinkage=0.05


Tree=2
num_leaves=31
num_cat=0
split_feature=6 5 1 9 0 9 6 1 6 5 9 6 6 6 0 16 2 4 16 1 2 16 6 6 9 16 5 6 5 6
split_gain=452.042 365.585 214.761 91.653 74.8344 50.808 48.6103 49.9456 44.6329 37.9646 32.4337 28.7221 28.5143 27.7388 23.2897 21.0183 21.4718 20.9311 20.2361 19.5655 16.8841 16.7242 15.8674 15.5821 15.1272 16.1824 14.7126 23.5631 15.9937 14.5314
threshold=-0.22120764112880661 0.21711631801680789 -6.2499999999999991 72.250000000000014 83.100000000000009 69.250000000000014 0.74225978475910293 -10.999999999999998 -0.32366657525873527 0.062043903664510409 67.65000000000002 0.22233735702894555 0.30322787797940626 0.22233735702894555 40.95000000000001 -0.68149999999999988 -332.79999999999995 0.43500000000000005 -0.12549999999999997 -18.049999999999994 60.350000000000001 -0.11849999999999998 0.26866317943433643 0.14997702304376806 60.650000000000013 3.0485000000000002 1.0000000180025095e-35 -0.06304289832992914 -1.0000000180025095e-35 0.46099656360085733
decision_type=2 2 2 2 2 2 2 2 2 2 2 2 2 2 2 2 2 2 2 2 2 2 2 2 2 2 2 2 2 2
left_child=8 2 4 11 5 12 7 20 15 18 -6 -4 19 -5 -10 -1 -17 -9 -7 26 -3 -20 -23 -21 -18 -26 28 -28 -2 -22
right_child=1 6 3 13 10 9 -8 17 14 -11 -12 -13 -14 -15 -16 16 24 -19 21 23 29 22 -24 -25 25 -27 27 -29 -30 -31
leaf_value=0.03659842774770921 -0.0074866369048403152 0.024589140420699596 -0.028183942568860615 -0.012983107795055708 -0.033223472422843035 -0.0067471827888429736 0.026199597931838486 -0.017511860906109292 0.0044207584373297222 0.01242363325228559 -0.0079477489036879276 -0.01298923162777439 0.026099832693450026 0.00036818360366450132 0.019673773615176419 0.067821745762128724 0.011026172539607016 0.0042851831409399868 0.04288626820379262 0.078642439407920706 0.0070701830224930463 0.0015291096490914347 0.044052768753255943 0.0027244336151016832 0.021780417637187729 0.097390689363163335 0.01132886428144623 -0.0058351241734465303 -0.02003666750562702 0.026519335096638643
leaf_weight=221.78323554992676 1942.7535051852465 452.97597889602184 1453.2218765318394 1521.2097280621529 266.16975197196007 814.73718811571598 614.74062271416187 131.02871836721897 741.11930556595325 769.47060944139957 242.60061532258987 395.69083516299725 68.91476272046566 522.70093913376331 377.85526438057423 23.387938737869263 395.66265222430229 690.7936971783638 25.142489418387413 11.923468530178072 419.59849727153778 2491.1974033117294 22.132300168275833 15.604271307587622 1289.3242900073528 7.1156109720468512 251.67060619592667 973.1107884645462 292.02268555760384 124.54496632516384
leaf_count=1057 9489 2161 7244 7479 1325 3965 2929 645 3582 3703 1184 1956 335 2549 1825 112 1905 3341 122 56 2020 12089 106 75 6170 34 1225 4757 1430 593
internal_value=4.46896e-05 -0.00363552 -0.00719728 -0.0168656 -0.00260035 -0.0013699 0.0140443 0.00993622 0.0175218 0.00240742 -0.0211711 -0.0249321 -0.00574917 -0.00956871 0.0095714 0.022114 0.0202414 0.000809933 0.000108967 -0.0063786 0.0174581 0.00230949 0.00190357 0.0356078 0.0195837 0.0221954 -0.00671269 -0.00230823 -0.00912657 0.0115218
internal_weight=17570.2 14514 12080.3 3892.82 8187.45 7678.68 2433.68 1818.94 3056.25 4122.68 508.77 1848.91 3556 2043.91 1118.97 1937.27 1715.49 821.822 3353.21 3487.09 997.119 2538.47 2513.33 27.5277 1692.1 1296.44 3459.56 1224.78 2234.78 544.143
internal_count=85463 70778 59089 19228 39861 37352 11689 8760 14685 19985 2509 9200 17367 10028 5407 9278 8221 3986 16282 17032 4774 12317 12195 131 8109 6204 16901 5982 10919 2613
is_linear=0
shrinkage=0.05


Tree=3
num_leaves=31
num_cat=0
split_feature=6 6 1 9 0 6 9 3 3 16 9 3 6 6 1 6 2 0 6 6 4 0 6 0 6 2 4 3 3 16
split_gain=405.868 245.967 258.526 94.525 82.7698 65.8993 43.3274 37.9215 37.0427 36.6684 30.2579 23.9058 26.213 22.4286 25.1547 21.7705 21.5675 21.1057 20.923 16.4267 16.595 15.8086 15.8635 14.7055 16.9106 14.262 14.2553 13.8194 13.6031 15.6187
threshold=-0.28101604171755773 0.46099656360085733 -3.4499999999999997 74.450000000000017 84.250000000000014 0.1143877817536887 61.850000000000001 0.24500000000000002 0.19500000000000003 -0.12949999999999998 68.65000000000002 0.19500000000000003 -0.77713069344733088 0.74225978475910293 -10.999999999999998 -0.22120764112880661 -332.79999999999995 33.45000000000001 0.21392180747579206 0.09602280131447706 0.84500000000000008 21.450000000000003 -0.16149430783379823 42.95000000000001 -0.17469428500124781 193.25000000000003 0.35500000000000004 0.20500000000000004 0.28500000000000009 0.14050000000000004
decision_type=2 2 2 2 2 2 2 2 2 2 2 2 2 2 2 2 2 2 2 2 2 2 2 2 2 2 2 2 2 2
left_child=11 2 4 8 5 6 21 -5 -4 -8 -6 -1 -13 14 -3 27 -14 -18 -10 20 -9 -2 28 -17 -25 -20 -16 -11 29 -23
right_child=1 13 3 7 10 -7 9 19 18 15 -12 12 16 -15 26 23 17 -19 25 -21 -22 22 -24 24 -26 -27 -28 -29 -30 -31
leaf_value=0.046882495050975859 -0.035575255356755819 0.025854446700872415 -0.033155026999486144 -0.01619585074356172 -0.031260943080700515 0.011478961014277898 -0.0060198930419904382 0.031340215413892945 -0.022623287475433643 0.042841017429293977 -0.0068706862501173556 0.028863550764457093 0.063134602449875302 0.024284161128736464 -0.02279224384905543 -0.0014537873557630356 0.010171368796362044 0.021168953777737271 -0.0082726620211305939 0.00076271508743379693 -0.016844813557804064 0.0062282329087253738 -0.008300695945913773 0.023020811729637523 0.0039212880185582662 -0.04168879763801249 0.0075090051084658362 0.011909930809648197 -0.0040460256854601339 0.045913884941751804
leaf_weight=76.538662672042847 46.503690406680107 202.10548162460327 594.5931176841259 779.22304317355156 275.01553665101528 1224.7515482604504 1288.1092772483826 19.287412598729134 1040.3153814971447 40.838448047637939 236.51662783324718 478.79918795824051 23.639912679791451 657.64374950528145 42.902240231633186 1465.2734118700027 981.79425136744976 785.13365821540356 496.42796297371387 997.86172521114349 242.92196524143219 132.4800486266613 1794.818895637989 121.74018277227879 2412.6860793530941 34.125550448894501 407.39590951800346 311.9394666403532 324.9161149263382 30.500272735953331
leaf_count=365 228 955 3000 3859 1388 5894 6273 95 5232 196 1157 2252 111 3106 213 7118 4682 3744 2449 4876 1197 644 8791 589 11679 169 1974 1499 1580 148
internal_value=3.97136e-05 -0.00294396 -0.0048945 -0.0152506 -0.000408145 0.000680923 -0.000978454 -0.00752545 -0.0225257 0.00139057 -0.0199836 0.0193986 0.0184717 0.017768 0.0111995 0.00358369 0.0156929 0.0150581 -0.0185024 -0.0021637 -0.0133005 -0.00671545 -0.00612751 0.00253349 0.00483873 -0.010422 0.00462205 0.0154906 0.00186696 0.013655
internal_weight=17566.8 15220.9 13910.8 4204.76 9706.09 9194.56 7969.81 2039.29 2165.46 5640.59 511.532 2345.91 2269.37 1310.05 652.404 4352.48 1790.57 1766.93 1570.87 1260.07 262.209 2329.22 2282.72 3999.7 2534.43 530.554 450.298 352.778 487.896 162.98
internal_count=85463 74309 68061 20877 47184 44639 38745 10027 10850 27354 2545 11154 10789 6248 3142 21081 8537 8426 7850 6168 1292 11391 11163 19386 12268 2618 2187 1695 2372 792
is_linear=0
shrinkage=0.05


Tree=4
num_leaves=31
num_cat=0
split_feature=1 5 0 5 5 9 9 2 4 3 3 9 5 5 1 0 8 5 5 4 9 3 0 3 2 2 2 1 9 2
split_gain=293.366 181.739 118.522 102.713 122.74 72.5575 44.748 34.3331 31.9151 30.3886 29.2938 28.3341 25.7456 25.4407 24.1108 23.4267 20.2197 18.2793 16.7109 15.156 14.4182 13.9224 13.7984 13.0453 12.647 12.2858 11.8728 11.5697 11.0159 10.7829
threshold=-2.1499999999999999 0.18188325442574096 99.450000000000017 0.20245192023060635 -0.21978021978021342 72.65000000000002 70.250000000000014 -124.14999999999999 0.43500000000000005 0.23500000000000001 0.25500000000000006 67.65000000000002 0.63688213503233515 -0.62698678228307314 -24.849999999999998 44.500000000000007 1.0000000180025095e-35 1.0000000180025095e-35 0.59783047763563035 0.13500000000000004 60.650000000000013 0.76500000000000012 62.400000000000006 0.6150000000000001 15.350000000000003 24.450000000000003 434.05000000000001 -17.149999999999995 61.650000000000013 24.750000000000004
decision_type=2 2 2 2 2 2 2 2 2 2 2 2 2 2 2 2 2 2 2 2 2 2 2 2 2 2 2 2 2 2
left_child=2 5 3 4 7 10 16 -1 21 -7 -2 -4 26 -9 17 20 19 -8 22 28 -15 -3 -5 27 -19 -13 -10 -21 -6 -29
right_child=1 8 11 18 6 9 14 13 12 -11 -12 25 -14 15 -16 -17 -18 24 -20 23 -22 -23 -24 -25 -26 -27 -28 29 -30 -31
leaf_value=0.022351692373112284 -0.029964658854486334 -0.0078549852807014865 -0.031008062132733268 0.02010176817314965 0.0069208387189965736 -0.016528153959632336 0.0015441641530520797 0.0225397636264031 0.0038605675406862615 -0.003734292645840737 -0.016980409705678948 -0.0022304207802360571 0.022654101729989481 -0.0054458143973825871 0.035377086368170184 0.024631006291644254 -0.0097300264196611991 0.012847186367299389 0.026313912400330122 -0.0013928381099609717 0.0073340800240333367 -0.046155472046333676 0.008519382572884631 -0.015011242425059541 0.0028792006504498755 -0.03253266510790892 0.049619604099993192 0.084795445291939317 0.041360358422537755 0.01093866257622572
leaf_weight=769.44043496251106 865.59207190573215 176.45533642172813 262.62785103917122 513.37577164173126 83.207525581121445 820.59098644554615 2958.4678579866886 292.40461917221546 909.53567101061344 1068.4928767681122 871.99798928201199 201.05977067351341 250.21364408731461 318.30832897126675 61.001828998327255 148.76162318885326 905.97090458869934 755.29977455735207 402.83205035328865 2825.7101939022541 719.68428106606007 27.413308590650558 515.19453385472298 179.29702979326248 549.86742728948593 40.125309675931931 14.400021985173224 7.2348946928977993 32.20643550157547 15.592662230134009
leaf_count=3615 4431 873 1345 2427 403 4096 14311 1370 4397 5253 4409 988 1170 1535 292 708 4462 3635 1883 13781 3450 135 2453 880 2638 197 68 33 152 73
internal_value=3.51977e-05 -0.0102012 0.0041148 0.00510788 0.00341359 -0.0160745 0.00062847 0.0137854 0.00525602 -0.00929176 -0.0234486 -0.019645 0.00842671 0.00932939 0.00416522 0.00607449 -0.00314884 0.00371866 0.0176813 -0.00125197 0.00341503 -0.0130051 0.0143003 -0.00192982 0.00864767 -0.00727172 0.00457375 -0.00110643 0.0165312 0.0343466
internal_weight=17562.4 5004.69 12557.7 12053.9 10622.5 3626.67 8373.86 2248.6 1378.02 1889.08 1737.59 503.813 1174.15 1479.16 4324.64 1186.75 4049.22 4263.64 1431.4 3143.25 1037.99 203.869 1028.57 3027.83 1305.17 241.185 923.936 2848.54 115.414 22.8276
internal_count=85463 24832 60631 58101 51338 18189 40660 10678 6643 9349 8840 2530 5635 7063 20876 5693 19784 20584 6763 15322 4985 1008 4880 14767 6273 1185 4465 13887 555 106
is_linear=0
shrinkage=0.05


Tree=5
num_leaves=31
num_cat=0
split_feature=1 5 0 5 5 3 16 4 9 9 9 2 9 16 5 0 1 5 4 16 16 0 2 0 2 0 2 9 4 9
split_gain=258.619 177.865 126.047 91.3244 95.9853 67.3895 42.3532 39.4953 36.4311 35.3627 27.0421 25.3337 24.1085 21.7748 20.7081 20.0619 19.9775 17.6854 16.3779 16.0572 15.5619 15.441 17.2972 16.4136 14.892 14.5542 14.1149 14.0331 22.1707 23.7726
threshold=-1.8499999999999999 0.21711631801680789 99.450000000000017 0.13304005396743704 -0.17827960577719845 0.23500000000000001 -0.64049999999999996 0.38500000000000006 74.450000000000017 72.850000000000009 61.45000000000001 -144.44999999999996 80.450000000000017 -0.21749999999999997 0.59783047763563035 61.95000000000001 -57.399999999999999 0.56463585513358849 1.0150000000000003 -0.055499999999999994 -0.68149999999999988 49.150000000000013 51.350000000000001 66.550000000000026 16.850000000000005 60.95000000000001 78.15000000000002 84.050000000000011 1.3350000000000002 94.950000000000017
decision_type=2 2 2 2 2 2 2 2 2 2 2 2 2 2 2 2 2 2 2 2 2 2 2 2 2 2 2 2 2 2
left_child=2 5 3 4 6 10 -1 26 21 16 -2 -8 24 -11 15 -5 -6 -9 -15 -14 -18 -7 -23 -24 -4 -12 -3 -20 29 -29
right_child=1 7 12 14 9 8 11 17 -10 13 25 -13 19 18 -16 -17 20 -19 27 -21 -22 22 23 -25 -26 -27 -28 28 -30 -31
leaf_value=0.02915809884286227 -0.033065975851003716 -0.04819060502563717 -0.023009571102299328 0.016430901960724994 -0.00090449416995261778 0.011889171592894703 0.018135618156841161 0.0061183961821213301 -0.0029028827240976181 -0.0079455799940179508 -0.020072376429955685 0.0058239287181507835 -0.031262779170519207 0.01044214921890612 0.024292187378799405 0.0049333488643247487 0.047768734309823258 0.020396232556816093 -0.0053390138832936961 0.0084108666171714749 -0.0087258707173685623 -0.02781601336563368 -0.0064968572903604978 -0.02148806096060854 -0.049528863031622343 0.0051197552246449191 -0.0095974103821906895 0.0086831161011168001 0.00076999941979858798 0.039066806761022393
leaf_weight=271.88557875156403 458.89405004680157 30.722117945551872 309.01225742697716 917.70426288247108 2407.4162053763866 47.687520459294319 527.91810028254986 723.478978484869 1085.207908064127 384.08579923212528 1158.746281966567 2003.7593948692083 35.096378087997437 877.78365963697433 410.74484987556934 646.81213484704494 12.2905415892601 309.73897439241409 466.4265498071909 93.3102997392416 1483.7671964913607 279.46566396951675 407.66343684494495 330.70627281069756 63.882341265678406 60.316564619541168 103.52965123951435 403.76252754032612 1170.0852807313204 76.589665189385414
leaf_count=1267 2383 153 1584 4355 11747 240 2472 3479 5336 1866 5890 9565 173 4224 1901 3081 60 1442 2252 459 7277 1427 2066 1678 326 305 514 1946 5646 366
internal_value=-0.000378605 -0.0100008 0.00344823 0.00446931 0.00254387 -0.0152103 0.0104052 0.00708361 -0.00935108 -0.000482635 -0.0227203 0.00839122 -0.0211183 0.00326244 0.0143007 0.0116775 -0.00372426 0.0103986 0.00469995 -0.00243282 -0.00826175 -0.0159184 -0.0172212 -0.0132112 -0.0275527 -0.0188259 -0.0184291 0.00231887 0.00448305 0.0135276
internal_weight=17558.5 4996.16 12562.3 12061 10085.8 3828.69 2803.56 1167.47 2150.73 7282.21 1677.96 2531.68 501.301 3378.73 1975.26 1564.52 3903.47 1033.22 2994.65 128.407 1496.06 1065.52 1017.84 738.37 372.895 1219.06 134.252 2116.86 1650.44 480.352
internal_count=85480 24913 60567 58025 48688 19325 13304 5588 10747 35384 8578 12037 2542 16300 9337 7436 19084 4921 14434 632 7337 5411 5171 3744 1910 6195 667 10210 7958 2312
is_linear=0
shrinkage=0.05


Tree=6
num_leaves=31
num_cat=0
split_feature=6 5 1 6 1 9 0 6 9 3 6 0 4 9 3 6 5 0 5 6 3 9 5 5 2 0 3 0 2 3
split_gain=328.986 279.316 120.947 53.9121 58.1671 53.1705 49.7203 40.6153 32.6198 30.7942 30.0587 27.3212 23.976 23.5024 20.3401 19.0466 18.6753 15.0395 18.3526 14.5846 19.7597 20.4473 14.0929 13.6501 13.5563 13.0605 13.228 12.7044 12.057 11.9187
threshold=-0.18511706346094334 0.13619307045538157 -5.7999999999999998 0.74225978475910293 -5.7999999999999998 72.450000000000017 99.450000000000017 -0.32366657525873527 67.65000000000002 0.25500000000000006 0.22233735702894555 39.550000000000004 0.40500000000000008 51.050000000000004 0.25500000000000006 0.29614453353540299 1.0000000180025095e-35 53.000000000000007 -1.0000000180025095e-35 -0.77713069344733088 0.39500000000000007 55.750000000000007 -0.020840931646215474 -0.098328416912490932 -30.249999999999996 49.150000000000013 0.30500000000000005 89.350000000000009 51.350000000000001 0.115
decision_type=2 2 2 2 2 2 2 2 2 2 2 2 2 2 2 2 2 2 2 2 2 2 2 2 2 2 2 2 2 2
left_child=7 2 6 4 24 14 8 9 15 23 28 22 -6 -8 -4 -2 17 18 -10 -11 21 -21 -9 -1 -3 -16 -27 -26 -7 -13
right_child=1 3 5 -5 12 10 13 11 16 19 -12 29 -14 -15 25 -17 -18 -19 -20 20 -22 -23 -24 -25 27 26 -28 -29 -30 -31
leaf_value=0.02909663810181597 -0.0079606919076231786 0.048471500780050164 -0.028363712740762295 0.021061664249216388 -0.018537395681791028 -0.019035653168208738 -0.042567689510003899 7.1684676763833247e-05 -0.0018638137438025532 0.02363639446995815 0.0038086021097008776 0.059167907438948911 0.00029273722405991976 -0.014551193955459854 0.01063047657089309 0.024714002456772542 0.0051235412641821741 0.013144282838373315 -0.014861564341558185 -0.00083118004790553668 0.0094081177565221562 0.027342147987245949 0.038368070086815365 0.063303826058292725 0.011311989221185106 -0.00023809365536688919 -0.021110217132803186 -0.055330068870165831 -0.0093898623912711046 0.012956298951337208
leaf_weight=78.49900409579277 2722.7701427340508 24.523250758647919 807.41955669224262 649.28996454179287 197.61323963105679 541.73385207355022 92.271953523159027 859.67257988452911 2178.7564597129822 481.85070396959782 318.6560470610857 14.193198725581167 1169.4540469050407 396.58471389114857 40.842558607459068 45.34267570078373 1123.8572300821543 143.83957158029079 310.25625437498093 78.479507178068161 932.14995633065701 359.03188435733318 24.713479042053223 46.40278097987175 1586.4577452242374 86.894647538661957 600.51345820724964 7.1838786005973807 805.94292859733105 824.50253637135029
leaf_count=369 13408 116 4249 2998 1006 2730 488 4139 10562 2213 1564 68 5708 2016 205 217 5398 696 1506 373 4374 1686 119 217 7490 445 3094 36 4040 3950
internal_value=-0.000361926 -0.0039 -0.00813526 0.00800419 0.00516419 -0.0161871 -0.00445929 0.0128839 -0.00330698 0.0177756 -0.0100018 0.00727308 -0.00242921 -0.0198393 -0.0228987 -0.00742547 -0.000272284 -0.00257554 -0.00348399 0.0161546 0.0135225 0.0222885 0.00114185 0.0418051 0.0115793 -0.0168396 -0.0184718 0.0110116 -0.0132672 0.0137383
internal_weight=17549.7 13850.2 10215.7 3634.52 2985.23 3202 7013.68 3699.5 6524.82 1976.41 1666.33 1723.08 1367.07 488.857 1535.67 2768.11 3756.71 2632.85 2489.01 1851.51 1369.66 437.511 884.386 124.902 1618.16 728.251 687.408 1593.64 1347.68 838.696
internal_count=85480 67972 50618 17354 14356 16327 34291 17508 31787 9232 8334 8276 6714 2504 7993 13625 18162 12764 12068 8646 6433 2059 4258 586 7642 3744 3539 7526 6770 4018
is_linear=0
shrinkage=0.05


Tree=7
num_leaves=31
num_cat=0
split_feature=6 5 6 3 6 1 9 3 6 3 16 9 5 4 9 2 6 5 6 6 5 3 2 9 16 0 6 5 5 1
split_gain=297.044 239.386 127.373 83.2649 47.2774 53.8185 41.3987 40.8425 31.0598 30.0256 30.4743 25.2304 23.8157 21.8574 20.5554 19.3538 21.994 22.2002 18.7806 16.892 15.7758 15.6521 16.4941 16.0768 14.503 14.229 13.8529 12.4611 12.0405 11.9691
threshold=-0.22120764112880661 0.13619307045538157 -1.0000000180025095e-35 0.23500000000000001 0.74225978475910293 -5.7999999999999998 72.450000000000017 0.45500000000000007 0.10401691903347833 0.20500000000000004 -0.64049999999999996 61.850000000000001 1.0000000180025095e-35 0.40500000000000008 65.250000000000014 -42.849999999999987 -0.13315579227696769 -0.040762254575960048 -0.10975866345699357 -0.32366657525873527 -0.14148996802287869 0.39500000000000007 -266.2999999999999 55.550000000000004 -0.21749999999999997 55.050000000000004 -0.11548053459462525 0.59783047763563035 0.0550178835983628 -22.499999999999996
decision_type=2 2 2 2 2 2 2 2 2 2 2 2 2 2 2 2 2 2 2 2 2 2 2 2 2 2 2 2 2 2
left_child=9 2 12 6 5 25 28 11 -9 20 -11 -5 14 -7 -2 16 17 -16 26 21 -1 23 -23 -12 -18 -3 -14 -27 -4 -8
right_child=1 4 3 7 -6 13 29 8 -10 10 19 -13 18 -15 15 -17 24 -19 -20 -21 -22 22 -24 -25 -26 27 -28 -29 -30 -31
leaf_value=0.0058086234500303842 -0.0078385323550050779 0.020495104146371405 -0.028020564158678693 -0.011497768625367973 0.019853279721933171 -0.017767367006887132 -0.0052243151226134491 -0.021601919596546205 -0.0041817985661616345 0.028343797999020221 0.0018611524185240915 0.00027772363687145424 0.01352885491105069 0.00027806494919519885 -0.00041403845873135914 0.0068829070892192801 -0.022820391568412274 0.021667084996383808 0.0014727207415594122 0.0056955149778319713 0.04327501067937848 0.03981850876477859 0.0093280533466958051 0.024646550514352605 -0.0054285961179112632 0.0068822708086700053 0.054333659538694845 0.021092945899421879 -0.01581387016137091 -0.01605447118635998
leaf_weight=36.374702274799347 1446.3803779929876 325.00199820101261 1008.1038010567427 642.68326994776726 654.23737852275372 195.91309590637684 382.0821081250906 675.97418884932995 411.73686704039574 275.26691147685051 93.076574310660362 1556.7537639588118 238.67546428740025 1169.5990838706493 706.13068845868111 674.87665025889874 136.81104017794132 135.70533566176891 731.72467814385891 992.33942760527134 123.45203818380833 46.228192657232285 1094.531994625926 460.08374118804932 968.01766067743301 1136.3376112431288 22.785398244857788 178.49691772460938 252.64602687954903 767.70182244479656
leaf_count=170 7153 1526 5306 3228 2998 1006 1869 3383 2050 1259 441 7644 1149 5708 3424 3293 671 659 3553 4736 577 212 5096 2135 4704 5363 110 820 1321 3916
internal_value=-0.000346157 -0.00337364 -0.00713111 -0.0122586 0.00767291 0.00502136 -0.0193169 -0.0070825 -0.0150078 0.0136386 0.0124994 -0.00316312 -0.00135876 -0.00231095 -0.00305352 -0.000413486 -0.00294303 0.00314547 0.00558269 0.0108758 0.0347481 0.0139105 0.0105636 0.0208126 -0.00758222 0.0111271 0.0170849 0.00881146 -0.0255744 -0.0124555
internal_weight=17539.7 14418.4 10758.8 5697.68 3659.59 3005.35 2410.53 3287.15 1087.71 3121.35 2961.53 2199.44 5061.11 1365.51 4067.92 2621.54 1946.66 841.836 993.186 2686.26 159.827 1693.92 1140.76 553.16 1104.83 1639.84 261.461 1314.83 1260.75 1149.78
internal_count=85480 70854 53433 28717 17421 14423 12412 16305 5433 14626 13879 10872 24716 6714 19904 12751 9458 4083 4812 12620 747 7884 5308 2576 5375 7709 1259 6183 6627 5785
is_linear=0
shrinkage=0.05


Tree=8
num_leaves=31
num_cat=0
split_feature=1 2 0 3 16 9 9 9 9 16 8 0 2 1 16 16 2 2 16 1 0 9 4 16 4 16 2 4 7 4
split_gain=196.354 132.259 95.7539 59.0561 47.3102 43.9686 43.7592 22.1918 20.801 20.109 19.8424 16.3539 16.9867 15.9138 16.7513 14.799 14.6201 14.3944 14.189 17.2396 20.4551 12.566 12.4492 12.8159 15.1365 11.3048 10.8385 10.7863 10.4961 11.8659
threshold=-1.8499999999999999 74.15000000000002 99.450000000000017 0.19500000000000003 -0.74949999999999994 69.050000000000011 72.850000000000009 61.45000000000001 80.450000000000017 3.4230000000000005 1.0000000180025095e-35 50.250000000000007 -135.74999999999997 -19.099999999999998 -0.29649999999999993 -0.055499999999999994 16.850000000000005 55.550000000000004 0.13750000000000004 -52.099999999999994 50.250000000000007 51.050000000000004 2.1850000000000005 -0.24949999999999997 0.42500000000000004 -0.28049999999999997 216.80000000000004 0.40500000000000008 1.0000000180025095e-35 0.52500000000000013
decision_type=2 2 2 2 2 2 2 2 2 2 2 2 2 2 2 2 2 2 2 2 2 2 2 2 2 2 2 2 2 2
left_child=2 7 4 -3 28 26 13 -2 16 11 -9 12 -8 18 -15 -10 21 -12 19 27 -21 -4 23 25 -25 -14 -5 -6 29 -1
right_child=1 3 8 5 6 -7 9 10 15 -11 17 -13 22 14 -16 -17 -18 -19 -20 20 -22 -23 -24 24 -26 -27 -28 -29 -30 -31
leaf_value=0.042098392581583793 -0.026806511401111666 -0.023763321497160345 -0.03741846263993253 -0.008119264669128292 0.0058612764045911552 0.0045354542524010041 0.010416775147091238 -0.003013021820858254 -0.029423449252081818 0.066740608671960064 -0.02297965758981306 0.011279500151917164 -0.00073323989258188612 0.080529800950936953 0.011102167725108919 0.0090007687959475658 -0.047159262691991839 -0.011496643672441267 0.0044484866554805732 -0.010331743308164559 0.00092974232099203753 -0.014183031456261173 -0.0069858210117046474 0.038913405636574493 0.0048839649486219043 -0.024166185941594046 -0.035341165137561525 -0.00092786829451714688 -0.0049772262075587215 0.019489172765053381
leaf_weight=80.153555005788803 598.29083845019341 283.28019517660141 79.12980429828167 779.46879312396049 802.97888745367527 1841.6228211969137 1051.5301567018032 266.13572472333908 34.319612115621567 13.83088782429695 655.31514029204845 1305.5296975374222 323.79065579175949 9.0978451669216138 192.90473514795303 92.866588354110718 61.176901042461395 467.68350869417191 1358.9487345218658 934.35329116880894 709.35622458159924 219.87366253137589 279.3001700937748 33.100562915205956 2559.3650254607201 61.197455927729607 38.365165412425995 2155.4410681277514 30.779435724020004 210.2712327092886
leaf_count=371 3188 1484 433 3938 3886 8929 4940 1370 173 63 3400 6116 1550 42 894 459 326 2406 6552 4606 3423 1151 1350 154 12266 296 198 10410 139 967
internal_value=-0.00033108 -0.00879065 0.00297919 -0.00206055 0.00385356 0.000251184 0.00333778 -0.0187558 -0.0187505 0.00652543 -0.0152884 0.00637708 0.0048915 0.000427077 0.0142291 -0.00136753 -0.0248888 -0.0181974 -4.063e-05 -0.00136621 -0.00547176 -0.0203322 0.00310752 0.00405433 0.00531845 -0.00445813 -0.00939626 0.000914852 0.0227866 0.025729
internal_weight=17529.5 4930.16 12599.3 2942.74 12111.9 2659.46 11790.7 1987.43 487.367 5627.64 1389.13 5613.81 4308.28 6163.08 202.003 127.186 360.18 1123 5961.08 4602.13 1643.71 299.003 3256.75 2977.45 2592.47 384.988 817.834 2958.42 321.204 290.425
internal_count=85480 24913 60567 14549 58025 13065 56548 10364 2542 26735 7176 26672 20556 29813 936 632 1910 5806 28877 22325 8029 1584 15616 14266 12420 1846 4136 14296 1477 1338
is_linear=0
shrinkage=0.05


Tree=9
num_leaves=31
num_cat=0
split_feature=1 2 0 3 9 9 1 16 9 9 8 16 2 4 16 0 2 16 2 2 16 9 16 16 2 9 8 4 0 1
split_gain=177.825 121.154 87.0167 53.9984 43.1673 39.7757 28.5335 29.7423 20.6921 19.2147 18.2347 16.3677 14.7236 15.538 14.6328 14.1053 13.8472 13.4983 13.3506 13.3396 12.0954 11.8019 11.454 11.4529 13.5709 11.2502 10.8257 14.8846 10.7679 16.2035
threshold=-1.8499999999999999 74.15000000000002 99.450000000000017 0.19500000000000003 61.650000000000013 69.050000000000011 -19.099999999999998 -0.74949999999999994 61.45000000000001 80.450000000000017 1.0000000180025095e-35 3.4230000000000005 -135.74999999999997 0.17500000000000002 -0.68149999999999988 50.250000000000007 16.850000000000005 -0.055499999999999994 -57.449999999999996 55.550000000000004 0.70250000000000001 51.050000000000004 0.83200000000000007 -0.17549999999999996 -69.34999999999998 48.650000000000013 1.0000000180025095e-35 0.6150000000000001 53.000000000000007 -61.349999999999994
decision_type=2 2 2 2 2 2 2 2 2 2 2 2 2 2 2 2 2 2 2 2 2 2 2 2 2 2 2 2 2 2
left_child=2 8 4 -3 14 -5 7 18 -2 16 -10 12 13 -9 25 23 21 -11 -6 -12 26 -4 -22 24 -14 -1 28 -28 29 -16
right_child=1 3 9 5 6 -7 -8 11 10 17 19 -13 15 -15 20 -17 -18 -19 -20 -21 22 -23 -24 -25 -26 -27 27 -29 -30 -31
leaf_value=0.085726508148269751 -0.025821232515891426 -0.022846214965614176 -0.03627180857731814 -0.0089664238979364312 0.026714862913672935 0.004300374575532508 0.018801565666964899 0.085906065484667879 -0.0028665454331343325 -0.028343325801655547 -0.022080216120567861 0.066367679642434979 0.0030584621111765754 0.0087761034751143094 0.00078682332651026823 0.0072327088741333022 -0.045913364611883833 0.0085164497853919691 0.0012059242645731823 -0.010982833074137961 0.067145507062977908 -0.013569708926561253 0.0078738838779111968 0.0031962803730874339 -0.0084013991172913419 0.016496568499320144 -0.010640188609379589 0.0096222334130283294 0.0066941913639847715 -0.0090058978082425307
leaf_weight=6.9745979458093634 590.27212557196617 280.00432309508324 77.589439570903778 814.31637951731682 218.87564204633236 1845.0883954018354 385.28557501733303 6.5633529871702185 265.75809855759144 33.858065754175186 648.09665486216545 10.617252379655836 514.22332781553268 1270.9503310769796 1557.4074056297541 1724.3280393183231 59.732170268893242 93.230764299631119 66.992361128330231 465.15132531523705 11.913463950157164 218.36043246090412 25.807762041687965 4064.4678473770618 519.15319664776325 36.995952129364014 578.46543225646019 107.47400350868702 443.22544923424721 579.63334189355373
leaf_count=33 3188 1484 433 4136 988 8929 1765 30 1370 173 3400 48 2447 5957 7536 8133 326 459 313 2406 57 1151 123 19533 2526 173 2853 529 2124 2857
internal_value=-0.000316226 -0.00839046 0.0028263 -0.00196093 0.00365487 0.000238048 0.00549662 0.00488608 -0.0179874 -0.0179911 -0.0146342 0.00432738 0.00424605 0.00917237 -0.00117601 0.00332355 -0.0239537 -0.00130346 0.0207369 -0.0174434 -0.00155735 -0.0195215 0.0265936 0.0020013 -0.0026988 0.0274778 -0.00188247 -0.00746544 -0.000398284 -0.00186927
internal_weight=17520.8 4908.69 12612.1 2939.41 12129.4 2659.4 8781.46 8396.17 1969.28 482.771 1379.01 8110.3 8099.69 1277.51 3347.9 6822.17 355.682 127.089 285.868 1113.25 3303.93 295.95 37.7212 5097.84 1033.38 43.9706 3266.21 685.939 2580.27 2137.04
internal_count=85480 24913 60567 14549 58025 13065 41740 39975 10364 2542 7176 38674 38626 5987 16285 32639 1910 632 1301 5806 16079 1584 180 24506 4973 206 15899 3382 12517 10393
is_linear=0
shrinkage=0.05


Tree=10
num_leaves=31
num_cat=0
split_feature=1 5 0 5 5 9 9 2 16 9 4 5 2 5 2 4 0 2 2 16 8 2 2 8 16 16 5 0 9 16
split_gain=155.421 98.7378 76.0758 64.7741 77.1546 43.9885 29.824 29.3293 26.8555 22.3272 17.6742 16.8478 18.1878 16.2609 16.0917 14.9046 14.7411 14.1241 13.9055 12.8481 12.5196 21.4105 12.3881 12.2237 17.6962 12.0853 11.8 16.3122 12.3243 10.7907
threshold=-1.8499999999999999 0.21711631801680789 99.450000000000017 0.20245192023060635 -0.21978021978021342 74.250000000000014 70.250000000000014 -124.14999999999999 -0.10149999999999999 72.050000000000011 0.51500000000000012 0.12677618755990719 -11.649999999999997 -0.58362954950444956 51.350000000000001 1.6850000000000003 44.500000000000007 -224.44999999999996 76.550000000000011 0.70250000000000001 1.0000000180025095e-35 50.550000000000004 10.450000000000001 1.0000000180025095e-35 0.05050000000000001 0.10350000000000001 0.44224026678862943 61.550000000000004 49.050000000000004 -0.055499999999999994
decision_type=2 2 2 2 2 2 2 2 2 2 2 2 2 2 2 2 2 2 2 2 2 2 2 2 2 2 2 2 2 2
left_child=2 5 3 4 7 20 19 25 15 -4 18 17 -13 -9 23 -8 -15 -10 -3 -6 -2 -22 29 24 -7 -1 27 -5 -28 -11
right_child=1 10 9 26 6 14 8 13 11 22 -12 12 -14 16 -16 -17 -18 -19 -20 -21 21 -23 -24 -25 -26 -27 28 -29 -30 -31
leaf_value=0.020660693433880096 -0.0083929877560487802 -0.036800133609861709 -0.025828103233620558 0.016138516533885965 -0.003364453916930161 -0.014338545332482506 -0.00035137556918692363 0.015920317194731491 0.023106967513143711 -0.020126881634780339 0.0079035943294281825 0.049255971234686488 0.011982630742534044 0.0012898401537197223 -0.0033109289395692031 -0.013442248456916753 0.01829569913099038 0.0036478633032154132 -0.0023572818324124325 0.021453239398501599 -0.028923540639729933 -0.015478250841361639 -0.033167567864518917 -0.017907571841622109 0.02702607105133439 0.0032360568520072457 0.065553045516204805 0.0021440938852576425 0.017557841457462118 0.0093587100544586365
leaf_weight=682.97933435440063 336.77590906620026 34.997032105922699 280.54006440937519 442.14046368002892 4002.6793789416552 70.395492821931839 920.87854421138763 336.87089993059635 96.419752076268196 41.804814726114273 954.76246246695518 39.187307089567184 198.56700858473778 1009.7104318737984 1330.3893755972385 284.63916675746441 145.83590593934059 2837.5567958801985 180.14828288555145 52.83859857916832 403.17301796376705 1114.8259058892727 30.101235821843147 395.03873337805271 40.866163492202759 116.48241567611694 13.669948697090147 393.59878747165203 620.71528112888336 120.3793022185564
leaf_count=3111 1790 180 1544 2036 19641 359 4438 1540 453 215 4498 181 926 4800 6650 1377 682 13567 892 253 2206 5925 155 2064 208 532 63 1842 2815 596
internal_value=-7.14186e-05 -0.00767144 0.0028452 0.00360817 0.00225899 -0.011683 4.80881e-05 0.0103938 0.00291023 -0.0168329 0.00498629 0.00532471 0.0181261 0.00625403 -0.00619807 -0.00344231 0.00343607 0.00428735 -0.00796 -0.00304111 -0.0171144 -0.0190493 -0.00370902 -0.0137845 0.000854588 0.0181219 0.0134505 0.00954772 0.0185921 0.00175846
internal_weight=17529 4861.37 12667.6 12194.8 10724.6 3691.46 8432.77 2291.88 4377.25 472.825 1169.91 3171.73 237.754 1492.42 1836.69 1205.52 1155.55 2933.98 215.145 4055.52 1854.77 1518 192.285 506.3 111.262 799.462 1470.12 835.739 634.385 162.184
internal_count=85539 24772 60767 58257 51501 19202 40836 10665 20942 2510 5570 15127 1107 7022 9281 5815 5482 14020 1072 19894 9921 8131 966 2631 567 3643 6756 3878 2878 811
is_linear=0
shrinkage=0.05


Tree=11
num_leaves=31
num_cat=0
split_feature=6 5 1 9 5 0 9 0 3 6 6 3 0 6 4 4 4 8 5 3 5 6 1 6 5 3 9 6 0 1
split_gain=231.862 167.081 73.9965 40.7946 37.924 37.7862 32.3881 35.2358 27.8744 32.0121 19.1455 16.5411 16.5041 16.1008 15.9178 15.62 15.4361 15.4101 14.969 14.222 13.8537 20.9051 15.5475 13.69 12.8368 12.5747 12.2453 12.1121 16.4976 12.9259
threshold=-0.22120764112880661 0.13619307045538157 -1.0000000180025095e-35 72.65000000000002 0.38805314249094064 62.400000000000006 69.850000000000009 64.350000000000009 0.20500000000000004 -0.37989755313519996 0.22814643148777461 0.23500000000000001 47.150000000000013 0.30322787797940626 0.19500000000000003 0.50500000000000012 1.8350000000000002 1.0000000180025095e-35 -0.074499990557458359 0.36500000000000005 1.0000000180025095e-35 -0.10975866345699357 -27.649999999999995 0.35469293893950488 1.0000000180025095e-35 0.085000000000000006 78.050000000000011 -0.13315579227696769 45.850000000000001 -89.84999999999998
decision_type=2 2 2 2 2 2 2 2 2 2 2 2 2 2 2 2 2 2 2 2 2 2 2 2 2 2 2 2 2 2
left_child=8 2 6 11 5 17 7 13 18 16 -5 -4 -6 20 -14 -7 -10 -3 -1 -11 22 -22 -2 -13 27 -26 -19 28 -8 -29
right_child=1 4 3 10 12 15 24 -9 9 19 -12 23 14 -15 -16 -17 -18 26 -20 -21 21 -23 -24 -25 25 -27 -28 29 -30 -31
leaf_value=0.016888739863035362 -0.0084272274068702829 0.015790067209217159 -0.023827364174577162 -0.0096703412242262962 0.082289855503548739 -0.013002188226015808 0.00055544566280756817 -0.022786707920092474 0.014238069296804566 0.011706640885543042 0.0041868510236813686 -0.01495303060834343 -0.014913937014077526 0.023630355969508552 0.013917677297994585 -4.0593903405405648e-05 0.03015260000174988 -0.0017281201331214701 0.047145050282350498 0.0015515925763684929 0.019258043924451143 -0.0033420980604948291 0.017831590902980036 0.013395928275267345 -0.030834380585555422 0.0052493771519154598 0.014129484846961114 -0.0087237523472493469 0.021963422147783535 -0.0007607786496575111
leaf_weight=80.528259173035622 2212.6431869715452 521.84101849794388 739.68490152060986 1335.4888412207365 8.6035879999399167 302.06463526189327 660.91493190824986 312.38509984314442 1412.7636342644691 577.20470343530178 306.46167455613613 657.98734286427498 49.786807745695114 47.687442377209663 1245.0137112289667 1008.3633974343538 170.78581850230694 353.29270827770233 83.025996416807175 856.1999085098505 116.64364522695541 833.37137217819691 57.843762427568436 45.533147186040878 24.704180404543877 1065.2148113846779 185.74544627964497 833.91841244697571 104.17845150828362 1310.4955906569958
leaf_count=373 10973 2426 4121 6874 39 1505 3183 1713 6464 2717 1507 3510 237 226 5702 4849 767 1732 380 4035 563 4130 283 235 130 5069 887 4047 499 6363
internal_value=-6.9291e-05 -0.00277817 -0.0059462 -0.0124743 0.00641645 0.00265062 -0.00328917 -0.0067434 0.0121441 0.0110543 -0.00708397 -0.018607 0.0132677 -0.00520992 0.0128091 -0.00302835 0.0159545 0.00966544 0.0322479 0.00564084 -0.00563697 -0.000567234 -0.00775825 -0.0131182 -0.000196703 0.0044315 0.0037362 -0.00193046 0.00347045 -0.00385742
internal_weight=17520.4 14339.9 10665.2 3085.16 3674.71 2371.31 7580 3580.57 3180.51 3016.95 1641.95 1443.21 1303.4 3268.19 1294.8 1310.43 1583.55 1060.88 163.554 1433.4 3220.5 950.015 2270.49 703.52 3999.43 1089.92 539.038 2909.51 765.093 2144.41
internal_count=85539 70803 53426 16247 17377 11399 37179 17888 14736 13983 8381 7866 5978 16175 5939 6354 7231 5045 753 6752 15949 4693 11256 3745 19291 5199 2619 14092 3682 10410
is_linear=0
shrinkage=0.05


Tree=12
num_leaves=31
num_cat=0
split_feature=1 5 3 5 5 3 9 2 9 9 9 5 5 2 4 3 9 5 0 2 3 5 2 5 4 3 2 5 2 1
split_gain=128.937 81.2239 64.6196 53.8644 62.5787 41.0244 24.185 24.1829 21.5476 21.2521 19.2624 17.1641 15.302 15.0501 14.9411 17.399 13.6232 13.2294 12.8802 12.7744 11.9566 16.3634 11.4221 11.088 11.6437 10.7552 11.6168 14.7231 10.3992 11.4558
threshold=-1.8499999999999999 0.21711631801680789 0.075000000000000025 0.20245192023060635 -0.21978021978021342 0.23500000000000001 70.250000000000014 -124.14999999999999 72.050000000000011 72.450000000000017 68.250000000000014 1.0000000180025095e-35 -0.14809852192875225 50.550000000000004 0.51500000000000012 0.70500000000000007 58.050000000000004 -0.1109483237070663 49.150000000000013 -332.79999999999995 0.34500000000000003 -0.49032903693146385 10.450000000000001 -0.011359764303281448 0.96500000000000008 0.6150000000000001 -55.849999999999987 0.088726224417468039 15.350000000000003 -18.749999999999996
decision_type=2 2 2 2 2 2 2 2 2 2 2 2 2 2 2 2 2 2 2 2 2 2 2 2 2 2 2 2 2 2
left_child=2 5 8 4 7 9 25 -4 -1 -2 12 19 -7 -12 15 -3 -9 -11 -15 -8 -18 -22 -10 -21 -25 26 27 -6 -13 -30
right_child=1 14 3 -5 6 10 11 16 22 17 13 28 -14 18 -16 -17 20 -19 -20 23 21 -23 -24 24 -26 -27 -28 -29 29 -31
leaf_value=-0.02430236802208981 -0.022700720943024104 -0.0015028343549503614 0.016318392220798027 0.012223228781755932 0.0011583852043244008 0.044582830767739237 0.024913017430535808 -0.0035684485405764639 0.002193642578750809 0.030187995387172564 -0.013434410765990227 0.011069868516874705 -0.01337340447998487 0.065849348819740028 0.0070756069932209013 -0.041231033488500594 0.018654666480297549 -0.012087797346820139 -0.00031790435041346597 0.0012436639527876603 0.013911967359160504 0.00051285604703073826 -0.031515488407173331 0.0063970810281089047 -0.01334315609942585 -0.013108304486138464 -0.0040973723755373184 0.051832107359494409 0.0010732065830493362 0.041268753604367159
leaf_weight=281.6656903475523 772.9441572278738 181.6669500619173 808.21398659050465 1481.5325476676226 1293.7420784085989 11.567462459206579 52.676716968417168 319.58997102081776 169.40923808515072 18.951613590121269 252.33153216540813 776.61286845803261 738.60668142139912 7.4061553925275794 960.38120296597481 32.487532556056976 217.56997561454773 785.81536853313446 1062.9236575365067 2573.4554618746042 370.6784977465868 591.37397749722004 29.506772488355637 102.79966893792152 273.29359164834023 235.45984643697739 2494.8795827180147 14.494791954755781 580.4438943862915 18.284283921122551
leaf_count=1585 4348 907 3643 6756 6281 60 246 1520 846 99 1316 3662 3940 37 4498 165 1014 4124 5278 12352 1689 2799 156 495 1324 1172 12336 68 2739 84
internal_value=-6.73971e-05 -0.00702421 0.00257867 0.0032868 0.00205217 -0.0107039 5.22085e-05 0.00934685 -0.0154052 -0.0167794 -0.00607965 0.00262666 -0.0124797 -0.00244971 0.00441261 -0.00752966 0.00558854 -0.0110922 0.00013994 0.00050758 0.00806941 0.00567553 -0.0028067 7.17169e-05 -0.00794745 -0.00273834 -0.00209631 0.00171983 0.00725239 0.00230072
internal_weight=17510.8 4825.08 12685.7 12205.1 10723.6 3650.55 8416.14 2307.43 480.582 1577.71 2072.84 4377.57 750.174 1322.66 1174.54 214.154 1499.21 804.767 1070.33 3002.23 1179.62 962.052 198.916 2949.55 376.093 4038.58 3803.12 1308.24 1375.34 598.728
internal_count=85539 24772 60767 58180 51424 19202 40759 10665 2587 8571 10631 20902 4000 6631 5570 1072 7022 4223 5315 14417 5502 4488 1002 14171 1819 19857 18685 6349 6485 2823
is_linear=0
shrinkage=0.05


Tree=13
num_leaves=31
num_cat=0
split_feature=1 5 3 5 5 9 9 5 9 2 3 9 5 3 5 1 2 2 2 5 1 2 9 16 2 16 16 2 16 3
split_gain=116.705 73.835 58.6641 48.7516 52.1922 29.0873 25.5573 22.1653 19.9103 19.6456 19.0871 18.8438 14.8571 14.5621 14.2004 14.0676 12.4312 12.3684 12.1855 12.1148 14.5931 12.2621 12.1036 11.8163 11.6879 12.2411 12.6356 14.1702 12.1966 11.8102
threshold=-1.8499999999999999 0.10742420778494523 0.075000000000000025 0.38805314249094064 -0.38756763779499986 85.65000000000002 72.850000000000009 0.29590578136740048 72.050000000000011 74.15000000000002 0.23500000000000001 68.450000000000017 0.12677618755990719 0.41500000000000004 -0.011359764303281448 -17.149999999999995 -116.34999999999998 158.95000000000002 -11.649999999999997 0.20245192023060635 -22.499999999999996 -67.549999999999983 48.650000000000013 -0.17749999999999996 -155.04999999999998 -0.64049999999999996 -1.1174999999999999 -57.449999999999996 0.13750000000000004 0.53500000000000014
decision_type=2 2 2 2 2 2 2 2 2 2 2 2 2 2 2 2 2 2 2 2 2 2 2 2 2 2 2 2 2 2
left_child=2 5 8 4 24 10 13 11 -1 -9 -2 -3 16 15 -12 19 -8 -13 23 21 -21 -6 -16 -14 28 26 27 29 -4 -26
right_child=1 7 3 -5 6 -7 12 9 -10 -11 14 17 18 -15 22 -17 -18 -19 -20 20 -22 -23 -24 -25 25 -27 -28 -29 -30 -31
leaf_value=-0.023400365826510276 -0.020244619426521601 -0.011624443079003288 0.027912214292625127 0.015550361233934013 0.0037610432107465851 -0.0045265049925806841 0.0072521890820624775 -0.034789606594936899 -0.0026721617786903693 0.0082437844327249415 0.0012173485286965644 0.0059961121069483439 -0.015623223254616077 -0.0051982583367471188 -0.035383280151772133 0.02707601117142467 0.0012039021578568224 -0.0074289771178748954 0.0087749354409960064 0.015253560120450333 -0.03273951534700778 -0.0024253831862932596 -0.011622800411444341 0.040741660838251932 0.048344317707494311 0.0074413144823938064 0.034139453086362591 -0.04248765562327262 -0.01029765120957696 -0.0008041108995444613
leaf_weight=277.9920968413353 1004.2077320367098 470.45049561560154 181.44962856173515 740.77899216115475 1163.7173584103584 880.66702106595039 1171.4172764569521 27.430144637823105 198.62272936105728 800.3812763094902 209.17126823961735 476.1898840367794 11.142850801348684 1551.369795486331 58.747140124440193 49.210804775357246 3091.8908944427967 268.18272154033184 509.19515553116798 204.4435221105814 17.16929817199707 2569.7398685514927 611.43665046989918 56.169924512505531 19.123807787895203 714.7762426584959 96.70214407145977 12.377270475029944 23.601114630699158 33.873078778386116
leaf_count=1585 5606 2467 802 3322 5584 4519 5478 138 1002 3740 1098 2356 51 7526 320 227 14805 1299 2346 937 79 12661 3229 253 84 3288 428 56 105 148
internal_value=-6.53144e-05 -0.00670056 0.00244712 0.00311843 0.00231604 -0.0120275 0.0012283 0.000508229 -0.0147622 0.00681784 -0.0155346 -0.0037913 0.00388449 -0.00108564 -0.0101559 0.000507706 0.00286577 0.00115932 0.0114179 0.000177131 0.0115353 -0.000497076 -0.0137056 0.0314111 0.0127676 0.0102545 0.0226607 0.00568127 0.0235143 0.016931
internal_weight=17501.6 4806.86 12694.8 12218.1 11477.4 2764.23 10395.5 2042.63 476.615 827.811 1883.56 1214.82 4839.82 5555.65 879.355 4004.28 4263.31 744.373 576.508 3955.07 221.613 3733.46 670.184 67.3128 1081.9 876.853 162.076 65.3742 205.051 52.9969
internal_count=85539 24772 60767 58180 54858 14772 49947 10000 2587 3878 10253 6122 22933 27014 4647 19488 20283 3655 2650 19261 1016 18245 3549 304 4911 4004 716 288 907 232
is_linear=0
shrinkage=0.05


Tree=14
num_leaves=31
num_cat=0
split_feature=1 3 3 9 9 9 2 9 16 16 16 7 2 16 0 8 16 16 16 4 2 2 4 16 16 3 2 2 0 0
split_gain=105.619 68.096 53.2435 31.1571 26.4542 20.9658 19.3626 20.2728 17.3285 16.3352 14.4331 17.5614 13.4406 12.9782 12.8263 12.1994 11.4429 11.3642 11.3172 13.2502 10.9391 13.5802 11.0987 10.814 10.3162 9.90171 10.2523 15.3058 9.81136 12.8439
threshold=-1.8499999999999999 0.23500000000000001 0.075000000000000025 61.850000000000001 74.250000000000014 72.450000000000017 16.850000000000005 60.45000000000001 3.4230000000000005 0.70250000000000001 -0.74949999999999994 1.0000000180025095e-35 -155.04999999999998 0.83200000000000007 60.95000000000001 1.0000000180025095e-35 0.35050000000000003 0.049500000000000009 -0.53149999999999997 0.59500000000000008 50.550000000000004 153.75000000000003 0.82500000000000007 1.5670000000000002 -0.24149999999999996 0.83500000000000008 50.550000000000004 27.850000000000005 50.250000000000007 54.250000000000007
decision_type=2 2 2 2 2 2 2 2 2 2 2 2 2 2 2 2 2 2 2 2 2 2 2 2 2 2 2 2 2 2
left_child=2 5 6 9 25 -2 7 -1 10 18 -5 12 -12 -11 15 17 24 -7 19 -4 22 -22 -6 -23 -9 26 27 -3 -14 -30
right_child=1 4 3 8 20 14 -8 16 -10 13 11 -13 28 -15 -16 -17 -18 -19 -20 -21 21 23 -24 -25 -26 -27 -28 -29 29 -31
leaf_value=-0.025402593979463196 -0.020785086398276822 0.0038893267110510638 0.026058609829505582 0.015233465853774828 0.02735178500102441 -0.007752939936418065 -0.037925136029416114 -0.037451737417164004 0.053085994269038511 0.071735747305639308 0.0091405931022247658 0.013557616420869079 0.0017180747234466047 0.010597149231453371 0.016214060555805973 -0.013112505631793109 -0.061622866960198322 0.028917237963962963 -0.0019783812601064294 -0.018766957204243064 0.0073957931690132933 -0.0031462622873022284 -0.013757356047650007 0.024842606477228892 0.0028011555323586277 -0.021135513500352296 -0.0039264880504478175 -0.023598812225708421 0.018603163866577215 0.0045655235848184759
leaf_weight=137.38950325548649 771.19219413399696 72.32042695581913 71.475391775369644 298.23483309149742 18.211570173501968 53.915461525321007 72.456974536180496 17.056956738233566 18.330730319023132 13.050317555665968 934.27548959851265 458.87313829362392 5412.1275608241558 25.920332133769989 46.555230230093002 674.1057902276516 7.733719900250434 34.741757899522781 3260.8921093195677 21.428273186087608 865.19878812134266 714.52393062412739 166.76788295805454 36.262419536709785 238.19166304171085 119.08074736595154 1047.743924677372 168.93877577781677 182.32128185033798 1533.4806685447693
leaf_count=806 4427 388 336 1328 92 284 414 91 80 60 4316 2061 25867 122 236 3584 40 181 15902 101 4172 3421 871 165 1236 636 5382 933 852 7155
internal_value=-6.31917e-05 -0.00639054 0.00232244 0.0029589 -0.00220652 -0.0148857 -0.0141408 -0.00983642 0.00452255 -0.00111414 0.00442161 0.0040432 0.00350167 0.031071 -0.00926426 -0.0108193 -0.0017042 0.00661686 -0.00148813 0.0157196 0.00180761 0.00312602 -0.00971008 -0.00179442 0.000111261 -0.00734066 -0.00606626 -0.0153589 0.00276256 0.00605716
internal_weight=17492.8 4789.56 12703.2 12230.4 3209.05 1580.51 472.829 400.372 8837.64 3392.77 8819.31 8521.08 8062.21 38.9706 809.318 762.763 262.982 88.6572 3353.8 92.9037 1800.96 1615.99 184.979 750.786 255.249 1408.08 1289 241.259 7127.93 1715.8
internal_count=85539 24772 60767 58180 16060 8712 2587 2173 41659 16521 41579 40251 38190 182 4285 4049 1367 465 16339 437 8721 7758 963 3586 1327 7339 6703 1321 33874 8007
is_linear=0
shrinkage=0.05


Tree=15
num_leaves=31
num_cat=0
split_feature=6 5 6 9 6 2 0 6 5 6 0 2 1 16 1 2 0 9 4 4 9 2 1 2 0 16 16 9 4 4
split_gain=194.207 114.607 74.3669 44.3549 30.055 27.7208 25.4824 28.902 22.2006 18.5062 17.6379 16.7684 16.0353 15.6476 17.3758 20.9323 19.3554 16.0112 27.1792 22.7745 15.3069 14.9938 13.8983 13.4672 13.4538 13.2987 13.6596 13.2761 18.117 13.3609
threshold=-0.28101604171755773 0.1566705509651323 -0.06304289832992914 65.450000000000017 0.85776614829061748 62.550000000000004 40.100000000000009 -0.13315579227696769 -0.10057663985140185 0.46099656360085733 17.850000000000005 -42.849999999999987 -1.0000000180025095e-35 -0.10949999999999999 -1.0000000180025095e-35 -36.949999999999996 45.550000000000004 92.050000000000011 1.425 0.76500000000000012 55.750000000000007 128.95000000000002 -27.649999999999995 22.750000000000004 87.950000000000017 -0.56749999999999978 -0.25849999999999995 78.050000000000011 1.3350000000000002 1.0450000000000002
decision_type=2 2 2 2 2 2 2 2 2 2 2 2 2 2 2 2 2 2 2 2 2 2 2 2 2 2 2 2 2 2
left_child=8 2 6 9 5 24 -2 -8 25 12 -10 -9 22 -5 15 -15 -16 19 23 -17 -13 -6 -4 -19 -3 -1 -27 29 -29 -21
right_child=1 4 3 13 21 -7 7 11 10 -11 -12 20 -14 14 16 17 -18 18 -20 27 -22 -23 -24 -25 -26 26 -28 28 -30 -31
leaf_value=0.020653410687109231 -0.0031579400031181344 0.012233940477005155 -0.011228903873477556 -0.010304219931790296 0.0087847316750859408 0.00070139396049179387 0.010796072055573957 -0.0050844585789862028 0.097526744876603219 0.027196886980694019 0.023015962304365895 -0.0092341590308401816 -0.017988221128109945 -0.0093448905234192556 0.027608597245063423 0.011204716483200939 -0.0075687863098969901 0.050424518760641704 0.0042917466692251249 -0.0070371279086677459 0.013621839434376887 0.025395664381696156 0.0069152371766651663 0.011424389734978052 -0.048906138392364629 0.0011474905421709704 0.011711426893313519 0.005422054537710057 -0.028342853989753215 -0.032179365652029085
leaf_weight=310.15263587236404 2033.9089340120554 825.88152031600475 1559.3553261160851 950.04176180064678 282.69709958136082 1975.4727874398232 1012.6892713606358 762.69255051016808 8.1349850893020612 28.940291911363602 335.39297838509083 98.656695708632469 1006.4871122092009 465.0229540169239 40.009544670581818 316.91031907498837 1726.5128836929798 56.083858087658882 321.13978083431721 378.86534735560417 284.4853487610817 261.529705286026 113.20477874577045 36.568222045898438 9.0968386232852918 389.2331101000309 1431.0778529942036 377.46960623562336 44.40103967487812 61.404567897319794
leaf_count=1358 9857 3797 8011 4785 1259 9412 4845 3723 37 145 1527 496 5704 2251 210 1550 9051 266 1538 1846 1383 1170 553 173 51 1774 6551 1802 213 300
internal_value=3.95918e-06 -0.00213285 -0.00447333 -0.0074604 0.00601239 0.00392979 0.000857838 0.00464178 0.0129851 -0.012572 0.0247804 -0.00079739 -0.0130016 -0.00456117 -0.0031345 -1.19308e-05 -0.00677206 0.00271278 0.0111748 -0.000256974 0.00773656 0.0167672 -0.0100008 0.0350318 0.0115678 0.0110832 0.00945256 -0.00447012 0.00186837 -0.0105437
internal_weight=17503.5 15029.5 11674.9 7482.42 3354.68 2810.45 4192.43 2158.52 2473.99 2707.99 343.528 1145.83 2679.05 4774.43 3824.39 2057.87 1766.52 1592.84 413.792 1179.05 383.142 544.227 1672.56 92.6521 834.978 2130.46 1820.31 862.141 421.871 440.27
internal_count=85638 74391 58702 38398 15689 13260 20304 10447 11247 14413 1564 5602 14268 23985 19200 9939 9261 7688 1977 5711 1879 2429 8564 439 3848 9683 8325 4161 2015 2146
is_linear=0
shrinkage=0.05


Tree=16
num_leaves=31
num_cat=0
split_feature=6 5 6 9 6 1 3 6 5 6 0 1 3 6 6 9 3 0 9 4 9 5 1 9 5 4 6 3 0 6
split_gain=174.633 105.469 73.468 43.9604 33.0448 30.7464 24.7475 24.6024 19.6881 19.6664 34.0389 18.7045 16.7998 16.0726 16.07 15.7936 15.5266 14.2888 14.2079 13.01 14.6758 12.7439 12.5022 17.0441 12.2403 12.0359 11.572 13.5767 11.4665 11.8492
threshold=-0.28101604171755773 0.10951902984351893 -1.0000000180025095e-35 84.450000000000017 0.85776614829061748 -8.6499999999999968 0.23500000000000001 1.0000000180025095e-35 -0.10057663985140185 -0.13315579227696769 41.750000000000007 -91.59999999999998 0.72500000000000009 0.46099656360085733 -0.020006006805045603 63.850000000000001 0.23500000000000001 64.350000000000009 70.450000000000017 1.7450000000000003 97.950000000000017 -0.35892144179204827 -75.299999999999983 99.950000000000017 -0.061204555738031401 1.2050000000000003 -0.77713069344733088 0.39500000000000007 84.250000000000014 0.12084448334461763
decision_type=2 2 2 2 2 2 2 2 2 2 2 2 2 2 2 2 2 2 2 2 2 2 2 2 2 2 2 2 2 2
left_child=8 2 9 6 5 22 25 -8 26 10 -2 14 16 19 -11 21 -10 -9 -7 20 -5 -13 23 -3 -17 -4 -1 -28 29 -24
right_child=1 4 3 13 -6 18 7 17 12 11 -12 15 -14 -15 -16 24 -18 -19 -20 -21 -22 -23 28 -25 -26 -27 27 -29 -30 -31
leaf_value=0.017163028935473456 -0.0021557644166711916 0.015635293989301798 -0.01597537804538508 -0.0031553754113342958 0.016046826481613371 -0.0075684444503930004 -0.022812279549144054 -0.004340811897679135 0.041713457842315366 -0.0077622574056959133 0.01023678383192627 0.057519373930505407 0.085813126967389741 0.032257359143321014 0.01834055865786317 -0.0007383267547180272 0.015710901190989238 -0.016716760053870194 0.0016990738398092648 -0.0084978980947965285 0.010824024829728402 -0.0067625605611625244 0.00174006975959993 0.072435399918501328 0.01007691932292645 -0.040404939176857321 0.014637018907968438 0.0051106635851978135 -0.03597857142468288 0.0098564344209977825
leaf_weight=498.17312468588352 1393.7799500823021 97.625519886612892 1505.9390287548304 596.45663639903069 550.43993060290813 682.01711563766003 258.34090846776962 1482.2290872484446 73.478755176067352 1670.3311177492142 919.7685602158308 7.8130216449499121 10.43625435233116 33.868987262248993 61.120652541518211 563.34231002628803 262.51477038860321 276.77764622867107 1050.6874924749136 565.11405503749847 273.9833874553442 585.80473782122135 758.78517600893974 15.273626551032065 488.44109529256821 52.164743512868881 576.9791511297226 1063.1888565272093 15.985149621963499 1103.8706101328135
leaf_count=2186 6717 451 8434 3008 2445 3533 1313 7531 327 8191 4387 38 46 163 300 2741 1191 1475 5066 2864 1373 2978 3540 69 2367 275 2635 4862 81 5051
internal_value=2.42601e-06 -0.00203009 -0.00467486 -0.00906784 0.0046119 0.00292182 -0.01206 -0.00840423 0.0122804 -0.000780232 0.00277099 -0.00321324 0.023338 -0.00178723 -0.00684082 0.000604054 0.0213974 -0.00628815 -0.00194875 -0.00259044 0.00124484 -0.0059165 0.00715938 0.0233195 0.0042842 -0.0167933 0.010489 0.00846185 0.00618822 0.00655009
internal_weight=17494.7 15010 10735.3 5044.87 4274.68 3724.24 3575.45 2017.35 2484.77 5690.4 2313.55 3376.85 346.43 1469.42 1731.45 1645.4 335.994 1759.01 1732.7 1435.55 870.44 593.618 1991.54 112.899 1051.78 1558.1 2138.34 1640.17 1878.64 1862.66
internal_count=85638 74391 54155 26436 20236 17791 19028 10319 11247 27719 11104 16615 1564 7408 8491 8124 1518 9006 8599 7245 4381 3016 9192 520 5108 8709 9683 7497 8672 8591
is_linear=0
shrinkage=0.05


Tree=17
num_leaves=31
num_cat=0
split_feature=6 5 6 3 6 5 3 6 3 3 0 5 4 0 6 3 1 0 0 0 5 4 5 0 16 16 5 6 6 16
split_gain=157.082 95.3866 56.7361 38.6266 26.5294 24.0329 23.6796 19.0387 17.6935 16.8622 15.2346 15.1747 14.9677 14.7638 22.4705 15.472 12.757 12.3856 15.9347 20.8587 11.9333 16.99 11.5503 11.378 10.8483 11.7109 12.7333 10.6651 11.1416 10.6056
threshold=-0.28101604171755773 0.22235399243416556 -0.06304289832992914 0.23500000000000001 0.35469293893950488 1.0000000180025095e-35 0.45500000000000007 2.4405123006699951 0.25500000000000006 0.25500000000000006 62.600000000000009 0.063373181674364357 5.035000000000001 33.45000000000001 -0.13315579227696769 0.20500000000000004 -14.449999999999998 59.900000000000006 52.650000000000013 53.850000000000001 0.337293984350795 0.18500000000000003 -0.28665697533885032 42.95000000000001 -0.56749999999999978 -0.25849999999999995 -1.1351863272408944 -0.17761989342806037 -0.2099456614787831 1.1315000000000002
decision_type=2 2 2 2 2 2 2 2 2 2 2 2 2 2 2 2 2 2 2 2 2 2 2 2 2 2 2 2 2 2
left_child=8 2 5 11 6 12 17 10 -1 27 29 -4 13 -2 23 -16 -13 18 -5 -20 -12 -22 -17 -15 -10 -26 -27 28 -7 -3
right_child=1 7 3 4 -6 9 -8 -9 24 -11 20 16 -14 14 15 22 -18 -19 19 -21 21 -23 -24 -25 25 26 -28 -29 -30 -31
leaf_value=0.02596362966392661 -0.0057816890494137635 0.013526130386362046 -0.012306134152080841 -0.0030635360748622283 0.0099250897273133673 0.018302015693387973 -0.0092955869462660531 0.032741296666407439 0.018897276514070603 0.0028194299388482214 -0.0028212722254525417 0.0067117056399101319 0.060996892928826922 0.001976935212553081 -0.012622905628544474 0.027685456623772749 -0.0088912266508472219 -0.0070694440339438089 0.028907051105743899 0.0028386310461417223 -0.02701130033406517 0.0074557405220651773 -0.0013187610444248957 0.011362147659235081 0.0013083844268462353 0.039034074671541352 0.010206532629506306 0.014437682519485642 0.065286939784164652 -0.017604193913281319
leaf_weight=197.89130260050297 1048.0393692106009 700.15592397749424 2467.421613201499 1539.4129729419947 342.85433226823807 27.688079118728638 1669.0425353348255 69.871670737862587 321.6552822291851 375.59651170670986 499.99598751962185 205.51650783419609 9.8276206403970701 822.21216359734535 348.64962728321552 35.895128309726715 361.30850657820702 865.60658846795559 85.798581436276436 726.45851619541645 36.899701625108719 1151.6485350579023 784.80333423614502 531.81729185581207 396.1026858240366 39.283247485756874 1539.7746504247189 232.4697147756815 23.180837422609329 28.472103103995323
leaf_count=886 5094 3198 13302 7636 1677 127 8484 309 1396 1772 2383 1003 47 3954 1728 172 1997 4353 417 3582 179 5223 3874 2533 1798 173 6994 1111 108 128
internal_value=1.06226e-06 -0.00193222 -0.00371102 -0.00612367 -0.00351967 0.000990841 -0.00446303 0.0070107 0.0116181 0.00976643 0.00626692 -0.0106114 -0.000623834 -0.000793399 0.0012784 -0.00379884 -0.003234 -0.00195602 -7.3869e-05 0.00559223 0.0036594 0.00638568 -5.01951e-05 0.00566313 0.0103821 0.00899542 0.0109237 0.0189754 0.0397129 0.0123097
internal_weight=17485.4 14990.6 12503.6 8263.42 5229.17 4240.18 4886.32 2487.04 2494.71 658.935 2417.17 3034.25 3581.24 3571.42 2523.38 1169.35 566.825 3217.28 2351.67 812.257 1688.54 1188.55 820.698 1354.03 2296.82 1975.16 1579.06 283.339 50.8689 728.628
internal_count=85638 74391 62971 42451 26149 20520 24472 11420 11247 3118 11111 16302 17402 17355 12261 5774 3000 15988 11635 3999 7785 5402 4046 6487 10361 8965 7167 1346 235 3326
is_linear=0
shrinkage=0.05


Tree=18
num_leaves=31
num_cat=0
split_feature=6 5 6 3 6 6 1 3 6 5 0 2 6 16 4 0 6 3 4 16 2 4 4 4 2 6 1 3 4 2
split_gain=141.333 108.309 37.767 28.1768 35.466 28.1285 27.4284 21.3932 25.1154 20.2673 17.4412 16.4464 18.7229 16.7323 16.0258 15.9237 15.3696 15.3642 15.4057 13.0885 12.7098 11.9482 11.689 11.5979 13.015 20.1248 10.9415 10.8767 10.7941 10.2937
threshold=-0.18511706346094334 0.10742420778494523 -1.0000000180025095e-35 0.23500000000000001 1.0000000180025095e-35 0.85776614829061748 -8.6499999999999968 0.25500000000000006 -0.37989755313519996 -0.074499990557458359 64.750000000000014 -42.849999999999987 -0.06304289832992914 -0.24949999999999997 0.66500000000000015 33.45000000000001 -0.23721210866308182 0.24500000000000002 1.1250000000000002 0.39750000000000008 -22.149999999999995 4.7950000000000008 0.71500000000000008 4.7950000000000008 -99.949999999999989 -0.13315579227696769 -86.549999999999997 0.085000000000000006 0.21500000000000002 3.9500000000000006
decision_type=2 2 2 2 2 2 2 2 2 2 2 2 2 2 2 2 2 2 2 2 2 2 2 2 2 2 2 2 2 2
left_child=7 2 11 -4 26 6 20 9 -9 16 17 12 13 -2 29 22 -1 -6 -19 -7 -3 -21 -10 24 -15 28 -5 -16 -26 -13
right_child=1 5 3 4 10 19 -8 8 15 -11 -12 14 -14 23 27 -17 -18 18 -20 21 -22 -23 -24 -25 25 -27 -28 -29 -30 -31
leaf_value=0.017842124821560702 -0.015510696842649788 0.026069933252583766 -0.012720308547638099 -0.03847231756707685 0.081427930283617111 0.021263809919764336 -0.0019136034466463625 0.011607006037562068 -0.0096879686489530839 0.029883540937317432 -0.012197428091964835 -0.0010240488584018772 -0.013043986368311443 -0.0075897552780625141 0.04398139150450707 0.0075299806970503466 -0.0066206767884543945 -0.0040579736378741392 0.0055886171195109226 0.0033123155615554841 0.0058340888530928761 0.058395771194318082 0.0024494119107764997 0.048845642459805626 0.050638440207985996 -0.0027911414392685443 -0.015801653467710536 0.0054196579573993096 0.0084911546748830512 -0.017077993040707156
leaf_weight=187.07809612154961 220.11146029829979 80.903654277324677 2144.8828442245722 65.734876126050949 5.6263984292745581 319.9334043264389 1763.8099545687437 1581.1652478575706 311.25344926118851 211.28749144077301 426.88143339753151 564.80685515701771 509.19694317877293 580.70342472195625 18.655446350574493 914.47144767642021 97.761823385953903 1453.3984440565109 578.66153672337532 224.78899557888508 1897.7238937318325 10.295544043183325 546.93947710096836 11.606279671192167 15.733080774545668 967.75463952124119 279.58941997587681 923.83933392167091 440.91192439198494 121.2923993319273
leaf_count=849 1085 371 11895 331 28 1413 8777 7045 1493 960 2242 2847 2526 2818 95 4265 465 7401 2852 988 8738 45 2559 55 77 4759 1428 4482 2130 619
internal_value=-6.03977e-08 -0.00239003 -0.00541544 -0.00840465 -0.00511037 0.00417787 0.00262006 0.00845917 0.00702564 0.0181499 -0.00300769 -0.00202979 -0.00439076 -0.00242091 0.00195111 0.0029392 0.00944608 -0.0010825 -0.00131095 0.014682 0.00666151 0.0057247 -0.00195263 -0.000992245 -0.00128073 0.00129136 -0.0201172 0.00618294 0.00994328 -0.00386215
internal_weight=17476.8 13626.8 9329.39 4954.77 2809.89 4297.46 3742.44 3849.96 3353.83 496.127 2464.57 4374.61 2746.02 2236.82 1628.59 1772.66 284.84 2037.69 2032.06 555.018 1978.63 235.085 858.193 2016.71 2005.1 1424.4 345.324 942.495 456.645 686.099
internal_count=85638 68002 47670 26177 14282 20332 17886 17636 15362 2274 12523 21493 13450 10924 8043 8317 1314 10281 10253 2446 9109 1033 4052 9839 9784 6966 1759 4577 2207 3466
is_linear=0
shrinkage=0.05


Tree=19
num_leaves=31
num_cat=0
split_feature=6 5 6 9 6 1 3 3 5 3 6 2 0 9 6 3 9 2 2 4 9 16 3 2 2 4 16 16 6 2
split_gain=128.639 79.6994 56.6157 39.381 24.7664 23.6679 19.7508 21.0945 16.4648 14.8709 13.8592 28.3095 26.1317 15.032 13.3289 12.9888 12.7035 12.4962 12.23 11.7805 13.0507 11.7148 11.4599 12.2081 11.4378 11.3738 11.817 12.6452 11.2556 11.2131
threshold=-0.28101604171755773 0.10951902984351893 -1.0000000180025095e-35 84.450000000000017 0.85776614829061748 -8.6499999999999968 0.23500000000000001 0.45500000000000007 -0.10057663985140185 0.72500000000000009 -0.13315579227696769 -42.849999999999987 41.750000000000007 65.450000000000017 0.46099656360085733 0.085000000000000006 70.450000000000017 128.95000000000002 166.90000000000001 1.7450000000000003 97.950000000000017 -0.21349999999999997 0.23500000000000001 -106.84999999999998 -97.949999999999989 1.2050000000000003 0.23850000000000002 -0.053499999999999992 1.0000000180025095e-35 34.95000000000001
decision_type=2 2 2 2 2 2 2 2 2 2 2 2 2 2 2 2 2 2 2 2 2 2 2 2 2 2 2 2 2 2
left_child=8 2 10 6 5 -3 25 -8 -1 22 12 21 24 -13 19 -15 -7 -6 -18 20 -5 -12 23 -10 -2 26 27 -4 -9 -29
right_child=1 4 3 14 17 16 7 28 9 -11 11 13 -14 15 -16 -17 18 -19 -20 -21 -22 -23 -24 -25 -26 -27 -28 29 -30 -31
leaf_value=0.0088351963696748706 -0.0059906778921026945 0.0062263411747162387 -0.019932743471412315 -0.0023210007022873842 0.006595734916436273 -0.0070907348180273937 -0.0040569268485122429 -0.028832273935564496 0.057813998633771381 0.078455323636053884 -0.018217191522597702 -0.0036179979174406369 0.0088008600111767598 0.047662454932917216 0.029685902542864379 0.0056104549033098097 0.00525673280107356 0.021579834354974514 -0.0064642712414543172 -0.0074557214546065306 0.010882080204450069 -0.0054793703558659772 0.013787220279755841 0.017463399661143325 0.0031548694055708103 -0.038443415814414454 -0.028411917284056166 -0.0027234279797696947 -0.011862586200579783 -0.014071876984116752
leaf_weight=2159.8360264003277 788.64778219163418 2003.7084331959486 431.85707187652588 591.64163860678673 288.26840537786484 678.53052859008312 1365.7279990762472 120.68947631120682 34.444890826940536 10.730513229966162 202.83526058495045 624.09393012523651 929.33313348889351 18.7557073533535 34.427095115184784 876.18377457559109 730.5713112950325 268.96557182073593 320.05272062122822 559.14546005427837 273.77076900005341 1639.396455436945 265.579206854105 41.126500457525253 603.46767692267895 50.49967385828495 134.98187805712223 362.4695540368557 513.31557075679302 544.86916659772396
leaf_count=9683 3791 9192 2477 3008 1266 3533 6953 643 149 46 1018 3184 4387 93 163 4229 3530 1179 1536 2864 1373 8091 1191 178 2926 275 771 2005 2723 3181
internal_value=-1.16027e-06 -0.00175953 -0.00407435 -0.00796436 0.00399562 0.00252782 -0.0108241 -0.00755584 0.0104692 0.0204986 -0.000663051 -0.0027151 0.00230815 0.00233817 -0.0010561 0.00649176 -0.00175795 0.0138283 0.00168615 -0.00179904 0.00185576 -0.00688184 0.0186756 0.0358549 -0.00202618 -0.0151108 -0.0143115 -0.0128903 -0.0150929 -0.00953833
internal_weight=17467.9 14956.2 10666.1 4983.4 4290.1 3732.86 3524.41 1999.73 2511.72 351.881 5682.71 3361.27 2321.45 1519.03 1458.98 894.939 1729.15 557.234 1050.62 1424.56 865.412 1842.23 341.151 75.5714 1392.12 1524.68 1474.18 1339.2 634.005 907.339
internal_count=85638 74391 54155 26436 20236 17791 19028 10319 11247 1564 27719 16615 11104 7506 7408 4322 8599 2445 5066 7245 4381 9109 1518 327 6717 8709 8434 7663 3366 5186
is_linear=0
shrinkage=0.05


Tree=20
num_leaves=31
num_cat=0
split_feature=6 6 1 9 3 9 5 3 0 5 6 6 0 5 3 9 2 3 5 3 5 9 6 8 0 6 6 1 1 9
split_gain=105.27 91.2641 50.1969 31.8523 26.0636 18.8322 18.6218 18.151 17.706 15.3592 13.4019 13.1409 11.9636 11.5701 12.2029 13.2689 11.4829 12.0212 11.2481 12.2555 11.1646 10.591 13.1593 9.66263 9.63947 9.34101 10.0559 12.0656 17.4594 11.9998
threshold=-0.2170905693835434 0.35469293893950488 -3.4499999999999997 61.650000000000013 0.19500000000000003 69.65000000000002 0.031570640092104536 0.17500000000000002 81.050000000000011 -0.11978596230070025 2.4405123006699951 0.091625113040039188 59.900000000000006 0.0550178835983628 0.24500000000000002 40.850000000000001 -20.749999999999996 0.19500000000000003 -0.74684369890746771 0.39500000000000007 0.030792918358901748 90.350000000000009 -0.44525093720994552 1.0000000180025095e-35 69.65000000000002 0.26866317943433643 -0.13315579227696769 -83.59999999999998 -73.199999999999974 83.050000000000011
decision_type=2 2 2 2 2 2 2 2 2 2 2 2 2 2 2 2 2 2 2 2 2 2 2 2 2 2 2 2 2 2
left_child=7 2 3 8 -4 9 25 -1 13 -6 16 20 -8 -2 15 -15 -3 -18 -9 21 -7 -20 -23 -17 -19 26 -5 -28 -29 -30
right_child=1 10 4 6 5 11 12 18 -10 -11 -12 -13 -14 14 -16 23 17 24 19 -21 -22 22 -24 -25 -26 -27 27 28 29 -31
leaf_value=0.028914384500003415 -0.0077190887633804481 0.069831167229189112 -0.016150944096505793 0.002398050741851441 0.031810168049914954 -0.0040367473421275999 0.006945344732353375 0.015690950389713843 -0.022550688922599038 -0.012388343560494317 0.029023870561980542 1.9164779358499094e-05 -0.0011372701487883448 0.075482380769714197 -0.0027629997019457042 0.020944395153531359 -0.02749672611610933 0.011043290967914399 0.0074656481989896746 0.003156598439156973 -0.020643050926836361 0.041825851628656319 0.013123554863006669 -0.014464138459906132 0.0036850797169048401 0.032628910757441648 -0.0073076930949106597 0.019918331190320146 -0.0051961280049572338 0.0032201467050253924
leaf_weight=97.156739890575409 1663.8494278341532 7.2704390436410895 916.48700566589832 1003.1102899760008 20.041326224803925 270.63436661660671 1297.502998188138 332.44321782886982 161.24268166720867 1021.9819937348366 72.634311065077782 1117.1213096529245 707.4481488019228 8.5749222040176374 616.65095739066601 65.100973322987556 25.094952896237373 887.30248592793941 1003.6504381597042 1651.503029987216 161.67894768714905 50.511105075478554 190.69668832421303 27.366652190685272 893.07971058785915 19.623654574155807 1191.0196492671967 95.763986393809319 1112.6799145638943 683.79611232876778
leaf_count=431 8408 33 5298 4803 112 1466 6081 1440 996 5734 316 5607 3291 42 2963 318 135 4141 4569 7522 865 220 865 137 4085 93 5889 466 5567 3331
internal_value=-0.000377758 -0.00227163 -0.00385846 -0.00181325 -0.00890376 -0.00634074 0.000143513 0.00762092 -0.00651585 -0.0115383 0.00796423 -0.00284531 0.00409339 -0.00543021 -0.000123849 0.0159826 0.0071204 0.00686787 0.00698019 0.00598037 -0.0102473 0.00972656 0.0191341 0.0104649 0.00735225 -0.00178521 -0.00195047 -0.00336522 -0.000883738 -0.00199263
internal_weight=17373 14047.1 12161.7 8653.73 3507.94 2591.46 6110.94 3325.96 2542.79 1042.02 1885.38 1549.43 2004.95 2381.54 717.694 101.043 1812.75 1805.48 3228.8 2896.36 432.313 1244.86 241.208 92.4676 1780.38 4105.99 4086.37 3083.26 1892.24 1796.48
internal_count=85224 70177 61467 42385 19082 13784 29521 15047 12864 5846 8710 7938 9372 11868 3460 497 8394 8361 14616 13176 2331 5654 1085 455 8226 20149 20056 15253 9364 8898
is_linear=0
shrinkage=0.05


Tree=21
num_leaves=31
num_cat=0
split_feature=6 6 1 9 9 16 0 3 3 3 6 6 16 6 2 6 2 9 1 4 9 3 9 4 16 9 4 9 4 2
split_gain=95.0062 81.9147 46.2108 28.9589 23.9698 17.8418 16.4051 16.1635 13.6083 11.9778 12.5863 11.9432 11.6501 11.4019 14.5653 10.7625 13.7747 10.524 10.4798 13.7562 12.5135 11.3465 10.0293 19.4419 17.4281 11.5885 14.989 11.039 17.9112 11.2556
threshold=-0.22120764112880661 0.35469293893950488 -3.4499999999999997 61.650000000000013 69.65000000000002 -0.24949999999999997 81.050000000000011 0.17500000000000002 0.19500000000000003 0.19500000000000003 2.4405123006699951 0.091625113040039188 3.0485000000000002 0.061994767010598036 35.150000000000013 0.055139571946472017 36.95000000000001 39.850000000000001 -44.29999999999999 0.35500000000000004 65.050000000000011 0.65500000000000014 78.450000000000017 1.3150000000000002 1.0080000000000002 83.850000000000009 1.135 94.950000000000017 1.4450000000000001 -71.049999999999983
decision_type=2 2 2 2 2 2 2 2 2 2 2 2 2 2 2 2 2 2 2 2 2 2 2 2 2 2 2 2 2 2
left_child=7 2 3 6 13 -5 15 -1 -6 -3 18 -10 -9 14 -4 16 17 -2 20 21 -11 -20 -7 25 27 26 -24 -25 -29 -30
right_child=1 9 4 5 8 22 -8 12 11 10 -12 -13 -14 -15 -16 -17 -18 -19 19 -21 -22 -23 23 24 -26 -27 -28 28 29 -31
leaf_value=0.028137770633937062 0.011066964809643837 -0.026304274861706611 -0.0081206450407347221 -0.0083321521125068448 -0.012123962030973224 -0.0011262277649913372 -0.021720231310867793 0.0065719567067489704 -0.0097874627400500527 0.054077467839244102 0.028451929588537407 1.8206737970047828e-05 0.064744147873905825 -0.010882686357131487 -0.028921142243189559 0.00087988488407840341 -0.02845945949020498 -0.007000961900004034 -0.0012618865685516077 0.0080513784237487007 0.010054006444898358 -0.036551487787361912 0.0065097601034084553 -0.010414146835461073 0.061711416698601335 0.01188039020009557 -0.012495691835762379 0.018620405568728661 -0.0082966246186874978 0.0023921223611445483
leaf_weight=90.691792473196983 84.684171751141548 25.77911813557148 134.19524911046028 561.92221210896969 510.19971849024296 2768.882008716464 159.09310556948185 3166.1121350377798 430.08551266789436 25.517819464206696 72.393407195806503 1117.1308917403221 8.6301747262477857 1073.8149459064007 225.72689551115036 566.74168273806572 71.88704988360405 1668.7695559859276 176.70608516037464 1520.0221630781889 43.930786490440369 26.148119851946831 498.24233256280422 270.33224257826805 11.063728570938109 707.14251805841923 131.0240490436554 125.80056776106358 376.62118130922318 711.74904872477055
leaf_count=397 424 140 789 2757 2849 13503 996 14285 2331 115 312 5607 37 6139 1367 2759 359 8406 842 6976 195 130 2373 1297 51 3344 629 595 1818 3402
internal_value=-0.000360093 -0.00214037 -0.00364049 -0.00169312 -0.00850114 0.000161414 -0.00617305 0.00732465 -0.00504261 0.00754446 0.00801241 -0.00270751 0.00673009 -0.0134641 -0.0211658 -0.00513903 -0.00700782 -0.00612836 0.00718684 0.00641923 0.0262297 -0.00581075 0.00101356 0.00310567 -0.0008105 0.00748823 0.0025525 -0.00127646 0.000758018 -0.00130663
internal_weight=17361 14095.6 12205.1 8713.96 3491.15 6162.78 2551.18 3265.43 2057.42 1890.5 1864.72 1547.22 3174.74 1433.74 359.922 2392.08 1825.34 1753.45 1792.32 1722.88 69.4486 202.854 5600.86 2831.98 1495.57 1336.41 629.266 1484.5 1214.17 1088.37
internal_count=85224 70505 61795 42713 19082 29769 12944 14719 10787 8710 8570 7938 14322 8295 2156 11948 9189 8830 8258 7948 310 972 27012 13509 7163 6346 3002 7112 5815 5220
is_linear=0
shrinkage=0.05


Tree=22
num_leaves=31
num_cat=0
split_feature=6 6 9 8 5 2 3 0 3 6 2 6 5 0 2 5 6 2 4 5 0 9 3 0 5 6 0 4 4 4
split_gain=86.5929 77.6922 40.6036 26.9395 17.2532 27.4922 14.8605 13.2649 13.1439 12.1162 14.0431 12.0832 15.3467 14.5011 11.3727 15.5146 10.9645 13.9477 10.2895 10.1472 9.9266 9.63638 9.30688 9.29201 10.7262 8.98717 13.5603 11.9685 9.41076 8.89061
threshold=-0.18511706346094334 0.35469293893950488 61.650000000000013 1.0000000180025095e-35 0.063373181674364357 27.850000000000005 0.16500000000000004 63.050000000000004 0.19500000000000003 0.055139571946472017 95.15000000000002 -0.32366657525873527 -0.14148996802287869 33.45000000000001 36.95000000000001 0.12226006555557946 0.92856490635804267 -10.549999999999999 0.75500000000000012 1.0000000180025095e-35 70.65000000000002 71.450000000000017 0.24500000000000002 22.300000000000001 -0.062518141456130424 -0.77713069344733088 29.450000000000003 1.7050000000000003 0.20500000000000004 0.68500000000000016
decision_type=2 2 2 2 2 2 2 2 2 2 2 2 2 2 2 2 2 2 2 2 2 2 2 2 2 2 2 2 2 2
left_child=11 2 3 19 5 -4 -7 -6 -5 14 -11 12 25 18 15 -10 17 -3 21 23 -19 -13 -21 -2 -25 -1 28 -28 -27 -18
right_child=1 16 4 8 7 6 -8 -9 9 10 -12 13 -14 -15 -16 -17 29 20 -20 22 -22 -23 -24 24 -26 26 27 -29 -30 -31
leaf_value=0.012701609289017228 -0.038958501190548681 0.066396437408427419 -0.0012124182964934204 -0.021204102112449889 0.004003527873582719 -0.017551154037109537 -0.0063041350869535943 -0.003409739617927521 -0.014803605014188507 -0.00097728533679253314 -0.016274348225388004 -0.0066106598714403969 0.018677994365524156 0.0067782338406774017 -0.030845322480996418 0.038702415588387266 0.0047015500633397099 0.0078574077620992902 0.0025046885192698178 0.010853652110234971 -0.00081219563235218444 -0.035853713176029103 -0.0028576679051651333 -0.0022363753859755277 -0.012281014555290681 0.038345634976726106 0.0070669439128604452 0.028608594700923209 -0.0023893644679438882 0.018564155417091343
leaf_weight=491.67293395102024 22.795791834592819 9.1521805077791196 3989.8053926378489 404.86495189368725 1722.7199556827545 378.20203018188477 1314.4349587112665 928.74625085294247 276.05401638150215 422.28432941436768 232.71472562849522 240.76508703827858 332.26903219521046 1096.2573628872633 113.48063737154007 14.247216388583182 182.05405484139919 844.60673213005066 409.378966152668 162.03378450870514 542.08482500910759 31.904483571648598 523.97084771096706 598.12601158022881 478.32045011222363 14.573219880461691 659.89081677794456 71.462217524647713 523.43471094965935 317.1397347599268
leaf_count=2117 119 41 19689 2493 8317 2184 6965 4526 1459 2246 1274 1169 1466 5074 649 70 801 3968 1926 823 2529 151 2578 3044 2498 66 2954 312 2345 1371
internal_value=-0.000343267 -0.0022365 -0.003772 -0.00851335 -0.00192363 -0.00347765 -0.00881716 0.00140683 -0.0135417 -0.0106117 -0.00641218 0.00624745 0.00882201 0.00321685 -0.0174241 -0.0121777 0.00714877 0.00487434 -0.00250736 -0.0043908 0.00446829 -0.0100323 0.000380936 -0.0073687 -0.00669972 0.0069624 0.00473938 0.00917183 -0.00128596 0.0135085
internal_weight=17349.4 13477.8 11582.8 3248.89 8333.91 5682.44 1692.64 2651.47 1463.65 1058.78 654.999 3871.61 2093.3 1778.31 403.782 290.301 1895.04 1395.84 682.049 1785.25 1386.69 272.67 686.005 1099.24 1076.45 1761.03 1269.36 731.353 538.008 499.194
internal_count=85224 67644 58934 17253 41681 28838 9149 12843 8191 5698 3520 17580 9260 8320 2178 1529 8710 6538 3246 9062 6497 1320 3401 5661 5542 7794 5677 3266 2411 2172
is_linear=0
shrinkage=0.05


Tree=23
num_leaves=31
num_cat=0
split_feature=6 6 9 8 16 2 5 3 3 2 6 4 6 2 2 4 3 5 5 5 5 3 6 3 9 6 3 16 16 16
split_gain=78.0811 70.1225 36.9437 24.6974 19.5886 15.8687 23.1024 13.3328 12.2131 12.0963 13.1806 11.4236 11.4413 13.4603 11.3867 11.9825 11.2432 11.2021 16.7118 12.0382 17.8829 10.8574 10.849 14.0602 10.8446 10.765 10.5705 10.1964 9.55607 9.46267
threshold=-0.18511706346094334 0.35469293893950488 61.650000000000013 1.0000000180025095e-35 -0.10149999999999999 23.550000000000004 0.0550178835983628 0.16500000000000004 0.19500000000000003 -31.649999999999995 -0.052882072977261656 0.77500000000000013 0.055139571946472017 111.15000000000002 -60.54999999999999 4.7950000000000008 0.12500000000000003 -1.0000000180025095e-35 -0.0095328885518441969 1.0000000180025095e-35 0.030792918358901748 0.19500000000000003 -0.32366657525873527 0.25500000000000006 84.050000000000011 2.4405123006699951 0.36500000000000005 3.0485000000000002 -0.10449999999999998 -0.87249999999999994
decision_type=2 2 2 2 2 2 2 2 2 2 2 2 2 2 2 2 2 2 2 2 2 2 2 2 2 2 2 2 2 2
left_child=22 2 3 -2 7 9 17 -4 -5 10 14 12 -10 -14 15 -6 -12 18 -7 -19 24 -3 23 -1 -21 29 -24 -25 -9 -23
right_child=1 21 4 8 5 6 -8 28 11 -11 16 -13 13 -15 -16 -17 -18 19 -20 20 -22 25 26 27 -26 -27 -28 -29 -30 -31
leaf_value=0.023918481249731779 -0.0041808251198882295 -0.025609451323234805 -0.016857741672706504 -0.020404371503031111 -0.002013076628554958 -0.0034334243800452908 0.00053043573145645205 -0.0037793361445883421 -0.017744016102932792 0.0056690485155515263 0.01727768335425172 0.021810325572059794 -0.0030528549889668353 -0.020740975780540016 0.0079055512500991881 0.054673146963134189 -0.010117928515437514 -0.021031506861805323 0.058734513356027168 -0.0063845228726751111 -0.014963882785854239 -0.025340420276136005 0.0068759023747103605 0.0070605110216780806 0.015377575169420551 0.026015965653498424 -0.00082984976275789722 0.065885424174826498 -0.021626354665513329 0.0068655761892963858
leaf_weight=135.78972321748734 1781.539606526494 25.533660680055618 256.07540915906429 399.82749176025391 921.51420211791992 451.52391198277473 1875.1196281015873 1606.5055005997419 389.05092315375805 1313.7966079264879 40.971393868327141 27.252826154232025 499.61050119996071 137.06120002269745 501.58492930233479 9.4177652746438962 435.92167030274868 242.2915421128273 11.0753006786108 133.85985842347145 347.2073332965374 23.104069292545319 896.84787322580814 1955.446860820055 100.02236290276051 73.173429295420647 883.43456941843033 7.3944173008203498 78.677905216813087 1777.5553669780493
leaf_count=588 9062 140 1380 2493 4469 2415 9218 8005 2117 6430 205 150 2670 761 2420 44 2142 1345 58 747 1889 105 4147 8641 524 312 4173 31 390 8153
internal_value=-0.000327181 -0.00212848 -0.00359138 -0.00812638 -0.00182961 -0.000492243 -0.00300939 -0.00622786 -0.0129647 0.00197641 -0.000564367 -0.0101398 -0.0109887 -0.00686071 0.00183253 -0.00143961 -0.00776428 -0.00817091 -0.00194503 -0.0116688 -0.0077649 0.00677502 0.00592306 0.00835855 0.00292228 0.00721631 0.00305206 0.00728212 -0.00461258 0.00645234
internal_weight=17338.2 13459.3 11559.9 3234.34 8325.57 6384.31 3161.1 1941.26 1452.8 3223.21 1909.41 1052.98 1025.72 636.672 1432.52 930.932 476.893 1285.98 462.599 823.381 581.09 1899.37 3878.91 2098.63 233.882 1873.83 1780.28 1962.84 1685.18 1800.66
internal_count=85224 67644 58934 17253 41681 31906 16196 9775 8191 15710 9280 5698 5548 3431 6933 4513 2347 6978 2473 4505 3160 8710 17580 9260 1271 8570 8320 8672 8395 8258
is_linear=0
shrinkage=0.05


Tree=24
num_leaves=31
num_cat=0
split_feature=6 6 1 9 9 16 0 0 6 1 9 8 4 9 16 6 16 8 6 2 9 16 16 16 9 16 9 16 2 16
split_gain=70.4167 63.4829 35.7631 20.8543 20.558 18.8474 13.0832 12.5254 12.4333 12.3068 15.9784 11.3675 13.5368 10.8208 11.5562 10.5185 9.80093 9.76859 9.74819 10.3554 9.74627 9.57969 14.1767 13.0686 9.0895 9.02612 8.97393 8.81516 8.74079 8.73875
threshold=-0.18511706346094334 0.30322787797940626 -3.4499999999999997 57.250000000000007 63.650000000000013 -0.12549999999999997 83.100000000000009 47.150000000000013 0.92856490635804267 -49.349999999999994 60.050000000000004 1.0000000180025095e-35 0.34500000000000003 63.250000000000007 -0.56749999999999978 -0.31623805627147833 1.0080000000000002 1.0000000180025095e-35 0.061994767010598036 31.750000000000004 52.350000000000001 -0.11849999999999998 -0.11749999999999998 -0.12299999999999998 46.95000000000001 2.2390000000000003 34.850000000000001 -0.26349999999999996 69.050000000000011 3.0485000000000002
decision_type=2 2 2 2 2 2 2 2 2 2 2 2 2 2 2 2 2 2 2 2 2 2 2 2 2 2 2 2 2 2
left_child=13 2 3 6 18 9 26 -3 11 -5 -11 24 20 14 15 -1 28 29 19 -4 -13 23 -23 -7 -9 -14 -2 -16 -10 -15
right_child=1 7 4 5 -6 21 -8 8 16 10 -12 12 25 17 27 -17 -18 -19 -20 -21 -22 22 -24 -25 -26 -27 -28 -29 -30 -31
leaf_value=0.010675222865210408 0.025731706136691086 0.029313360290830256 -0.0083242433655276258 -0.008195086446587882 -0.0055008684218556623 0.0010516098446598295 -0.022968329364350823 0.046151025450321778 -0.0049727679218678237 -0.046273576979990086 0.0079616279325079153 -0.028719889940429344 0.0021560077178596894 0.0067526417387112018 -0.01136750636700779 0.061390281871359725 0.00087760515926392437 0.031794293654317365 -0.011249260757935663 -0.030115337043012655 -0.0030324287929588832 -0.028627191634145933 0.00093199159199896164 0.057728925796130696 0.0089513659783193016 0.040534395554866959 -0.0060527288482564419 0.0020802434257412329 0.019348135498957864 0.056452506707950871
leaf_weight=37.421381190419197 22.541564434766769 54.217716977000237 81.605634942650795 1051.2190837711096 2275.6212280988693 24.353714928030968 116.48664599657059 17.197466224431992 41.932714179158211 14.490178078413008 216.27673523128033 60.47693033516407 1184.6022148281336 2741.0428354740143 140.85708516836166 14.067374765872954 141.55497968196869 40.022268250584602 673.09514588117599 164.25317880511284 94.825240343809128 40.897268399596214 4961.7505192607641 17.464100509881973 363.74449682235718 15.521040856838225 1497.1164225041866 903.70197853446007 310.45656806230545 8.8732477575540525
leaf_count=162 112 247 491 5246 12283 118 765 81 185 71 1034 321 5609 12299 651 65 610 180 3963 1036 478 201 24078 84 1647 70 7573 4186 1341 37
internal_value=-0.000311878 -0.00202568 -0.00358055 -0.00178751 -0.00804976 -0.000486228 -0.00681915 0.00556796 0.00499072 -0.00589977 0.00455612 0.00299959 0.000854865 0.0056162 0.0014067 0.0245312 0.0119901 0.00726994 -0.0143616 -0.0228824 -0.0130355 0.000889555 0.000690342 0.0247214 0.0106307 0.00265235 -0.00558126 0.000266836 0.0164541 0.00691301
internal_weight=17327.7 13441.7 11157.2 7962.6 3194.58 6326.45 1636.14 2284.53 2230.31 1281.99 230.767 1736.37 1355.43 3885.99 1096.05 51.4888 493.944 2789.94 918.954 245.859 155.302 5044.47 5002.65 41.8178 380.942 1200.12 1519.66 1044.56 352.389 2749.92
internal_count=85224 67644 57055 39282 17773 30832 8450 10589 10342 6351 1105 8206 6478 17580 5064 227 2136 12516 5490 1527 799 24481 24279 202 1728 5679 7685 4837 1526 12336
is_linear=0
shrinkage=0.05


Tree=25
num_leaves=31
num_cat=0
split_feature=6 5 5 1 6 9 2 9 3 2 9 4 5 6 4 9 2 4 0 2 0 0 6 2 6 9 4 5 4 5
split_gain=63.6253 60.6076 27.2425 18.4463 19.514 18.0278 16.2045 16.1596 15.6345 12.3434 14.7835 14.1995 11.8402 11.5415 16.5954 18.8045 14.5673 11.4444 11.4381 11.2119 11.3066 14.3213 11.0937 11.0034 13.4133 10.4004 10.4454 10.3452 11.1925 8.59777
threshold=-0.13054830287206329 0.063373181674364357 -0.1316205783922719 -2.1499999999999999 0.85776614829061748 61.850000000000001 66.750000000000014 74.65000000000002 0.12500000000000003 183.85000000000005 63.050000000000004 2.7450000000000006 -0.74684369890746771 -1.0000000180025095e-35 0.99500000000000011 76.850000000000009 -47.54999999999999 0.23500000000000001 34.850000000000001 -31.649999999999995 49.150000000000013 42.95000000000001 0.29614453353540299 -55.54999999999999 -0.16478323761319189 83.050000000000011 1.0850000000000002 -0.041854138786168164 0.55500000000000016 -0.015241584692715636
decision_type=2 2 2 2 2 2 2 2 2 2 2 2 2 2 2 2 2 2 2 2 2 2 2 2 2 2 2 2 2 2
left_child=7 2 17 -3 9 -4 -6 8 23 10 22 -12 -9 14 15 -7 -16 18 -2 -15 21 -21 -5 24 -1 26 -22 -14 -29 -18
right_child=1 3 5 4 6 13 -8 12 -10 -11 11 -13 27 19 16 -17 29 -19 -20 20 25 -23 -24 -25 -26 -27 -28 28 -30 -31
leaf_value=0.040160340541481633 -0.019846375248484871 0.0047877866823232661 -0.010566749616650294 -0.01366512859600452 -0.064158331761975829 -5.9077869512080884e-05 0.01154777485581536 0.018417315190828218 0.0014476052524601875 -0.011463665404879701 0.0026919883934364169 -0.021647241283092523 0.0048434014088317417 -0.02253906374235359 -0.011344713216495241 0.018716025271806502 0.007789599692515109 0.0022349491156296499 0.043620365292705798 -0.0071414799438938295 -0.0084081998167784677 0.018318273975351403 0.00052053336627426656 0.089768476153699164 -0.023668766774159501 -0.0032834811165457917 -0.022264763117927772 -0.02925523309740299 0.015410562401046613 -0.0067464843925224205
leaf_weight=27.022150650620461 9.1469241827726346 2781.1090675443411 1722.5849871784449 341.61037082970142 7.2175006270408621 738.52240483462811 341.87212032079697 230.22087720036507 2588.1187625676394 342.31643630564213 1333.3579354137182 62.743799641728401 1760.1598767340183 107.25902462005615 558.91240273416042 162.75439150631428 220.08818085491657 748.28827007114887 31.70817157626152 118.35615253448486 1090.2139294445515 103.56938198208809 231.02979135513306 6.7755430042743674 11.835762575268744 996.44505195319653 155.38928192853928 14.558709517121313 382.90214668214321 189.15342935919762
leaf_count=121 46 12831 9638 1978 35 3673 1480 982 12026 1679 6701 314 8020 544 2763 788 1068 3701 158 601 6016 517 1192 32 58 5182 848 64 1736 911
internal_value=-8.80118e-05 -0.00201173 -0.00510499 0.00194058 -0.00103608 -0.00622494 0.00998254 0.00465986 0.00195914 -0.00270047 -0.00117676 0.00159813 0.00763871 -0.0045407 -0.00155124 0.00333137 -0.00609657 0.00364189 0.029411 -0.00671421 -0.00602534 0.00474021 -0.00794197 0.0309709 0.0207186 -0.00709095 -0.0101368 0.00648862 0.0137745 0.00107095
internal_weight=17415.2 12393.6 6952.39 5441.26 2660.15 6163.25 349.09 5021.59 2633.75 2311.06 1968.74 1396.1 2387.84 4440.66 1869.43 901.277 968.154 789.143 40.8551 2571.23 2463.97 221.926 572.64 45.6335 38.8579 2242.05 1245.6 2157.62 397.461 409.242
internal_count=85703 62664 36454 26210 13379 32549 1515 23039 12237 11864 10185 7015 10802 22911 9203 4461 4742 3905 204 13708 13164 1118 3170 211 179 12046 6864 9820 1800 1979
is_linear=0
shrinkage=0.05


Tree=26
num_leaves=31
num_cat=0
split_feature=6 5 6 6 3 2 5 3 16 4 7 16 6 2 16 6 6 3 6 2 16 5 16 16 5 4 0 3 4 0
split_gain=58.172 49.8236 21.4915 22.1258 22.9022 15.8146 14.4607 14.0534 14.0293 14.0014 13.1799 13.0006 12.6075 14.3658 12.3838 12.3085 12.1285 11.9866 15.1494 11.5282 11.4735 15.5924 10.9792 10.1426 11.6859 10.0638 9.87148 10.2053 9.69543 11.3868
threshold=-0.18511706346094334 0.10742420778494523 -1.0000000180025095e-35 1.0000000180025095e-35 0.15500000000000003 37.050000000000004 -0.40357630852214105 0.115 -0.53149999999999997 0.19500000000000003 1.0000000180025095e-35 -0.050499999999999996 0.5170562025155202 142.95000000000002 0.19650000000000004 -0.022434859496289757 0.10617498455718356 0.6150000000000001 0.30322787797940626 22.750000000000004 -0.25849999999999995 -0.68101519552778422 -0.24949999999999997 0.42900000000000005 0.23565475654870885 0.65500000000000014 37.400000000000006 0.51500000000000012 0.17500000000000002 53.000000000000007
decision_type=2 2 2 2 2 2 2 2 2 2 2 2 2 2 2 2 2 2 2 2 2 2 2 2 2 2 2 2 2 2
left_child=7 2 6 11 -5 28 26 -1 10 -7 -9 -4 13 16 19 22 23 18 -6 -13 -10 -22 -8 -11 -25 -24 27 -2 29 -3
right_child=1 5 3 4 17 9 15 8 20 12 -12 14 -14 -15 -16 -17 -18 -19 -20 -21 21 -23 25 24 -26 -27 -28 -29 -30 -31
leaf_value=0.045885730188501672 -0.041153493798607818 0.069359254384726163 -0.022278238778332998 -0.013337464789091692 -0.0031247058896375188 -0.013976723154945038 -0.010525106029353214 0.016526117708458136 -0.0026431833152314619 -0.0090151978792886358 -0.017236156078358159 -0.0023388574221314333 0.0067090611421472858 -0.0075755967485763914 -0.024768007453671553 0.0078412809073830636 0.0037428207404053924 -0.01527461536289655 0.0098901658791052029 -0.025471687822339602 0.019958571061573293 0.0043763993794805394 -0.0051005931751599625 0.075718491608832261 -0.010947908947859783 0.00047461987199058577 0.048450327221097225 0.031138654356676194 0.0084631751692568827 0.010596575410450006
leaf_weight=21.206753134727478 8.335245147347452 14.533593013882635 276.90709736943245 615.90677104890347 2949.047616571188 140.65034070611 363.02381017804146 371.80832406878471 540.9678261578083 298.74562534689903 31.342675641179085 393.70581935346127 1046.6466528475285 482.74267053604126 102.09249380230904 328.00092098116875 1666.3996366262436 183.63990327715874 241.93423876166344 62.392342254519463 170.4408565312624 2765.2586345672607 1220.9250941723585 7.7805325686931592 7.777685210108757 2401.5897231698036 24.504030853509903 11.783032327890394 637.7272906601429 19.049920856952667
leaf_count=92 40 66 1543 3712 15698 718 1835 1601 2456 1433 133 2140 4633 2367 564 1634 8046 991 1188 353 736 12570 6204 37 35 11693 116 57 2923 89
internal_value=-8.44348e-05 -0.00163788 -0.00372122 -0.00601984 -0.00447104 0.00278895 -0.00117605 0.00529378 0.00507191 0.00149199 0.0139013 -0.0134208 0.00211183 0.000158599 -0.00902682 -0.00146898 0.0020436 -0.00285281 -0.00213794 -0.00550333 0.00404806 0.00528107 -0.0022352 -0.00696546 0.0323932 -0.00140444 0.0271414 0.00118714 0.00984209 0.0360267
internal_weight=17406.9 13505.8 9183.79 4825.63 3990.53 4322.05 4358.16 3901.03 3879.82 3650.74 403.151 835.098 3510.09 2463.45 558.191 4313.54 1980.7 3374.62 3190.98 456.098 3476.67 2935.7 3985.54 314.304 15.5582 3622.51 44.6223 20.1183 671.311 33.5835
internal_count=85703 68115 47768 26189 21589 20347 21579 17588 17496 17269 1734 4600 16551 11918 3057 21366 9551 17877 16886 2493 15762 13306 19732 1505 72 17897 213 97 3078 155
is_linear=0
shrinkage=0.05


Tree=27
num_leaves=31
num_cat=0
split_feature=6 5 5 9 1 6 2 9 3 16 4 2 9 4 16 4 5 8 16 2 16 2 6 5 3 4 9 4 16 6
split_gain=52.5869 50.7763 23.9788 15.981 15.9547 16.5995 14.7397 14.2203 13.3533 11.013 11.9102 10.9697 13.3441 12.726 10.6646 10.2481 10.1459 10.0772 12.4346 10.6714 16.4716 9.95206 9.87491 9.76705 9.70317 9.35681 10.4431 13.4184 13.9881 11.2559
threshold=-0.13054830287206329 0.063373181674364357 -0.1316205783922719 61.850000000000001 -2.1499999999999999 0.85776614829061748 66.750000000000014 74.65000000000002 0.12500000000000003 0.47850000000000004 4.5150000000000006 183.85000000000005 63.050000000000004 2.7450000000000006 -0.68149999999999988 0.23500000000000001 -0.054371466497660219 1.0000000180025095e-35 0.37650000000000006 79.750000000000014 0.047500000000000007 -37.649999999999999 0.29614453353540299 -0.74684369890746771 0.18500000000000003 0.76500000000000012 76.450000000000017 1.0550000000000004 -0.10249999999999998 0.041426970932867409
decision_type=2 2 2 2 2 2 2 2 2 2 2 2 2 2 2 2 2 2 2 2 2 2 2 2 2 2 2 2 2 2
left_child=7 2 15 17 -3 11 -7 8 16 -8 -11 12 22 -14 -10 21 -1 19 -19 -4 -21 -2 -6 -9 -20 -5 -27 29 -29 -28
right_child=1 4 3 25 5 6 9 23 14 10 -12 -13 13 -15 -16 -17 -18 18 24 20 -22 -23 -24 -25 -26 26 27 28 -30 -31
leaf_value=0.063175514833896509 0.0053267135451159553 0.0044196462675278369 -0.0069629175436396662 0.00028252549379967525 -0.012989548603249239 -0.062627467067603873 0.016980492213675844 0.016767505603295492 0.016727396094895781 -0.0073906176956336474 0.045594407669564879 -0.010825540796853925 0.0025581535373925906 -0.020610535541883232 0.00055572804457847493 0.0021846038982156002 0.012583607900120858 -0.015103349599804031 -0.029839563302143254 -0.014647220765402364 0.08282090176355518 0.054610133378987652 0.00041507128904454019 0.0059701498041753063 0.03490142028141429 -0.0096403339862057204 0.0093366188256408002 -0.012759929663566408 -0.0030232845259487878 -0.0068512374277509662
leaf_weight=14.388369917869566 22.495814234018326 2787.567425146699 881.39607471227646 938.90530686080456 338.57199588418007 7.0106932371854773 227.98243625462055 231.88122129440308 106.30735622346401 103.68365056812763 11.814562618732451 340.19895611703396 1334.6751569658518 62.023338615894318 2485.5296095311642 748.495206579566 31.837731555104256 779.06941269338131 7.8630664050579098 8.9364039003849047 8.417574539780615 18.80778780579567 231.22372743487358 2164.5621390044689 21.92607980966568 1005.1018303632736 319.53453634679317 488.27816200256348 1508.465340718627 161.73950472474098
leaf_count=65 111 12831 4672 4964 1978 35 981 982 459 449 50 1679 6701 314 11567 3701 146 4692 52 51 47 93 1192 9820 124 5333 1578 2519 7661 856
internal_value=-8.0969e-05 -0.00183504 -0.00467735 -0.0057339 0.0017771 -0.000995116 0.00914312 0.00422683 0.0016941 0.010608 -0.00197066 -0.00253557 -0.00110143 0.0015293 0.00121903 0.00352253 0.0283309 -0.00984228 -0.0138911 -0.00619842 0.0326298 0.0277681 -0.00754994 0.00701491 0.0178126 -0.0041474 -0.00534153 -0.0035979 -0.00540426 0.00389644
internal_weight=17398.7 12364.2 6919.43 6129.63 5444.75 2657.18 350.491 5034.51 2638.06 343.481 115.498 2306.69 1966.49 1396.7 2591.84 789.799 46.2261 1707.61 808.859 898.75 17.354 41.3036 569.796 2396.44 29.7891 4422.02 3483.12 2478.02 1996.74 481.274
internal_count=85703 62664 36454 32549 26210 13379 1515 23039 12237 1480 499 11864 10185 7015 12026 3905 211 9638 4868 4770 98 204 3170 10802 176 22911 17947 12614 10180 2434
is_linear=0
shrinkage=0.05


Tree=28
num_leaves=31
num_cat=0
